#include "simple_conv.h"

quant_reshp weights_l1[384] = {-12817, 1347, 30241, -30293, -12817, 1347, 30241, -30293, -12817, 1347, 30241, -30293, 15582, 4180, -18590, -1894, 15582, 4180, -18590, -1894, 15582, 4180, -18590, -1894, 17357, 8453, -21642, -4215, 17357, 8453, -21642, -4215, 17357, 8453, -21642, -4215, 21564, 25104, -25929, -8456, 21564, 25104, -25929, -8456, 21564, 25104, -25929, -8456, 1347, 30241, -30293, -12817, 1347, 30241, -30293, -12817, 1347, 30241, -30293, -12817, 4180, -18590, -1894, 15582, 4180, -18590, -1894, 15582, 4180, -18590, -1894, 15582, 8453, -21642, -4215, 17357, 8453, -21642, -4215, 17357, 8453, -21642, -4215, 17357, 25104, -25929, -8456, 21564, 25104, -25929, -8456, 21564, 25104, -25929, -8456, 21564, 30241, -30293, -12817, 1347, 30241, -30293, -12817, 1347, 30241, -30293, -12817, 1347, -18590, -1894, 15582, 4180, -18590, -1894, 15582, 4180, -18590, -1894, 15582, 4180, -21642, -4215, 17357, 8453, -21642, -4215, 17357, 8453, -21642, -4215, 17357, 8453, -25929, -8456, 21564, 25104, -25929, -8456, 21564, 25104, -25929, -8456, 21564, 25104, -30293, -12817, 1347, 30241, -30293, -12817, 1347, 30241, -30293, -12817, 1347, 30241, -1894, 15582, 4180, -18590, -1894, 15582, 4180, -18590, -1894, 15582, 4180, -18590, -4215, 17357, 8453, -21642, -4215, 17357, 8453, -21642, -4215, 17357, 8453, -21642, -8456, 21564, 25104, -25929, -8456, 21564, 25104, -25929, -8456, 21564, 25104, -25929, -12817, 1347, 30241, -30293, -12817, 1347, 30241, -30293, -12817, 1347, 30241, -30293, 15582, 4180, -18590, -1894, 15582, 4180, -18590, -1894, 15582, 4180, -18590, -1894, 17357, 8453, -21642, -4215, 17357, 8453, -21642, -4215, 17357, 8453, -21642, -4215, 21564, 25104, -25929, -8456, 21564, 25104, -25929, -8456, 21564, 25104, -25929, -8456, 1347, 30241, -30293, -12817, 1347, 30241, -30293, -12817, 1347, 30241, -30293, -12817, 4180, -18590, -1894, 15582, 4180, -18590, -1894, 15582, 4180, -18590, -1894, 15582, 8453, -21642, -4215, 17357, 8453, -21642, -4215, 17357, 8453, -21642, -4215, 17357, 25104, -25929, -8456, 21564, 25104, -25929, -8456, 21564, 25104, -25929, -8456, 21564, 30241, -30293, -12817, 1347, 30241, -30293, -12817, 1347, 30241, -30293, -12817, 1347, -18590, -1894, 15582, 4180, -18590, -1894, 15582, 4180, -18590, -1894, 15582, 4180, -21642, -4215, 17357, 8453, -21642, -4215, 17357, 8453, -21642, -4215, 17357, 8453, -25929, -8456, 21564, 25104, -25929, -8456, 21564, 25104, -25929, -8456, 21564, 25104, -30293, -12817, 1347, 30241, -30293, -12817, 1347, 30241, -30293, -12817, 1347, 30241, -1894, 15582, 4180, -18590, -1894, 15582, 4180, -18590, -1894, 15582, 4180, -18590, -4215, 17357, 8453, -21642, -4215, 17357, 8453, -21642, -4215, 17357, 8453, -21642, -8456, 21564, 25104, -25929, -8456, 21564, 25104, -25929, -8456, 21564, 25104, -25929};
quant_reshp weights_l2[3072] = {-23212, 4106, 12833, -30317, 30312, -4105, -12834, 19388, -23212, 4106, 12833, -30317, 30312, -4105, -12834, 19388, -23212, 4106, 12833, -30317, 30312, -4105, -12834, 19388, 2725, 8464, -27854, 26761, -2186, -8465, -17203, 21579, 2725, 8464, -27854, 26761, -2186, -8465, -17203, 21579, 2725, 8464, -27854, 26761, -2186, -8465, -17203, 21579, -23212, 4106, 12833, -30317, 30312, -4105, -12834, 19388, 2725, 8464, -27854, 26761, -2186, -8465, -17203, 21579, 2725, 8464, -27854, 26761, -2186, -8465, -17203, 21579, 2725, 8464, -27854, 26761, -2186, -8465, -17203, 21579, 4106, 12833, -30317, 30312, -4105, -12834, 19388, -23212, 4106, 12833, -30317, 30312, -4105, -12834, 19388, -23212, 2725, 8464, -27854, 26761, -2186, -8465, -17203, 21579, 2725, 8464, -27854, 26761, -2186, -8465, -17203, 21579, 4106, 12833, -30317, 30312, -4105, -12834, 19388, -23212, 4106, 12833, -30317, 30312, -4105, -12834, 19388, -23212, 4106, 12833, -30317, 30312, -4105, -12834, 19388, -23212, 8464, -27854, 26761, -2186, -8465, -17203, 21579, 2725, 4106, 12833, -30317, 30312, -4105, -12834, 19388, -23212, 4106, 12833, -30317, 30312, -4105, -12834, 19388, -23212, 4106, 12833, -30317, 30312, -4105, -12834, 19388, -23212, 8464, -27854, 26761, -2186, -8465, -17203, 21579, 2725, 8464, -27854, 26761, -2186, -8465, -17203, 21579, 2725, 8464, -27854, 26761, -2186, -8465, -17203, 21579, 2725, 8464, -27854, 26761, -2186, -8465, -17203, 21579, 2725, 8464, -27854, 26761, -2186, -8465, -17203, 21579, 2725, 8464, -27854, 26761, -2186, -8465, -17203, 21579, 2725, 12833, -30317, 30312, -4105, -12834, 19388, -23212, 4106, 12833, -30317, 30312, -4105, -12834, 19388, -23212, 4106, 12833, -30317, 30312, -4105, -12834, 19388, -23212, 4106, 8464, -27854, 26761, -2186, -8465, -17203, 21579, 2725, 12833, -30317, 30312, -4105, -12834, 19388, -23212, 4106, 12833, -30317, 30312, -4105, -12834, 19388, -23212, 4106, 12833, -30317, 30312, -4105, -12834, 19388, -23212, 4106, -27854, 26761, -2186, -8465, -17203, 21579, 2725, 8464, -27854, 26761, -2186, -8465, -17203, 21579, 2725, 8464, 12833, -30317, 30312, -4105, -12834, 19388, -23212, 4106, 12833, -30317, 30312, -4105, -12834, 19388, -23212, 4106, -27854, 26761, -2186, -8465, -17203, 21579, 2725, 8464, -27854, 26761, -2186, -8465, -17203, 21579, 2725, 8464, -27854, 26761, -2186, -8465, -17203, 21579, 2725, 8464, -30317, 30312, -4105, -12834, 19388, -23212, 4106, 12833, -27854, 26761, -2186, -8465, -17203, 21579, 2725, 8464, -27854, 26761, -2186, -8465, -17203, 21579, 2725, 8464, -27854, 26761, -2186, -8465, -17203, 21579, 2725, 8464, -30317, 30312, -4105, -12834, 19388, -23212, 4106, 12833, -30317, 30312, -4105, -12834, 19388, -23212, 4106, 12833, -30317, 30312, -4105, -12834, 19388, -23212, 4106, 12833, -30317, 30312, -4105, -12834, 19388, -23212, 4106, 12833, -30317, 30312, -4105, -12834, 19388, -23212, 4106, 12833, -30317, 30312, -4105, -12834, 19388, -23212, 4106, 12833, 26761, -2186, -8465, -17203, 21579, 2725, 8464, -27854, 26761, -2186, -8465, -17203, 21579, 2725, 8464, -27854, 26761, -2186, -8465, -17203, 21579, 2725, 8464, -27854, -30317, 30312, -4105, -12834, 19388, -23212, 4106, 12833, 26761, -2186, -8465, -17203, 21579, 2725, 8464, -27854, 26761, -2186, -8465, -17203, 21579, 2725, 8464, -27854, 26761, -2186, -8465, -17203, 21579, 2725, 8464, -27854, 30312, -4105, -12834, 19388, -23212, 4106, 12833, -30317, 30312, -4105, -12834, 19388, -23212, 4106, 12833, -30317, 26761, -2186, -8465, -17203, 21579, 2725, 8464, -27854, 26761, -2186, -8465, -17203, 21579, 2725, 8464, -27854, 30312, -4105, -12834, 19388, -23212, 4106, 12833, -30317, 30312, -4105, -12834, 19388, -23212, 4106, 12833, -30317, 30312, -4105, -12834, 19388, -23212, 4106, 12833, -30317, -2186, -8465, -17203, 21579, 2725, 8464, -27854, 26761, 30312, -4105, -12834, 19388, -23212, 4106, 12833, -30317, 30312, -4105, -12834, 19388, -23212, 4106, 12833, -30317, 30312, -4105, -12834, 19388, -23212, 4106, 12833, -30317, -2186, -8465, -17203, 21579, 2725, 8464, -27854, 26761, -2186, -8465, -17203, 21579, 2725, 8464, -27854, 26761, -2186, -8465, -17203, 21579, 2725, 8464, -27854, 26761, -2186, -8465, -17203, 21579, 2725, 8464, -27854, 26761, -2186, -8465, -17203, 21579, 2725, 8464, -27854, 26761, -2186, -8465, -17203, 21579, 2725, 8464, -27854, 26761, -4105, -12834, 19388, -23212, 4106, 12833, -30317, 30312, -4105, -12834, 19388, -23212, 4106, 12833, -30317, 30312, -4105, -12834, 19388, -23212, 4106, 12833, -30317, 30312, -2186, -8465, -17203, 21579, 2725, 8464, -27854, 26761, -4105, -12834, 19388, -23212, 4106, 12833, -30317, 30312, -4105, -12834, 19388, -23212, 4106, 12833, -30317, 30312, -4105, -12834, 19388, -23212, 4106, 12833, -30317, 30312, -8465, -17203, 21579, 2725, 8464, -27854, 26761, -2186, -8465, -17203, 21579, 2725, 8464, -27854, 26761, -2186, -4105, -12834, 19388, -23212, 4106, 12833, -30317, 30312, -4105, -12834, 19388, -23212, 4106, 12833, -30317, 30312, -8465, -17203, 21579, 2725, 8464, -27854, 26761, -2186, -8465, -17203, 21579, 2725, 8464, -27854, 26761, -2186, -8465, -17203, 21579, 2725, 8464, -27854, 26761, -2186, -12834, 19388, -23212, 4106, 12833, -30317, 30312, -4105, -8465, -17203, 21579, 2725, 8464, -27854, 26761, -2186, -8465, -17203, 21579, 2725, 8464, -27854, 26761, -2186, -8465, -17203, 21579, 2725, 8464, -27854, 26761, -2186, -12834, 19388, -23212, 4106, 12833, -30317, 30312, -4105, -12834, 19388, -23212, 4106, 12833, -30317, 30312, -4105, -12834, 19388, -23212, 4106, 12833, -30317, 30312, -4105, -12834, 19388, -23212, 4106, 12833, -30317, 30312, -4105, -12834, 19388, -23212, 4106, 12833, -30317, 30312, -4105, -12834, 19388, -23212, 4106, 12833, -30317, 30312, -4105, -17203, 21579, 2725, 8464, -27854, 26761, -2186, -8465, -17203, 21579, 2725, 8464, -27854, 26761, -2186, -8465, -17203, 21579, 2725, 8464, -27854, 26761, -2186, -8465, -12834, 19388, -23212, 4106, 12833, -30317, 30312, -4105, -17203, 21579, 2725, 8464, -27854, 26761, -2186, -8465, -17203, 21579, 2725, 8464, -27854, 26761, -2186, -8465, -17203, 21579, 2725, 8464, -27854, 26761, -2186, -8465, 19388, -23212, 4106, 12833, -30317, 30312, -4105, -12834, 19388, -23212, 4106, 12833, -30317, 30312, -4105, -12834, -17203, 21579, 2725, 8464, -27854, 26761, -2186, -8465, -17203, 21579, 2725, 8464, -27854, 26761, -2186, -8465, 19388, -23212, 4106, 12833, -30317, 30312, -4105, -12834, 19388, -23212, 4106, 12833, -30317, 30312, -4105, -12834, 19388, -23212, 4106, 12833, -30317, 30312, -4105, -12834, 21579, 2725, 8464, -27854, 26761, -2186, -8465, -17203, 19388, -23212, 4106, 12833, -30317, 30312, -4105, -12834, 19388, -23212, 4106, 12833, -30317, 30312, -4105, -12834, 19388, -23212, 4106, 12833, -30317, 30312, -4105, -12834, 21579, 2725, 8464, -27854, 26761, -2186, -8465, -17203, 21579, 2725, 8464, -27854, 26761, -2186, -8465, -17203, 21579, 2725, 8464, -27854, 26761, -2186, -8465, -17203, 21579, 2725, 8464, -27854, 26761, -2186, -8465, -17203, 21579, 2725, 8464, -27854, 26761, -2186, -8465, -17203, 21579, 2725, 8464, -27854, 26761, -2186, -8465, -17203, -23212, 4106, 12833, -30317, 30312, -4105, -12834, 19388, -23212, 4106, 12833, -30317, 30312, -4105, -12834, 19388, -23212, 4106, 12833, -30317, 30312, -4105, -12834, 19388, 21579, 2725, 8464, -27854, 26761, -2186, -8465, -17203, -23212, 4106, 12833, -30317, 30312, -4105, -12834, 19388, -23212, 4106, 12833, -30317, 30312, -4105, -12834, 19388, -23212, 4106, 12833, -30317, 30312, -4105, -12834, 19388, 2725, 8464, -27854, 26761, -2186, -8465, -17203, 21579, 2725, 8464, -27854, 26761, -2186, -8465, -17203, 21579, -23212, 4106, 12833, -30317, 30312, -4105, -12834, 19388, -23212, 4106, 12833, -30317, 30312, -4105, -12834, 19388, 2725, 8464, -27854, 26761, -2186, -8465, -17203, 21579, 2725, 8464, -27854, 26761, -2186, -8465, -17203, 21579, 2725, 8464, -27854, 26761, -2186, -8465, -17203, 21579, 4106, 12833, -30317, 30312, -4105, -12834, 19388, -23212, 2725, 8464, -27854, 26761, -2186, -8465, -17203, 21579, 2725, 8464, -27854, 26761, -2186, -8465, -17203, 21579, 2725, 8464, -27854, 26761, -2186, -8465, -17203, 21579, 4106, 12833, -30317, 30312, -4105, -12834, 19388, -23212, 4106, 12833, -30317, 30312, -4105, -12834, 19388, -23212, 4106, 12833, -30317, 30312, -4105, -12834, 19388, -23212, 4106, 12833, -30317, 30312, -4105, -12834, 19388, -23212, 4106, 12833, -30317, 30312, -4105, -12834, 19388, -23212, 4106, 12833, -30317, 30312, -4105, -12834, 19388, -23212, 8464, -27854, 26761, -2186, -8465, -17203, 21579, 2725, 8464, -27854, 26761, -2186, -8465, -17203, 21579, 2725, 8464, -27854, 26761, -2186, -8465, -17203, 21579, 2725, 4106, 12833, -30317, 30312, -4105, -12834, 19388, -23212, 8464, -27854, 26761, -2186, -8465, -17203, 21579, 2725, 8464, -27854, 26761, -2186, -8465, -17203, 21579, 2725, 8464, -27854, 26761, -2186, -8465, -17203, 21579, 2725, 12833, -30317, 30312, -4105, -12834, 19388, -23212, 4106, 12833, -30317, 30312, -4105, -12834, 19388, -23212, 4106, 8464, -27854, 26761, -2186, -8465, -17203, 21579, 2725, 8464, -27854, 26761, -2186, -8465, -17203, 21579, 2725, 12833, -30317, 30312, -4105, -12834, 19388, -23212, 4106, 12833, -30317, 30312, -4105, -12834, 19388, -23212, 4106, 12833, -30317, 30312, -4105, -12834, 19388, -23212, 4106, -27854, 26761, -2186, -8465, -17203, 21579, 2725, 8464, 12833, -30317, 30312, -4105, -12834, 19388, -23212, 4106, 12833, -30317, 30312, -4105, -12834, 19388, -23212, 4106, 12833, -30317, 30312, -4105, -12834, 19388, -23212, 4106, -27854, 26761, -2186, -8465, -17203, 21579, 2725, 8464, -27854, 26761, -2186, -8465, -17203, 21579, 2725, 8464, -27854, 26761, -2186, -8465, -17203, 21579, 2725, 8464, -27854, 26761, -2186, -8465, -17203, 21579, 2725, 8464, -27854, 26761, -2186, -8465, -17203, 21579, 2725, 8464, -27854, 26761, -2186, -8465, -17203, 21579, 2725, 8464, -30317, 30312, -4105, -12834, 19388, -23212, 4106, 12833, -30317, 30312, -4105, -12834, 19388, -23212, 4106, 12833, -30317, 30312, -4105, -12834, 19388, -23212, 4106, 12833, -27854, 26761, -2186, -8465, -17203, 21579, 2725, 8464, -30317, 30312, -4105, -12834, 19388, -23212, 4106, 12833, -30317, 30312, -4105, -12834, 19388, -23212, 4106, 12833, -30317, 30312, -4105, -12834, 19388, -23212, 4106, 12833, 26761, -2186, -8465, -17203, 21579, 2725, 8464, -27854, 26761, -2186, -8465, -17203, 21579, 2725, 8464, -27854, -30317, 30312, -4105, -12834, 19388, -23212, 4106, 12833, -30317, 30312, -4105, -12834, 19388, -23212, 4106, 12833, 26761, -2186, -8465, -17203, 21579, 2725, 8464, -27854, 26761, -2186, -8465, -17203, 21579, 2725, 8464, -27854, 26761, -2186, -8465, -17203, 21579, 2725, 8464, -27854, 30312, -4105, -12834, 19388, -23212, 4106, 12833, -30317, 26761, -2186, -8465, -17203, 21579, 2725, 8464, -27854, 26761, -2186, -8465, -17203, 21579, 2725, 8464, -27854, 26761, -2186, -8465, -17203, 21579, 2725, 8464, -27854, 30312, -4105, -12834, 19388, -23212, 4106, 12833, -30317, 30312, -4105, -12834, 19388, -23212, 4106, 12833, -30317, 30312, -4105, -12834, 19388, -23212, 4106, 12833, -30317, 30312, -4105, -12834, 19388, -23212, 4106, 12833, -30317, 30312, -4105, -12834, 19388, -23212, 4106, 12833, -30317, 30312, -4105, -12834, 19388, -23212, 4106, 12833, -30317, -2186, -8465, -17203, 21579, 2725, 8464, -27854, 26761, -2186, -8465, -17203, 21579, 2725, 8464, -27854, 26761, -2186, -8465, -17203, 21579, 2725, 8464, -27854, 26761, 30312, -4105, -12834, 19388, -23212, 4106, 12833, -30317, -2186, -8465, -17203, 21579, 2725, 8464, -27854, 26761, -2186, -8465, -17203, 21579, 2725, 8464, -27854, 26761, -2186, -8465, -17203, 21579, 2725, 8464, -27854, 26761, -4105, -12834, 19388, -23212, 4106, 12833, -30317, 30312, -4105, -12834, 19388, -23212, 4106, 12833, -30317, 30312, -2186, -8465, -17203, 21579, 2725, 8464, -27854, 26761, -2186, -8465, -17203, 21579, 2725, 8464, -27854, 26761, -4105, -12834, 19388, -23212, 4106, 12833, -30317, 30312, -4105, -12834, 19388, -23212, 4106, 12833, -30317, 30312, -4105, -12834, 19388, -23212, 4106, 12833, -30317, 30312, -8465, -17203, 21579, 2725, 8464, -27854, 26761, -2186, -4105, -12834, 19388, -23212, 4106, 12833, -30317, 30312, -4105, -12834, 19388, -23212, 4106, 12833, -30317, 30312, -4105, -12834, 19388, -23212, 4106, 12833, -30317, 30312, -8465, -17203, 21579, 2725, 8464, -27854, 26761, -2186, -8465, -17203, 21579, 2725, 8464, -27854, 26761, -2186, -8465, -17203, 21579, 2725, 8464, -27854, 26761, -2186, -8465, -17203, 21579, 2725, 8464, -27854, 26761, -2186, -8465, -17203, 21579, 2725, 8464, -27854, 26761, -2186, -8465, -17203, 21579, 2725, 8464, -27854, 26761, -2186, -12834, 19388, -23212, 4106, 12833, -30317, 30312, -4105, -12834, 19388, -23212, 4106, 12833, -30317, 30312, -4105, -12834, 19388, -23212, 4106, 12833, -30317, 30312, -4105, -8465, -17203, 21579, 2725, 8464, -27854, 26761, -2186, -12834, 19388, -23212, 4106, 12833, -30317, 30312, -4105, -12834, 19388, -23212, 4106, 12833, -30317, 30312, -4105, -12834, 19388, -23212, 4106, 12833, -30317, 30312, -4105, -17203, 21579, 2725, 8464, -27854, 26761, -2186, -8465, -17203, 21579, 2725, 8464, -27854, 26761, -2186, -8465, -12834, 19388, -23212, 4106, 12833, -30317, 30312, -4105, -12834, 19388, -23212, 4106, 12833, -30317, 30312, -4105, -17203, 21579, 2725, 8464, -27854, 26761, -2186, -8465, -17203, 21579, 2725, 8464, -27854, 26761, -2186, -8465, -17203, 21579, 2725, 8464, -27854, 26761, -2186, -8465, 19388, -23212, 4106, 12833, -30317, 30312, -4105, -12834, -17203, 21579, 2725, 8464, -27854, 26761, -2186, -8465, -17203, 21579, 2725, 8464, -27854, 26761, -2186, -8465, -17203, 21579, 2725, 8464, -27854, 26761, -2186, -8465, 19388, -23212, 4106, 12833, -30317, 30312, -4105, -12834, 19388, -23212, 4106, 12833, -30317, 30312, -4105, -12834, 19388, -23212, 4106, 12833, -30317, 30312, -4105, -12834, 19388, -23212, 4106, 12833, -30317, 30312, -4105, -12834, 19388, -23212, 4106, 12833, -30317, 30312, -4105, -12834, 19388, -23212, 4106, 12833, -30317, 30312, -4105, -12834, 21579, 2725, 8464, -27854, 26761, -2186, -8465, -17203, 21579, 2725, 8464, -27854, 26761, -2186, -8465, -17203, 21579, 2725, 8464, -27854, 26761, -2186, -8465, -17203, 19388, -23212, 4106, 12833, -30317, 30312, -4105, -12834, 21579, 2725, 8464, -27854, 26761, -2186, -8465, -17203, 21579, 2725, 8464, -27854, 26761, -2186, -8465, -17203, 21579, 2725, 8464, -27854, 26761, -2186, -8465, -17203, -23212, 4106, 12833, -30317, 30312, -4105, -12834, 19388, -23212, 4106, 12833, -30317, 30312, -4105, -12834, 19388, 21579, 2725, 8464, -27854, 26761, -2186, -8465, -17203, 21579, 2725, 8464, -27854, 26761, -2186, -8465, -17203, -23212, 4106, 12833, -30317, 30312, -4105, -12834, 19388, -23212, 4106, 12833, -30317, 30312, -4105, -12834, 19388, -23212, 4106, 12833, -30317, 30312, -4105, -12834, 19388, 2725, 8464, -27854, 26761, -2186, -8465, -17203, 21579, -23212, 4106, 12833, -30317, 30312, -4105, -12834, 19388, -23212, 4106, 12833, -30317, 30312, -4105, -12834, 19388, -23212, 4106, 12833, -30317, 30312, -4105, -12834, 19388, 2725, 8464, -27854, 26761, -2186, -8465, -17203, 21579, 2725, 8464, -27854, 26761, -2186, -8465, -17203, 21579, 2725, 8464, -27854, 26761, -2186, -8465, -17203, 21579, 2725, 8464, -27854, 26761, -2186, -8465, -17203, 21579, 2725, 8464, -27854, 26761, -2186, -8465, -17203, 21579, 2725, 8464, -27854, 26761, -2186, -8465, -17203, 21579, 4106, 12833, -30317, 30312, -4105, -12834, 19388, -23212, 4106, 12833, -30317, 30312, -4105, -12834, 19388, -23212, 4106, 12833, -30317, 30312, -4105, -12834, 19388, -23212, 2725, 8464, -27854, 26761, -2186, -8465, -17203, 21579, 4106, 12833, -30317, 30312, -4105, -12834, 19388, -23212, 4106, 12833, -30317, 30312, -4105, -12834, 19388, -23212, 4106, 12833, -30317, 30312, -4105, -12834, 19388, -23212, 8464, -27854, 26761, -2186, -8465, -17203, 21579, 2725, 8464, -27854, 26761, -2186, -8465, -17203, 21579, 2725, 4106, 12833, -30317, 30312, -4105, -12834, 19388, -23212, 4106, 12833, -30317, 30312, -4105, -12834, 19388, -23212, 8464, -27854, 26761, -2186, -8465, -17203, 21579, 2725, 8464, -27854, 26761, -2186, -8465, -17203, 21579, 2725, 8464, -27854, 26761, -2186, -8465, -17203, 21579, 2725, 12833, -30317, 30312, -4105, -12834, 19388, -23212, 4106, 8464, -27854, 26761, -2186, -8465, -17203, 21579, 2725, 8464, -27854, 26761, -2186, -8465, -17203, 21579, 2725, 8464, -27854, 26761, -2186, -8465, -17203, 21579, 2725, 12833, -30317, 30312, -4105, -12834, 19388, -23212, 4106, 12833, -30317, 30312, -4105, -12834, 19388, -23212, 4106, 12833, -30317, 30312, -4105, -12834, 19388, -23212, 4106, 12833, -30317, 30312, -4105, -12834, 19388, -23212, 4106, 12833, -30317, 30312, -4105, -12834, 19388, -23212, 4106, 12833, -30317, 30312, -4105, -12834, 19388, -23212, 4106, -27854, 26761, -2186, -8465, -17203, 21579, 2725, 8464, -27854, 26761, -2186, -8465, -17203, 21579, 2725, 8464, -27854, 26761, -2186, -8465, -17203, 21579, 2725, 8464, 12833, -30317, 30312, -4105, -12834, 19388, -23212, 4106, -27854, 26761, -2186, -8465, -17203, 21579, 2725, 8464, -27854, 26761, -2186, -8465, -17203, 21579, 2725, 8464, -27854, 26761, -2186, -8465, -17203, 21579, 2725, 8464, -30317, 30312, -4105, -12834, 19388, -23212, 4106, 12833, -30317, 30312, -4105, -12834, 19388, -23212, 4106, 12833, -27854, 26761, -2186, -8465, -17203, 21579, 2725, 8464, -27854, 26761, -2186, -8465, -17203, 21579, 2725, 8464, -30317, 30312, -4105, -12834, 19388, -23212, 4106, 12833, -30317, 30312, -4105, -12834, 19388, -23212, 4106, 12833, -30317, 30312, -4105, -12834, 19388, -23212, 4106, 12833, 26761, -2186, -8465, -17203, 21579, 2725, 8464, -27854, -30317, 30312, -4105, -12834, 19388, -23212, 4106, 12833, -30317, 30312, -4105, -12834, 19388, -23212, 4106, 12833, -30317, 30312, -4105, -12834, 19388, -23212, 4106, 12833, 26761, -2186, -8465, -17203, 21579, 2725, 8464, -27854, 26761, -2186, -8465, -17203, 21579, 2725, 8464, -27854, 26761, -2186, -8465, -17203, 21579, 2725, 8464, -27854, 26761, -2186, -8465, -17203, 21579, 2725, 8464, -27854, 26761, -2186, -8465, -17203, 21579, 2725, 8464, -27854, 26761, -2186, -8465, -17203, 21579, 2725, 8464, -27854, 30312, -4105, -12834, 19388, -23212, 4106, 12833, -30317, 30312, -4105, -12834, 19388, -23212, 4106, 12833, -30317, 30312, -4105, -12834, 19388, -23212, 4106, 12833, -30317, 26761, -2186, -8465, -17203, 21579, 2725, 8464, -27854, 30312, -4105, -12834, 19388, -23212, 4106, 12833, -30317, 30312, -4105, -12834, 19388, -23212, 4106, 12833, -30317, 30312, -4105, -12834, 19388, -23212, 4106, 12833, -30317, -2186, -8465, -17203, 21579, 2725, 8464, -27854, 26761, -2186, -8465, -17203, 21579, 2725, 8464, -27854, 26761, 30312, -4105, -12834, 19388, -23212, 4106, 12833, -30317, 30312, -4105, -12834, 19388, -23212, 4106, 12833, -30317, -2186, -8465, -17203, 21579, 2725, 8464, -27854, 26761, -2186, -8465, -17203, 21579, 2725, 8464, -27854, 26761, -2186, -8465, -17203, 21579, 2725, 8464, -27854, 26761, -4105, -12834, 19388, -23212, 4106, 12833, -30317, 30312, -2186, -8465, -17203, 21579, 2725, 8464, -27854, 26761, -2186, -8465, -17203, 21579, 2725, 8464, -27854, 26761, -2186, -8465, -17203, 21579, 2725, 8464, -27854, 26761, -4105, -12834, 19388, -23212, 4106, 12833, -30317, 30312, -4105, -12834, 19388, -23212, 4106, 12833, -30317, 30312, -4105, -12834, 19388, -23212, 4106, 12833, -30317, 30312, -4105, -12834, 19388, -23212, 4106, 12833, -30317, 30312, -4105, -12834, 19388, -23212, 4106, 12833, -30317, 30312, -4105, -12834, 19388, -23212, 4106, 12833, -30317, 30312, -8465, -17203, 21579, 2725, 8464, -27854, 26761, -2186, -8465, -17203, 21579, 2725, 8464, -27854, 26761, -2186, -8465, -17203, 21579, 2725, 8464, -27854, 26761, -2186, -4105, -12834, 19388, -23212, 4106, 12833, -30317, 30312, -8465, -17203, 21579, 2725, 8464, -27854, 26761, -2186, -8465, -17203, 21579, 2725, 8464, -27854, 26761, -2186, -8465, -17203, 21579, 2725, 8464, -27854, 26761, -2186, -12834, 19388, -23212, 4106, 12833, -30317, 30312, -4105, -12834, 19388, -23212, 4106, 12833, -30317, 30312, -4105, -8465, -17203, 21579, 2725, 8464, -27854, 26761, -2186, -8465, -17203, 21579, 2725, 8464, -27854, 26761, -2186, -12834, 19388, -23212, 4106, 12833, -30317, 30312, -4105, -12834, 19388, -23212, 4106, 12833, -30317, 30312, -4105, -12834, 19388, -23212, 4106, 12833, -30317, 30312, -4105, -17203, 21579, 2725, 8464, -27854, 26761, -2186, -8465, -12834, 19388, -23212, 4106, 12833, -30317, 30312, -4105, -12834, 19388, -23212, 4106, 12833, -30317, 30312, -4105, -12834, 19388, -23212, 4106, 12833, -30317, 30312, -4105, -17203, 21579, 2725, 8464, -27854, 26761, -2186, -8465, -17203, 21579, 2725, 8464, -27854, 26761, -2186, -8465, -17203, 21579, 2725, 8464, -27854, 26761, -2186, -8465, -17203, 21579, 2725, 8464, -27854, 26761, -2186, -8465, -17203, 21579, 2725, 8464, -27854, 26761, -2186, -8465, -17203, 21579, 2725, 8464, -27854, 26761, -2186, -8465, 19388, -23212, 4106, 12833, -30317, 30312, -4105, -12834, 19388, -23212, 4106, 12833, -30317, 30312, -4105, -12834, 19388, -23212, 4106, 12833, -30317, 30312, -4105, -12834, -17203, 21579, 2725, 8464, -27854, 26761, -2186, -8465, 19388, -23212, 4106, 12833, -30317, 30312, -4105, -12834, 19388, -23212, 4106, 12833, -30317, 30312, -4105, -12834, 19388, -23212, 4106, 12833, -30317, 30312, -4105, -12834, 21579, 2725, 8464, -27854, 26761, -2186, -8465, -17203, 21579, 2725, 8464, -27854, 26761, -2186, -8465, -17203, 19388, -23212, 4106, 12833, -30317, 30312, -4105, -12834, 19388, -23212, 4106, 12833, -30317, 30312, -4105, -12834, 21579, 2725, 8464, -27854, 26761, -2186, -8465, -17203, 21579, 2725, 8464, -27854, 26761, -2186, -8465, -17203, 21579, 2725, 8464, -27854, 26761, -2186, -8465, -17203, -23212, 4106, 12833, -30317, 30312, -4105, -12834, 19388, 21579, 2725, 8464, -27854, 26761, -2186, -8465, -17203, 21579, 2725, 8464, -27854, 26761, -2186, -8465, -17203, 21579, 2725, 8464, -27854, 26761, -2186, -8465, -17203, -23212, 4106, 12833, -30317, 30312, -4105, -12834, 19388, -23212, 4106, 12833, -30317, 30312, -4105, -12834, 19388, -23212, 4106, 12833, -30317, 30312, -4105, -12834, 19388};
quant_reshp weights_l3[2688] = {30345, -10929, 2748, -7391, 30345, -10929, 2748, -7391, 30345, -10929, 2748, -7391, 30345, -10929, 2748, -7391, 30345, -10929, 2748, -7391, 30345, -10929, 2748, -7391, 30345, -10929, 2748, -7391, 30345, -10929, 2748, -7391, 30345, -10929, 2748, -7391, 30345, -10929, 2748, -7391, 30345, -10929, -2200, -12972, 4267, -25038, -2200, -12972, 4267, -25038, -2200, -12972, 4267, -25038, -2200, -12972, 4267, -25038, -2200, -12972, 4267, -25038, -2200, -12972, 4267, -25038, -2200, -12972, 4267, -25038, -2200, -12972, 4267, -25038, -2200, -12972, 4267, -25038, -2200, -12972, 4267, -25038, -2200, -12972, 20342, -17195, 8458, -30237, 20342, -17195, 8458, -30237, 20342, -17195, 8458, -30237, 20342, -17195, 8458, -30237, 20342, -17195, 8458, -30237, 20342, -17195, 8458, -30237, 20342, -17195, 8458, -30237, 20342, -17195, 8458, -30237, 20342, -17195, 8458, -30237, 20342, -17195, 8458, -30237, 20342, -17195, 21751, -21555, 12816, 26782, 21751, -21555, 12816, 26782, 21751, -21555, 12816, 26782, 21751, -21555, 12816, 26782, 21751, -21555, 12816, 26782, 21751, -21555, 12816, 26782, 21751, -21555, 12816, 26782, 21751, -21555, 12816, 26782, 21751, -21555, 12816, 26782, 21751, -21555, 12816, 26782, 21751, -21555, -10929, 2748, -7391, 30345, -10929, 2748, -7391, 30345, -10929, 2748, -7391, 30345, -10929, 2748, -7391, 30345, -10929, 2748, -7391, 30345, -10929, 2748, -7391, 30345, -10929, 2748, -7391, 30345, -10929, 2748, -7391, 30345, -10929, 2748, -7391, 30345, -10929, 2748, -7391, 30345, -10929, 2748, -12972, 4267, -25038, -2200, -12972, 4267, -25038, -2200, -12972, 4267, -25038, -2200, -12972, 4267, -25038, -2200, -12972, 4267, -25038, -2200, -12972, 4267, -25038, -2200, -12972, 4267, -25038, -2200, -12972, 4267, -25038, -2200, -12972, 4267, -25038, -2200, -12972, 4267, -25038, -2200, -12972, 4267, -17195, 8458, -30237, 20342, -17195, 8458, -30237, 20342, -17195, 8458, -30237, 20342, -17195, 8458, -30237, 20342, -17195, 8458, -30237, 20342, -17195, 8458, -30237, 20342, -17195, 8458, -30237, 20342, -17195, 8458, -30237, 20342, -17195, 8458, -30237, 20342, -17195, 8458, -30237, 20342, -17195, 8458, -21555, 12816, 26782, 21751, -21555, 12816, 26782, 21751, -21555, 12816, 26782, 21751, -21555, 12816, 26782, 21751, -21555, 12816, 26782, 21751, -21555, 12816, 26782, 21751, -21555, 12816, 26782, 21751, -21555, 12816, 26782, 21751, -21555, 12816, 26782, 21751, -21555, 12816, 26782, 21751, -21555, 12816, 2748, -7391, 30345, -10929, 2748, -7391, 30345, -10929, 2748, -7391, 30345, -10929, 2748, -7391, 30345, -10929, 2748, -7391, 30345, -10929, 2748, -7391, 30345, -10929, 2748, -7391, 30345, -10929, 2748, -7391, 30345, -10929, 2748, -7391, 30345, -10929, 2748, -7391, 30345, -10929, 2748, -7391, 4267, -25038, -2200, -12972, 4267, -25038, -2200, -12972, 4267, -25038, -2200, -12972, 4267, -25038, -2200, -12972, 4267, -25038, -2200, -12972, 4267, -25038, -2200, -12972, 4267, -25038, -2200, -12972, 4267, -25038, -2200, -12972, 4267, -25038, -2200, -12972, 4267, -25038, -2200, -12972, 4267, -25038, 8458, -30237, 20342, -17195, 8458, -30237, 20342, -17195, 8458, -30237, 20342, -17195, 8458, -30237, 20342, -17195, 8458, -30237, 20342, -17195, 8458, -30237, 20342, -17195, 8458, -30237, 20342, -17195, 8458, -30237, 20342, -17195, 8458, -30237, 20342, -17195, 8458, -30237, 20342, -17195, 8458, -30237, 12816, 26782, 21751, -21555, 12816, 26782, 21751, -21555, 12816, 26782, 21751, -21555, 12816, 26782, 21751, -21555, 12816, 26782, 21751, -21555, 12816, 26782, 21751, -21555, 12816, 26782, 21751, -21555, 12816, 26782, 21751, -21555, 12816, 26782, 21751, -21555, 12816, 26782, 21751, -21555, 12816, 26782, -7391, 30345, -10929, 2748, -7391, 30345, -10929, 2748, -7391, 30345, -10929, 2748, -7391, 30345, -10929, 2748, -7391, 30345, -10929, 2748, -7391, 30345, -10929, 2748, -7391, 30345, -10929, 2748, -7391, 30345, -10929, 2748, -7391, 30345, -10929, 2748, -7391, 30345, -10929, 2748, -7391, 30345, -25038, -2200, -12972, 4267, -25038, -2200, -12972, 4267, -25038, -2200, -12972, 4267, -25038, -2200, -12972, 4267, -25038, -2200, -12972, 4267, -25038, -2200, -12972, 4267, -25038, -2200, -12972, 4267, -25038, -2200, -12972, 4267, -25038, -2200, -12972, 4267, -25038, -2200, -12972, 4267, -25038, -2200, -30237, 20342, -17195, 8458, -30237, 20342, -17195, 8458, -30237, 20342, -17195, 8458, -30237, 20342, -17195, 8458, -30237, 20342, -17195, 8458, -30237, 20342, -17195, 8458, -30237, 20342, -17195, 8458, -30237, 20342, -17195, 8458, -30237, 20342, -17195, 8458, -30237, 20342, -17195, 8458, -30237, 20342, 26782, 21751, -21555, 12816, 26782, 21751, -21555, 12816, 26782, 21751, -21555, 12816, 26782, 21751, -21555, 12816, 26782, 21751, -21555, 12816, 26782, 21751, -21555, 12816, 26782, 21751, -21555, 12816, 26782, 21751, -21555, 12816, 26782, 21751, -21555, 12816, 26782, 21751, -21555, 12816, 26782, 21751, 30345, -10929, 2748, -7391, 30345, -10929, 2748, -7391, 30345, -10929, 2748, -7391, 30345, -10929, 2748, -7391, 30345, -10929, 2748, -7391, 30345, -10929, 2748, -7391, 30345, -10929, 2748, -7391, 30345, -10929, 2748, -7391, 30345, -10929, 2748, -7391, 30345, -10929, 2748, -7391, 30345, -10929, -2200, -12972, 4267, -25038, -2200, -12972, 4267, -25038, -2200, -12972, 4267, -25038, -2200, -12972, 4267, -25038, -2200, -12972, 4267, -25038, -2200, -12972, 4267, -25038, -2200, -12972, 4267, -25038, -2200, -12972, 4267, -25038, -2200, -12972, 4267, -25038, -2200, -12972, 4267, -25038, -2200, -12972, 20342, -17195, 8458, -30237, 20342, -17195, 8458, -30237, 20342, -17195, 8458, -30237, 20342, -17195, 8458, -30237, 20342, -17195, 8458, -30237, 20342, -17195, 8458, -30237, 20342, -17195, 8458, -30237, 20342, -17195, 8458, -30237, 20342, -17195, 8458, -30237, 20342, -17195, 8458, -30237, 20342, -17195, 21751, -21555, 12816, 26782, 21751, -21555, 12816, 26782, 21751, -21555, 12816, 26782, 21751, -21555, 12816, 26782, 21751, -21555, 12816, 26782, 21751, -21555, 12816, 26782, 21751, -21555, 12816, 26782, 21751, -21555, 12816, 26782, 21751, -21555, 12816, 26782, 21751, -21555, 12816, 26782, 21751, -21555, -10929, 2748, -7391, 30345, -10929, 2748, -7391, 30345, -10929, 2748, -7391, 30345, -10929, 2748, -7391, 30345, -10929, 2748, -7391, 30345, -10929, 2748, -7391, 30345, -10929, 2748, -7391, 30345, -10929, 2748, -7391, 30345, -10929, 2748, -7391, 30345, -10929, 2748, -7391, 30345, -10929, 2748, -12972, 4267, -25038, -2200, -12972, 4267, -25038, -2200, -12972, 4267, -25038, -2200, -12972, 4267, -25038, -2200, -12972, 4267, -25038, -2200, -12972, 4267, -25038, -2200, -12972, 4267, -25038, -2200, -12972, 4267, -25038, -2200, -12972, 4267, -25038, -2200, -12972, 4267, -25038, -2200, -12972, 4267, -17195, 8458, -30237, 20342, -17195, 8458, -30237, 20342, -17195, 8458, -30237, 20342, -17195, 8458, -30237, 20342, -17195, 8458, -30237, 20342, -17195, 8458, -30237, 20342, -17195, 8458, -30237, 20342, -17195, 8458, -30237, 20342, -17195, 8458, -30237, 20342, -17195, 8458, -30237, 20342, -17195, 8458, -21555, 12816, 26782, 21751, -21555, 12816, 26782, 21751, -21555, 12816, 26782, 21751, -21555, 12816, 26782, 21751, -21555, 12816, 26782, 21751, -21555, 12816, 26782, 21751, -21555, 12816, 26782, 21751, -21555, 12816, 26782, 21751, -21555, 12816, 26782, 21751, -21555, 12816, 26782, 21751, -21555, 12816, 2748, -7391, 30345, -10929, 2748, -7391, 30345, -10929, 2748, -7391, 30345, -10929, 2748, -7391, 30345, -10929, 2748, -7391, 30345, -10929, 2748, -7391, 30345, -10929, 2748, -7391, 30345, -10929, 2748, -7391, 30345, -10929, 2748, -7391, 30345, -10929, 2748, -7391, 30345, -10929, 2748, -7391, 4267, -25038, -2200, -12972, 4267, -25038, -2200, -12972, 4267, -25038, -2200, -12972, 4267, -25038, -2200, -12972, 4267, -25038, -2200, -12972, 4267, -25038, -2200, -12972, 4267, -25038, -2200, -12972, 4267, -25038, -2200, -12972, 4267, -25038, -2200, -12972, 4267, -25038, -2200, -12972, 4267, -25038, 8458, -30237, 20342, -17195, 8458, -30237, 20342, -17195, 8458, -30237, 20342, -17195, 8458, -30237, 20342, -17195, 8458, -30237, 20342, -17195, 8458, -30237, 20342, -17195, 8458, -30237, 20342, -17195, 8458, -30237, 20342, -17195, 8458, -30237, 20342, -17195, 8458, -30237, 20342, -17195, 8458, -30237, 12816, 26782, 21751, -21555, 12816, 26782, 21751, -21555, 12816, 26782, 21751, -21555, 12816, 26782, 21751, -21555, 12816, 26782, 21751, -21555, 12816, 26782, 21751, -21555, 12816, 26782, 21751, -21555, 12816, 26782, 21751, -21555, 12816, 26782, 21751, -21555, 12816, 26782, 21751, -21555, 12816, 26782, -7391, 30345, -10929, 2748, -7391, 30345, -10929, 2748, -7391, 30345, -10929, 2748, -7391, 30345, -10929, 2748, -7391, 30345, -10929, 2748, -7391, 30345, -10929, 2748, -7391, 30345, -10929, 2748, -7391, 30345, -10929, 2748, -7391, 30345, -10929, 2748, -7391, 30345, -10929, 2748, -7391, 30345, -25038, -2200, -12972, 4267, -25038, -2200, -12972, 4267, -25038, -2200, -12972, 4267, -25038, -2200, -12972, 4267, -25038, -2200, -12972, 4267, -25038, -2200, -12972, 4267, -25038, -2200, -12972, 4267, -25038, -2200, -12972, 4267, -25038, -2200, -12972, 4267, -25038, -2200, -12972, 4267, -25038, -2200, -30237, 20342, -17195, 8458, -30237, 20342, -17195, 8458, -30237, 20342, -17195, 8458, -30237, 20342, -17195, 8458, -30237, 20342, -17195, 8458, -30237, 20342, -17195, 8458, -30237, 20342, -17195, 8458, -30237, 20342, -17195, 8458, -30237, 20342, -17195, 8458, -30237, 20342, -17195, 8458, -30237, 20342, 26782, 21751, -21555, 12816, 26782, 21751, -21555, 12816, 26782, 21751, -21555, 12816, 26782, 21751, -21555, 12816, 26782, 21751, -21555, 12816, 26782, 21751, -21555, 12816, 26782, 21751, -21555, 12816, 26782, 21751, -21555, 12816, 26782, 21751, -21555, 12816, 26782, 21751, -21555, 12816, 26782, 21751, 30345, -10929, 2748, -7391, 30345, -10929, 2748, -7391, 30345, -10929, 2748, -7391, 30345, -10929, 2748, -7391, 30345, -10929, 2748, -7391, 30345, -10929, 2748, -7391, 30345, -10929, 2748, -7391, 30345, -10929, 2748, -7391, 30345, -10929, 2748, -7391, 30345, -10929, 2748, -7391, 30345, -10929, -2200, -12972, 4267, -25038, -2200, -12972, 4267, -25038, -2200, -12972, 4267, -25038, -2200, -12972, 4267, -25038, -2200, -12972, 4267, -25038, -2200, -12972, 4267, -25038, -2200, -12972, 4267, -25038, -2200, -12972, 4267, -25038, -2200, -12972, 4267, -25038, -2200, -12972, 4267, -25038, -2200, -12972, 20342, -17195, 8458, -30237, 20342, -17195, 8458, -30237, 20342, -17195, 8458, -30237, 20342, -17195, 8458, -30237, 20342, -17195, 8458, -30237, 20342, -17195, 8458, -30237, 20342, -17195, 8458, -30237, 20342, -17195, 8458, -30237, 20342, -17195, 8458, -30237, 20342, -17195, 8458, -30237, 20342, -17195, 21751, -21555, 12816, 26782, 21751, -21555, 12816, 26782, 21751, -21555, 12816, 26782, 21751, -21555, 12816, 26782, 21751, -21555, 12816, 26782, 21751, -21555, 12816, 26782, 21751, -21555, 12816, 26782, 21751, -21555, 12816, 26782, 21751, -21555, 12816, 26782, 21751, -21555, 12816, 26782, 21751, -21555, -10929, 2748, -7391, 30345, -10929, 2748, -7391, 30345, -10929, 2748, -7391, 30345, -10929, 2748, -7391, 30345, -10929, 2748, -7391, 30345, -10929, 2748, -7391, 30345, -10929, 2748, -7391, 30345, -10929, 2748, -7391, 30345, -10929, 2748, -7391, 30345, -10929, 2748, -7391, 30345, -10929, 2748, -12972, 4267, -25038, -2200, -12972, 4267, -25038, -2200, -12972, 4267, -25038, -2200, -12972, 4267, -25038, -2200, -12972, 4267, -25038, -2200, -12972, 4267, -25038, -2200, -12972, 4267, -25038, -2200, -12972, 4267, -25038, -2200, -12972, 4267, -25038, -2200, -12972, 4267, -25038, -2200, -12972, 4267, -17195, 8458, -30237, 20342, -17195, 8458, -30237, 20342, -17195, 8458, -30237, 20342, -17195, 8458, -30237, 20342, -17195, 8458, -30237, 20342, -17195, 8458, -30237, 20342, -17195, 8458, -30237, 20342, -17195, 8458, -30237, 20342, -17195, 8458, -30237, 20342, -17195, 8458, -30237, 20342, -17195, 8458, -21555, 12816, 26782, 21751, -21555, 12816, 26782, 21751, -21555, 12816, 26782, 21751, -21555, 12816, 26782, 21751, -21555, 12816, 26782, 21751, -21555, 12816, 26782, 21751, -21555, 12816, 26782, 21751, -21555, 12816, 26782, 21751, -21555, 12816, 26782, 21751, -21555, 12816, 26782, 21751, -21555, 12816, 2748, -7391, 30345, -10929, 2748, -7391, 30345, -10929, 2748, -7391, 30345, -10929, 2748, -7391, 30345, -10929, 2748, -7391, 30345, -10929, 2748, -7391, 30345, -10929, 2748, -7391, 30345, -10929, 2748, -7391, 30345, -10929, 2748, -7391, 30345, -10929, 2748, -7391, 30345, -10929, 2748, -7391, 4267, -25038, -2200, -12972, 4267, -25038, -2200, -12972, 4267, -25038, -2200, -12972, 4267, -25038, -2200, -12972, 4267, -25038, -2200, -12972, 4267, -25038, -2200, -12972, 4267, -25038, -2200, -12972, 4267, -25038, -2200, -12972, 4267, -25038, -2200, -12972, 4267, -25038, -2200, -12972, 4267, -25038, 8458, -30237, 20342, -17195, 8458, -30237, 20342, -17195, 8458, -30237, 20342, -17195, 8458, -30237, 20342, -17195, 8458, -30237, 20342, -17195, 8458, -30237, 20342, -17195, 8458, -30237, 20342, -17195, 8458, -30237, 20342, -17195, 8458, -30237, 20342, -17195, 8458, -30237, 20342, -17195, 8458, -30237, 12816, 26782, 21751, -21555, 12816, 26782, 21751, -21555, 12816, 26782, 21751, -21555, 12816, 26782, 21751, -21555, 12816, 26782, 21751, -21555, 12816, 26782, 21751, -21555, 12816, 26782, 21751, -21555, 12816, 26782, 21751, -21555, 12816, 26782, 21751, -21555, 12816, 26782, 21751, -21555, 12816, 26782, -7391, 30345, -10929, 2748, -7391, 30345, -10929, 2748, -7391, 30345, -10929, 2748, -7391, 30345, -10929, 2748, -7391, 30345, -10929, 2748, -7391, 30345, -10929, 2748, -7391, 30345, -10929, 2748, -7391, 30345, -10929, 2748, -7391, 30345, -10929, 2748, -7391, 30345, -10929, 2748, -7391, 30345, -25038, -2200, -12972, 4267, -25038, -2200, -12972, 4267, -25038, -2200, -12972, 4267, -25038, -2200, -12972, 4267, -25038, -2200, -12972, 4267, -25038, -2200, -12972, 4267, -25038, -2200, -12972, 4267, -25038, -2200, -12972, 4267, -25038, -2200, -12972, 4267, -25038, -2200, -12972, 4267, -25038, -2200, -30237, 20342, -17195, 8458, -30237, 20342, -17195, 8458, -30237, 20342, -17195, 8458, -30237, 20342, -17195, 8458, -30237, 20342, -17195, 8458, -30237, 20342, -17195, 8458, -30237, 20342, -17195, 8458, -30237, 20342, -17195, 8458, -30237, 20342, -17195, 8458, -30237, 20342, -17195, 8458, -30237, 20342, 26782, 21751, -21555, 12816, 26782, 21751, -21555, 12816, 26782, 21751, -21555, 12816, 26782, 21751, -21555, 12816, 26782, 21751, -21555, 12816, 26782, 21751, -21555, 12816, 26782, 21751, -21555, 12816, 26782, 21751, -21555, 12816, 26782, 21751, -21555, 12816, 26782, 21751, -21555, 12816, 26782, 21751, 30345, -10929, 2748, -7391, 30345, -10929, 2748, -7391, 30345, -10929, 2748, -7391, 30345, -10929, 2748, -7391, 30345, -10929, 2748, -7391, 30345, -10929, 2748, -7391, 30345, -10929, 2748, -7391, 30345, -10929, 2748, -7391, 30345, -10929, 2748, -7391, 30345, -10929, 2748, -7391, 30345, -10929, -2200, -12972, 4267, -25038, -2200, -12972, 4267, -25038, -2200, -12972, 4267, -25038, -2200, -12972, 4267, -25038, -2200, -12972, 4267, -25038, -2200, -12972, 4267, -25038, -2200, -12972, 4267, -25038, -2200, -12972, 4267, -25038, -2200, -12972, 4267, -25038, -2200, -12972, 4267, -25038, -2200, -12972, 20342, -17195, 8458, -30237, 20342, -17195, 8458, -30237, 20342, -17195, 8458, -30237, 20342, -17195, 8458, -30237, 20342, -17195, 8458, -30237, 20342, -17195, 8458, -30237, 20342, -17195, 8458, -30237, 20342, -17195, 8458, -30237, 20342, -17195, 8458, -30237, 20342, -17195, 8458, -30237, 20342, -17195, 21751, -21555, 12816, 26782, 21751, -21555, 12816, 26782, 21751, -21555, 12816, 26782, 21751, -21555, 12816, 26782, 21751, -21555, 12816, 26782, 21751, -21555, 12816, 26782, 21751, -21555, 12816, 26782, 21751, -21555, 12816, 26782, 21751, -21555, 12816, 26782, 21751, -21555, 12816, 26782, 21751, -21555, -10929, 2748, -7391, 30345, -10929, 2748, -7391, 30345, -10929, 2748, -7391, 30345, -10929, 2748, -7391, 30345, -10929, 2748, -7391, 30345, -10929, 2748, -7391, 30345, -10929, 2748, -7391, 30345, -10929, 2748, -7391, 30345, -10929, 2748, -7391, 30345, -10929, 2748, -7391, 30345, -10929, 2748, -12972, 4267, -25038, -2200, -12972, 4267, -25038, -2200, -12972, 4267, -25038, -2200, -12972, 4267, -25038, -2200, -12972, 4267, -25038, -2200, -12972, 4267, -25038, -2200, -12972, 4267, -25038, -2200, -12972, 4267, -25038, -2200, -12972, 4267, -25038, -2200, -12972, 4267, -25038, -2200, -12972, 4267, -17195, 8458, -30237, 20342, -17195, 8458, -30237, 20342, -17195, 8458, -30237, 20342, -17195, 8458, -30237, 20342, -17195, 8458, -30237, 20342, -17195, 8458, -30237, 20342, -17195, 8458, -30237, 20342, -17195, 8458, -30237, 20342, -17195, 8458, -30237, 20342, -17195, 8458, -30237, 20342, -17195, 8458, -21555, 12816, 26782, 21751, -21555, 12816, 26782, 21751, -21555, 12816, 26782, 21751, -21555, 12816, 26782, 21751, -21555, 12816, 26782, 21751, -21555, 12816, 26782, 21751, -21555, 12816, 26782, 21751, -21555, 12816, 26782, 21751, -21555, 12816, 26782, 21751, -21555, 12816, 26782, 21751, -21555, 12816, 2748, -7391, 30345, -10929, 2748, -7391, 30345, -10929, 2748, -7391, 30345, -10929, 2748, -7391, 30345, -10929, 2748, -7391, 30345, -10929, 2748, -7391, 30345, -10929, 2748, -7391, 30345, -10929, 2748, -7391, 30345, -10929, 2748, -7391, 30345, -10929, 2748, -7391, 30345, -10929, 2748, -7391, 4267, -25038, -2200, -12972, 4267, -25038, -2200, -12972, 4267, -25038, -2200, -12972, 4267, -25038, -2200, -12972, 4267, -25038, -2200, -12972, 4267, -25038, -2200, -12972, 4267, -25038, -2200, -12972, 4267, -25038, -2200, -12972, 4267, -25038, -2200, -12972, 4267, -25038, -2200, -12972, 4267, -25038, 8458, -30237, 20342, -17195, 8458, -30237, 20342, -17195, 8458, -30237, 20342, -17195, 8458, -30237, 20342, -17195, 8458, -30237, 20342, -17195, 8458, -30237, 20342, -17195, 8458, -30237, 20342, -17195, 8458, -30237, 20342, -17195, 8458, -30237, 20342, -17195, 8458, -30237, 20342, -17195, 8458, -30237, 12816, 26782, 21751, -21555, 12816, 26782, 21751, -21555, 12816, 26782, 21751, -21555, 12816, 26782, 21751, -21555, 12816, 26782, 21751, -21555, 12816, 26782, 21751, -21555, 12816, 26782, 21751, -21555, 12816, 26782, 21751, -21555, 12816, 26782, 21751, -21555, 12816, 26782, 21751, -21555, 12816, 26782, -7391, 30345, -10929, 2748, -7391, 30345, -10929, 2748, -7391, 30345, -10929, 2748, -7391, 30345, -10929, 2748, -7391, 30345, -10929, 2748, -7391, 30345, -10929, 2748, -7391, 30345, -10929, 2748, -7391, 30345, -10929, 2748, -7391, 30345, -10929, 2748, -7391, 30345, -10929, 2748, -7391, 30345, -25038, -2200, -12972, 4267, -25038, -2200, -12972, 4267, -25038, -2200, -12972, 4267, -25038, -2200, -12972, 4267, -25038, -2200, -12972, 4267, -25038, -2200, -12972, 4267, -25038, -2200, -12972, 4267, -25038, -2200, -12972, 4267, -25038, -2200, -12972, 4267, -25038, -2200, -12972, 4267, -25038, -2200, -30237, 20342, -17195, 8458, -30237, 20342, -17195, 8458, -30237, 20342, -17195, 8458, -30237, 20342, -17195, 8458, -30237, 20342, -17195, 8458, -30237, 20342, -17195, 8458, -30237, 20342, -17195, 8458, -30237, 20342, -17195, 8458, -30237, 20342, -17195, 8458, -30237, 20342, -17195, 8458, -30237, 20342, 26782, 21751, -21555, 12816, 26782, 21751, -21555, 12816, 26782, 21751, -21555, 12816, 26782, 21751, -21555, 12816, 26782, 21751, -21555, 12816, 26782, 21751, -21555, 12816, 26782, 21751, -21555, 12816, 26782, 21751, -21555, 12816, 26782, 21751, -21555, 12816, 26782, 21751, -21555, 12816, 26782, 21751};
