#include "simple_conv.h"

wght_reshp weights_l1 [800] = {-16125, 65, 0, 12528, 16, 12295, 12492, -12260, 3, 19469, 3072, 332, 17733, 0, 0, -15537, 21313, 17415, 17409, 768, 7184, 13508, 13119, 28720, 204, 3072, 816, 0, -15309, 13312, 12288, 28736, 8128, -16012, 5123, 21248, 193, -16384, 3076, 12, 7173, 769, 256, 3092, 68, 19456, 0, 17408, 0, -16320, 15808, 0, 3, 12289, 16397, 7199, 17269, 1, 15, 320, 1024, 1024, 1024, 195, 3, 19457, 819, 3095, -9212, 16387, 5893, 64, 16716, 3073, 240, -16192, 15413, 13312, 16407, 4380, 291, 23, 13075, 7248, 3085, 3086, 4096, -16192, 3328, 1037, 3, 4144, -11200, 17172, -16116, -15932, 15437, 16384, 17408, 1216, 16468, 772, 784, 1092, -16381, 260, 16384, 65, 192, 16, 28672, 14092, 3392, 16576, 12288, 0, 7, 976, -8947, 12483, 19461, -8240, 4144, 16576, -16380, 31936, 51, 1088, 16384, 3121, 4, 4112, 3148, 12484, 4097, 3084, -16365, 8384, 3076, 13392, -13312, 3348, 0, -12032, 448, 1024, 7232, 19777, 1089, 3072, 5172, 4976, 16833, 3333, 4, 13312, 17351, 16384, 1107, -12080, 4912, 12288, 771, 0, 14080, 771, 3292, 3084, 20675, 0, -12287, 13, 16384, 16576, 7491, 332, 3101, 1280, -8336, 4, 17156, 113, 12352, 195, 48, 0, -15360, 13251, 771, 240, 17600, 3184, 5132, 20679, 16, 16387, 13392, 271, 17649, 257, 18753, 116, 17156, 20493, -12849, 4349, 768, -13312, 1792, -3328, 4368, 16, -16383, 19456, 60, 29124, 204, 3072, 784, 1, 3, 12355, 3, 48, 76, -16384, 3, -16192, 192, 12352, 196, -3837, 1024, 13068, 13137, 16400, 1077, 17, 257, 4940, 17425, -16384, 268, 0, 12480, 13068, 83, 0, -16368, 16140, 0, 1027, 0, 0, 4336, 12300, 12352, 0, 5313, 1024, 3909, 4, -13008, 12288, 4304, -16368, -4081, 7171, -16192, 16384, -16383, 17344, 28, 1073, 20560, 323, 0, 17219, -16192, 12305, 16, -4084, -3776, -15356, -976, 1280, 449, -13312, 192, 12288, 0, 4364, -16141, 12288, 4, 51, 1264, 29968, 1024, 18176, 20560, -14592, 240, 12, 16, 49, 0, 14129, -8240, 0, -13037, 7168, 17479, 28673, 1024, 1, 0, 709, 17153, 1268, 775, 16384, 3917, -12287, 12291, 12495, 12289, 768, 20481, 65, 17153, 16640, -16192, 48, 3072, 16577, 16387, 240, -11776, 12564, 5444, 20740, 112, 4116, 256, 4300, 4865, 196, -11505, 1793, 20675, 0, 4097, 16437, 65, 4912, -15613, 23555, 13057, -3757, 16455, -16356, 19485, 4127, 20735, 48, 4097, 3076, 7292, -15887, 7184, -15604, 63, -16384, 7360, 960, -16272, 13312, 16, 1072, 68, 961, 12356, 16, -15568, 0, 4289, 5, -16192, 796, -15296, -15344, 768, 12, 51, 832, 769, 0, 16384, 16451, 960, -28669, 63, 3084, 16388, 892, 372, -16381, -12287, 1, 7536, 12288, 16387, 768, 64, 28720, 1281, -16320, 69, 4292, 1280, 4, 1088, 16404, 1793, 12528, 0, 16599, 208, 76, -3888, 1052, -16112, 4108, 12624, -1024, 16444, 4160, -12091, 1216, 16404, 784, 49, 1, 16384, 16400, 1024, -16336, -12284, -3760, -16127, 5121, 193, 16391, 320, 4428, 1104, 3329, 7501, 8192, 816, 14092, 4300, 768, 20480, 3088, 256, 4996, 0, 960, 5125, 48, 12352, -16125, 1792, -13116, 16, 29680, 28720, 780, -16191, 5121, 4144, 4108, 772, 4100, 5939, 16396, -12288, 844, 320, 0, 64, -16368, 28736, 5, -16323, -11968, 112, -16383, 1495, 19568, 16384, 16412, 28736, 4145, -11840, 3076, 3345, 60, 252, 1100, -15356, 68, 1792, 17200, 80, 4132, 4211, -15616, 67, 15364, 15, -16077, 320, 3852, 14165, 17152, -12480, 112, 1792, -16192, 252, 1072, 4096, 20, -16308, 5392, 7936, 15428, 1280, 276, 768, 257, 12316, 16451, 0, -16336, 819, 13360, 7252, 16, 4112, 3187, -15332, 960, 769, 4108, 13120, 12305, 28684, 5132, 13109, 4, 28736, 13392, 16385, 5324, 4352, 0, -12288, 3072, 0, 12337, 17152, 17, 12487, 3072, 463, -3884, 3, 3123, 3840, 1792, 4144, 4097, 4417, -8959, 3072, -12276, 1308, 273, -12284, 4348, -16380, 60, -15600, 67, -15555, 3840, 4096, -4092, 28673, 15363, 816, 0, 261, 508, 48, 28688, 16, 259, 3072, 4177, 772, 4352, 1, 17408, 4096, 7184, 29632, -15549, 48, 771, 452, 3073, 304, 20417, -256, 3072, 0, 3532, 0, 788, 4944, 16644, -16369, 12609, 1793, 780, -15548, 12560, 1792, -15919, 307, 16, 0, 19788, -4084, 0, 780, -15612, -13308, -820, -16128, 12357, 16644, -15552, 0, 835, -12020, -13248, 4292, 52, 21443, 1308, 67, 4144, 20684, 0, 256, 12560, 69, 1040, 5120, 13084, 3268, 16412, 272, 12480, 17164, 12288, -16304, 3392, 3380, 48, 12480, 1028, 256, 3073, 4035, 12304, 28720, 3088, 13340, 3073, 193, 67, 19, 1281, 5, 5, 12307, 3264, -16127, 3331, 55, 12288, -16380, 7, 4864, 4288, 28980, 16384, 16384, 12481, 16400, 23556, 451, 81, 3, 3327, 16399, 3121, 12304, 4099, -16368, 22279, 17412, 16432, -16372, 12288, 305, 48, 12533, 4144, 195, 69, 12300, 0, 13168, 12480, 3279, 0, 768, 12352, 16, 1104, 0, 12305, -16179, -3840, 207, -16320, 29712, 76, -4084, 24049, 3072, 828, 204, -16380, 256, 3345, 12740, 4160, 260, 4096, -12220, 0, -16384, 4288, 0, 64, -14592, 1088, -16301, 5124, 15364, 768, 48, -1017, 15373, 13312, -16384, 4100, 768, 1344, 4400, 12, 15360, 13056, 0, -15376, 19461, 4099, 16396, 3151, -15099, 4112};
wght_reshp weights_l2 [160] = {28935, -16304, -12481, 13392, 3148, 13076, 17355, 1301, 11511, 2076, -15884, 380, 18288, 1287, -3567, -16365, 20293, 16532, 17683, 589, -1028, 16501, 17532, 1933, -15309, -9101, 12036, 7169, 21824, -16015, 6131, 16820, 22596, -8387, -9212, 1473, -12224, -32717, 23504, -6351, -12003, -28723, -16130, 18205, 19504, 13251, -9124, 13385, 4, 9284, -4011, 21763, -4012, 18289, 7388, 140, 28881, 17488, 5921, -12065, 448, 14103, 24268, -3835, 21367, 19456, -15148, -6912, -20715, -16380, 17508, -796, 1298, 13268, -15097, -14585, 23559, 5943, 45, 3667, 30961, 21597, 16400, -12543, 3189, 4151, 1040, 23868, 7541, 12912, -32717, 8319, 14404, 117, 17165, 19460, 12812, 29308, 3953, 12800, 13265, -19411, 5620, 21573, -11787, 32576, 3313, 25605, 4477, -14480, 15616, 288, 3335, 12493, 9996, 5187, 16147, 21703, 15838, -3643, 5296, 343, 3543, 31746, 16, 3344, -14578, 20605, 17603, 1108, -15087, 16671, -18601, 25521, 3953, 19541, 17422, 14281, -4016, 13923, 4439, -2606, -16380, 4173, 16479, -2304, 3201, 16752, 205, 5184, 332, 9, 16448, -12169, -4093, 1428, 257, -15949, 17783, -13103};
wght_reshp weights_l3 [200] = {-15932, 256, 12348, 19761, 15360, 0, 12336, 1039, 12356, 1036, -16368, 784, 31756, 13056, -13245, -16317, 64, 5360, 3328, 19, 1, 256, 7184, 192, 7235, -16132, 83, 12401, 0, 13168, 17411, 1024, 16435, 7, 12, 0, 16444, 3908, 4096, -9212, 192, -16188, 0, -4096, -12284, 1043, 1073, 16461, 12289, 0, 7171, -16380, 64, 13, -16381, 3329, -12240, -4047, 0, 116, 209, 31763, 1024, 28, 12336, 1024, 208, 15360, 448, -13105, -2863, 12544, 16384, 0, 1984, 13, 3340, 7, 0, 19568, 48, 3568, 13628, 12549, 1024, -15296, -15596, 320, 4337, 1031, 13104, 3331, 12288, 124, 0, 28748, 211, 784, 3840, 3072, 781, 12, 64, 16396, 12, 780, 14080, 3165, 64, 0, 3072, 20544, 3084, 12572, 16, 0, 60, 12480, 260, 1072, 63, 28672, -13312, 15361, 12288, 64, 256, -4096, 12289, 1, 208, 12307, 12292, 12288, 15363, 20480, 0, 0, 3312, -15104, 0, 16396, -11519, 16, 12303, -132, 4096, 0, 1, 16, 449, 4096, 832, 4, 4288, 80, 4, -16384, -16367, 16, 0, 13056, 1329, 12288, 240, 787, 3264, -16384, 1040, 4876, 4, 12496, 768, 19473, 12288, 12288, 0, 448, 256, 65, 1025, -3252, 12292, 8, -9204, 768, 0, 14080, 7424, 16460, 348, 28672, -16384, 16399, 4, 16132, 13312, 195, -16381, 12};
wght_reshp weights_l4 [800] = {-19471, 22751, 12288, 17680, 32048, 13105, 19828, 5488, 13109, 20519, -11837, 16384, -10816, 4145, 11281, 23360, -18557, -16333, 21297, 20, 8316, 4112, 4407, 3347, 28676, 5909, 16404, 5199, 3077, 17409, 21784, -14846, 5940, 241, 22821, -26313, 5123, 21523, 19604, 16756, 4593, 22464, 8627, 13624, 13585, 5890, 17228, 848, 16185, 16657, -15083, -16379, -16189, 4405, 31171, -12173, 32533, 3396, -3977, -16125, -11309, 823, 16517, 20828, -1962, -675, 15184, 100, 1473, -18704, 17744, 3443, 1136, 17236, 21713, 16685, 20820, 14352, 4688, 4161, -29433, 18370, 4340, 16640, -1004, -28913, 1473, 20706, 18243, 7428, 16704, 19511, 16384, -12031, 23861, 16647, 21587, 29521, 6128, 24388, 1220, 23564, -10429, 16564, 24580, -10479, 21875, -13884, -3069, -30885, -3980, 4403, -16074, 4421, 28739, 25421, 4307, 17735, 925, -12079, -27529, 12609, -16051, -11489, 20544, 341, 20989, 8373, -28643, -31932, 18112, 4103, 20736, 19580, 7220, 17248, 20559, -9156, 20940, 20672, 16397, 1300, -2059, -16111, 28721, 1479, 7444, 31581, -25316, 20564, 4230, 4191, -12028, 21759, 76, 24100, 4355, 12540, 1089, 17429, -4032, -27307, -16045, 1268, 24052, 13585, 20420, -31440, -3243, 21820, 212, -20018, -14899, -14499, 16704, -12843, 15553, -10755, 1347, -16373, 20861, 19655, -28669, 21509, 3091, -10489, 21674, -11916, 1335, 1814, 29504, 19788, 17691, 16508, 18000, 20720, 12604, 21509, -8355, 9344, -16316, -16299, 24112, 17213, 13107, 21517, 17728, 2128, -13279, -4096, 1908, -8127, 8341, -12220, -15345, 4487, 12344, 15568, 24374, 28880, 19771, 16404, -9185, 12609, 16837, 1407, 5408, 4509, -16355, 11479, -15162, -28668, 16709, 13120, -11196, -27824, 5440, 12412, 3969, 19468, 29489, -3971, -31434, 3365, -28411, 7169, -11004, 29139, 832, 12496, -16061, 20735, 5, -12847, 16193, 3840, 18693, -8976, 20760, 1792, 12339, 18211, -153, 12785, 30211, 16848, -11707, -897, 6479, 13137, -819, -2220, 18176, 852, 908, -761, 70, 16449, -2815, 223, 17489, 5283, 1374, 723, -19075, 17239, 851, 29376, -25585, 19780, -15535, -15360, -2865, 12563, 7505, 4551, 4223, 28948, 19505, -11180, 3141, -10355, 8241, -10493, -14473, 16689, 12336, 31745, 96, -3981, 39, 16726, 28, 18192, 20688, 7145, -3324, -16188, 17501, -8000, -12861, 17441, 16497, -16097, 18192, -15924, 20796, 19457, 30516, 17221, 3939, 115, 12508, -13262, -3899, -20452, -15168, 5489, -10492, 7375, 1407, 16596, 4375, -4080, 29968, 17693, 31821, 20355, -12268, 17651, 85, 13392, 2036, 21700, 13131, 29075, -11004, 13091, -16180, -28352, 1372, 16701, -13052, 348, 29699, 19204, -15055, -16332, 7427, 3520, 22483, 20534, 4183, -7728, 5125, -32507, 3441, -12224, 29719, 17681, 21332, 4372, 20482, -11454, 1316, -9193, 1153, 12532, 7453, 4867, 13597, 4, -15025, 12318, 21468, 5104, 4356, 3452, -28621, -2880, -14883, 5170, 1088, 12292, -11179, 14324, 21248, -13039, 5716, 4127, 13815, 13396, -20015, 5380, 26101, 16566, -10496, 460, 29889, 17876, -179, 32591, -10420, 4885, -13217, 16397, 17412, 30163, 261, 23761, 12352, 16399, -3264, 32733, 4983, 8209, 23873, -10940, 1216, 16706, 13559, -10924, 16708, 23632, 20752, 11281, 1232, -31281, 87, 21265, 18883, 9793, 12925, 1072, 4421, 31108, -11453, 5205, 21969, -675, 1219, 17456, 24836, 12757, 15731, 57, -14523, 21697, 22273, -4030, 5908, 13895, -8000, 1859, 12352, 15446, 20736, 16577, 4105, -15599, 3157, 15555, 4803, 22287, 13344, 1604, -26795, -16353, 7247, -15884, 28815, 20480, -16260, 16390, 3863, 1971, 4412, -15184, 20945, 30423, -11961, -11508, 16385, 5120, 18429, -8336, -14905, -947, -8409, 12593, -20477, 17159, 2369, -12203, 16432, -10815, 21628, 4340, -12811, -26553, -32452, -16365, 5184, -16369, 5060, 24897, -2576, 20528, 4099, 12289, 21713, 30984, 7171, 17166, -14581, 1244, 31841, 15105, 1491, -20460, 16708, 25124, 23997, 16991, 95, -11433, 4112, 30589, 4368, 5396, 21754, 21877, 1500, 15469, 7388, 29781, 1088, -11920, 1281, 5201, -14465, -12530, 5635, -11244, 1120, 25945, 5952, 16679, -16253, 3124, -15931, 20228, -12084, 19532, -4016, -10473, 15620, 18177, 7024, 3264, 17664, 12893, 821, 4818, 2004, -10925, -8912, 20820, 7247, 17620, 8151, -10883, 17732, 2113, -2752, 24892, 20501, -14354, 2420, 20272, 24560, 14098, 28721, 32764, 7229, 13573, 3379, 4156, 7724, -3724, 260, 21765, 1027, 18253, 12352, 21273, 4211, 13260, 4671, 3532, 19765, 28931, -10864, 32709, 1856, 16594, 20, 13, -15615, -11212, 23829, -12475, 449, 1165, 17411, -12271, 17525, 23757, 23568, -25137, -12028, 17475, 7452, 5572, 769, 381, 1216, 22480, 28928, 1237, 19509, -17324, 4284, 4172, 3405, 12544, 17524, 3521, -16140, 24643, 17476, 13404, -558, 32211, 1217, 1239, -12091, 18332, 6613, 3444, 5889, 18395, 22087, 5389, 16432, 451, 1299, 5441, 4437, 213, -8815, 17409, 4, 21680, 21484, -12146, 26176, 6032, 18293, 28749, -13289, -8896, 15180, 29745, 12560, 10000, 5197, 17668, 15638, 3360, 32000, 21535, -11137, 29015, 24384, 4429, -20276, 20780, 5405, 1884, 207, 16641, 16848, -15312, -969, 12488, -16188, 14276, 25997, -10736, 21590, 5187, -29420, -4036, 4151, 23612, 1073, 5700, 17857, 16716, -2960, 32455, -10431, 19941, 17492, 115, 20988, 1893, 3101, 5465, 7233, -10816, 1856, 2861, 381, 17159, 21316, 7508, -16368, 16706, 16388, 1360, -27385, 25459, 19783, 8412, 1539, 30516, -15405, 5375, 16705, 17363, -31293, 1300, 21276, 3377, 30157, 1284, 882, 21959, 19905, 848, 4896, -16288, 797, 21554, 23760, 30464, 29772, 17780, 20932, 3267, 55, 7948, -3644, 12785, -15545, 12, 29541, -17084, 1299, 258, 19572, -2992, -23088, -3071, 25364, 21765, 1153, 23600};
wght_reshp weights_l5 [960] = {-3316, 0, -2992, -12204, 22480, 19475, -15488, 5202, 979, 19458, 1269, 12304, -11209, -11709, 464, 10003, 21361, 31955, 17603, -23472, 16461, 30226, 3073, -11501, 3392, -15056, 13556, 1123, 7184, -12993, 32193, 29028, 28679, 21455, 268, 3285, 16688, 1109, -15172, 1840, 7235, 256, 5381, 64, 4544, -14499, 20288, 28871, -32717, 2831, 12767, -957, 13660, 8000, 449, 18372, 64, 3868, 13312, 3085, 17665, -12852, -12992, 7184, 23823, 1393, 4097, 20231, 16694, 20487, 21325, -16383, 20732, 5891, 24844, 12528, -15499, 16476, -15396, 1816, 19728, 4400, -16189, 28780, -15600, 1023, 29716, 20568, 30720, -16113, 16161, 1813, 16384, 259, 20957, -16185, 16460, -2544, -8203, -16060, 1504, 28723, -16172, 17424, 197, -13248, 4300, -11214, -1004, 80, 30080, -4076, 16723, -828, 31793, 21325, 32448, 16659, -240, 1988, 15380, 31765, -15037, 3905, 3584, 7175, -16371, 1280, 29756, 17152, 16396, 884, -960, -4096, 12853, -1021, 24773, 257, -11021, 20552, 0, -11263, -16112, -4001, 12374, 12609, -15353, 4, 1836, 4401, 7237, 797, 22417, 19648, 28676, -4096, 21521, 1095, 7453, 16385, 16387, 16130, -12284, -10224, -31488, 788, 26591, 20743, 324, -15504, 5120, 20687, 17435, -13104, -3887, 30016, 12503, 29747, 5921, 17344, -13264, 29442, 21700, 5069, -15308, 21959, 28, -192, 12748, 15697, 21047, -9995, 3907, -11203, 20812, 19776, 4429, 1024, 14080, 7180, 4098, 1, 3253, 3876, 336, 32000, 5324, -15919, -16265, 3084, 17628, 17484, -15504, 17155, 3199, 32066, 29772, -19197, -16173, 18015, -14396, -7856, 17456, 8975, -12240, 16414, 17424, 21233, -8875, 1552, 16591, 324, 16580, -16320, 5120, 17171, -3981, 21361, -12429, 3357, 20310, 16, -13308, 16432, -15140, 19715, 23895, -27299, 7427, -15564, -3327, -61, -975, -8975, 17155, -12484, -16117, 95, 4417, -9140, 5239, 4039, 29700, 16656, -8755, 10177, 18181, -8960, 17429, 5084, 3916, 20288, 17171, 5891, 19712, 13632, -10483, 32093, 16723, 324, -3087, -2768, 29761, 5061, 17732, 16647, 5380, -4032, -13040, 14337, 20752, 13337, 17422, 1296, 1873, -15360, 21261, 18677, 5404, 32732, 3184, 7456, 2050, 1220, 276, 240, -3072, -3020, -12269, 2000, 17345, 28800, 14172, 12339, 3283, 5335, 21041, 18503, 29996, 1804, 3127, 15616, 1005, -12287, 18628, -16381, 20973, 17395, 20849, 13268, 32004, 17164, 4544, 193, 4081, -9160, -14896, 15306, 28673, 17204, 16661, -8416, -2748, 3103, 31824, 12547, 818, 31536, 3454, 29940, 21508, 29068, -15501, -9135, -8432, 1148, -15876, 17488, 21700, 20544, 20848, 19471, -9216, 16659, 30528, -4009, 32577, 16400, 260, -28609, 5951, 20595, 20435, -11499, 14449, 3953, 7421, 7639, 15, 21518, 17203, -9140, -15419, -3648, 20272, 21440, 4108, 1851, 17648, 32002, 1396, -3131, 17413, 816, 14630, 20548, -16179, 19664, 23749, 1212, 3920, 20532, 15376, 7172, 12524, 4352, 13324, -3984, 28749, 1028, -4015, 20480, 960, -244, 20551, 1229, -15093, 3363, 12556, 4355, 15837, 32252, 19573, 8012, 16661, 1216, -3068, -16312, -16368, 349, 13059, 18241, 16464, 20739, 5956, 12816, 29757, -31419, 4916, 244, -13283, 32011, 1297, 1344, -16063, 7360, -9389, 15621, 1796, 2099, 16396, 1027, 799, 61, -12854, 12308, 5127, 17332, 31687, 23828, 14337, 12483, 20676, -2800, -9024, -23948, 13136, 29972, 4099, 19652, -16364, 13363, 320, -31476, 819, -15593, 1280, 3901, 8972, 12648, -831, -3792, 12316, 1648, 3136, 1472, 5953, 7193, 3841, 67, 256, -3260, 540, 1045, 32516, 24388, 3087, 4414, 4, 12309, 820, 785, 29181, 15361, -16381, 833, 18224, -16044, 4164, 20708, 14144, -15289, 341, 30485, 24012, -15403, 80, 3280, 451, -14335, -11123, 8000, -20231, 5376, 2049, 21585, 1024, 1216, 5205, 279, -15788, 5248, -15268, 28673, -9188, -15295, 1311, 4684, -15089, 18240, 31751, -11456, -3747, 6096, 51, 28675, 2316, 16406, -12273, -5300, 19728, 21299, 20486, 21808, -17212, 8176, 1792, 28947, 5453, 12572, -31908, 4037, -16270, 1885, 7168, 4364, 19568, 20679, -14253, 18381, 260, -15164, 16396, 4944, 23, -3825, -3326, 21457, 332, 704, 29557, 19457, 20533, 60, 197, 16837, 21597, 272, 16588, 17788, -2640, 29251, 4375, 15385, 19676, 28, -14272, 3696, 1117, 1028, 13644, 1988, 16631, 204, -30691, -3753, 13571, 1264, 16128, -13181, 30164, -16127, 781, 1076, -3844, -20363, -11981, 20801, 11633, 21532, -7424, 788, 20857, -20159, 21308, -15884, -13307, -3696, 18176, 21496, 4220, 5168, -15305, 785, 16589, 1011, 2883, 11350, 537, 1107, 16845, 28992, 23986, 4145, -15649, 15952, 16404, 13620, 4436, 30148, 25360, -14481, 16452, 87, 819, 85, 19484, 5588, -3247, 3120, -1987, 14332, -13247, 5057, 20560, 23, 16724, 880, -3980, -11260, 3076, 12619, 7953, 28737, 13136, 17156, -1984, 12308, 29888, 17364, 5905, 28116, 5196, 28673, 3133, 28957, 13084, 12487, 3187, 13297, 28783, -15165, 30269, 2012, 16704, 21629, 4148, 22495, 15360, 7623, -13284, 12492, 16671, 14199, 18385, 16641, 1281, 4113, 16640, 16692, 21780, 5893, 21455, 12305, 240, -2563, 7616, 28994, 31, 22327, -25073, 5, 12639, -11044, 972, 3569, 961, 16436, 13383, -15376, 1025, -4060, 1328, 19507, 31877, -3772, -16380, 13849, 16511, 769, 4160, 16836, -16324, 30492, -11140, 604, 193, -11259, 4116, 4912, 4093, 3853, -10401, 12307, 13076, -10428, 16576, 1551, 21251, 16396, -31677, 12756, 14092, 112, 29443, 13265, 3277, 16640, 31952, -12992, 3280, 3072, -9165, -13312, -9149, -20152, 11357, 23809, 7244, -3979, 5397, -17403, -12491, 28721, 4163, -828, 16403, -11071, 29780, 24336, 29011, 1269, -15612, 4307, 2119, 19652, 12319, 18245, 768, 17, -943, 25600, 12549, 3185, 13139, 28684, 17425, 17665, 4191, 17621, -13053, 13511, 833, -9161, 21260, 789, 13508, 20784, -15099, -15152, 7229, 1220, -3758, 771, 15391, 4885, -16204, 7, 3341, 8340, 13082, 4880, 23902, 305, -4095, 1095, -2081, 7616, 3892, 17726, 28791, 20556, 7363, 5889, 17229, 1089, 15373, 1138, -8955, 3633, 29701, 16439, -13296, 119, -8951, 28749, 21876, 2254, 20481, 13377, 7428, 31749, 18204, 3329, 15708, 5313, 1343, 26375, -12079, 1027, 4221, -12048, 28791, 23860, 12288, 2497, 29696, -16171, 0, 13363, 31831, 18195, 12599, -15339, 16640, 1271, 16748, -4093, 64, -12048, 16500, 3407, 4928, 24391, 92, 7936, -20196, 9557, 245, 5180, 241, -15243, 5569, -15040, 19671, 16710, 5612, 12535, -15931, 31872, -16065, 16636, 8001, 4103, -11005, 17777, 18180, 30540, 29136, 12359, 16400, -972, 55, 4144, 14083, -13234, 336, 13649, -15928, -4047, 221, 2516, -15611, 23569, -3057, 4179, -15908, 21808, 83, 1292, 29204, 17409, 28748, -12303, 17619, -11408, 19797, 1524, 17427, 20807, 15580, -11695, 1847, -31731, 18228, 12289, 4045, 4675, 373, 29729};
wght_reshp weights_l6 [288] = {4096, 15361, 2032, 18423, 835, -16318, 965, -6141, -15531, 18195, 20674, 3376, 268, 13808, 24, 3123, 4153, 7425, 14530, 4468, 1084, 14080, 961, 30261, 20, 29488, 19773, -16365, 17410, -12989, 836, -12224, 4099, -12172, -15612, 13633, 1549, 13106, 5169, -19617, -25596, -1024, 16130, 1551, 17090, -29421, -255, 18227, 1381, -16900, -9209, 3404, 16754, -16371, 7379, -16035, 3140, 3331, 3084, 3659, -14752, 1120, 3316, 4597, 16688, 21843, -16299, 5631, 24384, -16260, 13892, 14349, -8429, 865, 844, -3136, 32125, 80, -12483, 32516, 12337, 17117, 31880, 12528, 28672, -16139, 12525, 20787, 65, 4224, 13249, 8563, 8243, 15408, 3331, 453, -11400, -15360, 20224, -13297, 7420, -28288, -4032, 4864, 16384, -8191, 29203, 4336, 716, 783, -12432, 2864, 7216, 348, 1612, 27648, 14104, 13255, 12788, -16381, 780, 21756, 16593, 22275, 23703, 29959, 7360, 5888, 29904, 29907, 29527, 15408, 7244, 12493, 15671, 1836, 15501, 4897, -11984, 307, 3889, -15085, -15395, 1329, 0, -3920, 7939, 12301, 335, 17393, 3859, -14908, 3135, 1332, -29695, 3315, 3964, -15876, 17468, 16631, 16396, 19651, 772, 1221, -12203, 4367, 15473, 15619, 32525, 5987, 821, 20726, 1300, -10257, 12419, 15448, 29185, -9164, -13985, 768, -9184, 12307, -3780, -15567, -10493, 5187, 235, -2223, -19503, 5118, -15155, 29695, 85, -2740, 19736, 16631, 1041, 19479, -15663, -13300, 9542, -9907, -31965, -3053, 3520, 12641, 52, -32621, 16444, 1792, -4148, 972, 13360, 20225, -15333, -8841, -32713, -7913, -2953, 29783, 5315, 14076, -14589, -27620, 777, 31837, 7374, 20676, 207, 19648, 6157, 29187, 268, 1345, -16317, -15424, 16444, -15356, 12369, 20485, -15293, 5824, 3367, 7435, 3843, -12516, 26959, 19460, 16579, 19853, 1175, 7408, 4, 5457, 20476, -16144, -700, -27588, -13108, 3859, -32500, -16384, -16112, 1524, 13328, 0, -7373, 5909, 22528, -13298, -4096, -17663, 3348, 28749, -15485, 17600, 26417, 13507, -10448, 12348, 16644, 1055, -12259, 4220, -32703, 16658, 31813, 3840};
wght_reshp weights_l7 [1152] = {17684, -10923, 4429, 16720, 25602, -12351, 3121, 20673, 3269, -15103, 16725, 5399, 1039, 16645, 29008, -960, 4213, 29774, 12437, -32699, 26416, 7, -13041, 24389, 30016, 352, -15292, 7251, -24624, 12575, 21783, 5569, -8960, 3075, 4190, 23747, -16377, 1121, -16125, 16651, 21535, 19564, 801, 16590, 29959, 775, 7221, 17508, 7516, 17392, 20493, 7476, -11520, 13399, 205, 17599, -10768, 3452, 21365, 2056, 16597, 19268, -16048, -11207, 9557, 15361, 4, 17717, 15600, 333, 5121, -29631, 21840, 1372, 13060, -12093, -16192, 24600, -15008, -3007, 5361, -8943, 324, -16379, 272, 19717, -11443, 3364, 4556, 1047, 23625, 17728, -3773, -28396, 4160, -10816, 7364, 3419, 24669, 829, -14964, 93, 13346, 343, 1988, 596, 13148, 5121, -2588, -28224, 16529, 1148, 20592, -13284, 16384, -13311, 196, 5452, 16581, 5405, 20740, 839, 4992, 3253, -15337, -15049, 17152, 68, -25344, 1397, 4304, 4479, 19740, -740, -6387, -12340, 4288, -767, 4416, 17415, 15684, 1379, 22336, -1980, 30019, 4225, 19508, 20500, 4336, -20452, -9212, 3180, 4383, 7937, -13283, 13782, 22280, 20080, 19521, 1991, 7475, 5904, 6480, -13033, 20736, 1548, -16381, -11279, 19923, 9985, -15915, 4, -16172, 4096, 16479, 27676, 13655, -29247, 27971, 13, 1996, 79, 3523, -11491, 5191, 17164, -15359, 17168, 22068, 21311, 21509, 22351, 20721, 31808, 5329, -31036, 24389, 1096, 818, -2800, -2811, 4356, -16361, 13333, -3023, -14512, 28868, 17213, 28723, -8944, 4300, 4368, 28740, 68, -10988, -11371, -828, 80, 16632, 17600, 12373, 2273, 15573, 17716, 3075, -16061, 16399, -11988, 1844, 5459, 2308, 3135, 19700, -12092, 819, 17682, 15429, 29972, 28977, 214, 17155, 4112, -12531, -11201, 1015, 4368, 256, 4659, 68, -6705, -16113, 5891, -31948, 7247, 19780, 20416, 21535, 1793, 0, 16, -3897, 3892, 288, 1285, 21572, -11280, 23556, -6864, 28684, 13347, 5060, -27523, 3, 3084, -15076, 5140, 12288, 2817, 16468, 16499, 1028, -31469, 21781, 7239, 17859, -16316, 3268, 4096, 1300, 13136, 313, 12551, -16368, 1216, -16368, 22581, 3351, 16445, -12541, 20784, 1389, 5380, 12341, -9100, -16179, -24378, 12945, -3476, 29127, -13293, 19456, 4439, 16756, 1280, 4157, -12475, -11183, -2788, 20468, 1008, 28753, 13085, 4607, 16460, -12205, 3085, 5523, 17920, 1133, -12288, 14089, -14592, 7377, 23568, -32512, -11771, 5127, 4, 17201, 29457, -15596, 23567, 16396, 6416, 961, 7377, 1105, 4372, 8269, 21776, 28993, -28851, 12788, 31808, 8960, -28596, 21777, 20545, 17159, 29761, 20684, 32736, 3073, 4625, 20508, 16704, -11252, 7192, 20689, 13399, -10283, -15019, 1295, 4927, -3004, 29004, 448, 25468, -19005, 4119, 18896, -11727, 20560, -11504, -11448, 16436, 29553, 16128, -15305, 12736, 23669, 7444, 1155, 7437, 12289, 3298, 284, 17152, 13575, 4037, 19664, 7251, -2832, 17165, -29372, 976, 1397, 1268, 12547, 6080, 1109, 7431, 17809, 4102, 92, 17936, 5168, 16656, 17469, 192, -28412, 1919, 9472, 15389, -27833, 17712, -16011, -11197, -16320, 19805, -2303, -16379, 20501, -16272, 1283, 14080, -948, 30483, 20727, -15017, 16576, -15265, 21568, -2292, 22353, -13119, -9216, 32117, 19868, 25428, 2053, 17664, -2219, -13195, -15360, 17428, 21519, 3149, -7913, -12536, 4884, -3792, 32572, 29505, 8055, 5951, 30465, -4025, 32207, 5340, 22005, -12044, 32197, 13524, -31680, 20548, 20336, 2365, 28675, 31813, 29, -3995, 14205, -11276, 5415, 988, -11229, 17783, -14475, 30465, 20545, 4444, 32196, 1807, -8208, -11519, -11951, 29104, 19537, 1797, 16573, 21263, -2620, -12281, 1363, 16661, 64, 7244, 13648, 7344, 477, -15164, 1105, -24829, 768, 21959, 3120, -12477, 29141, 18256, 15440, 892, 24412, -8876, 16960, 5448, 28929, 19712, -2843, -3971, 7, -753, 13399, 15360, -31329, 16165, 18099, 1141, -15295, 16735, 1308, 12545, 24337, 24516, 4564, 19484, 20033, 20700, 285, 525, 1840, 4101, 12620, 5376, -12058, 3343, 20851, 3348, -16144, 29941, 16733, 3284, 16755, 7622, 13505, -2112, 20316, 324, 1025, 5324, -24127, 3153, 2564, 28688, 24896, 1091, -15263, 16192, 12755, 13084, 17277, 17504, 7233, 5329, 7283, -31248, 5405, 8196, 8195, 23884, 32084, 4100, -6896, 12480, -811, -15116, -20415, -3980, 11471, 16820, 5888, 19, 28821, 1300, 18485, -768, -225, 13248, 3443, 732, 13108, 469, 259, 16397, -8747, -15531, 4416, 1404, 1011, -12543, 5137, 6080, 1845, 572, 12499, 13377, 14129, -12161, 21297, 12308, 1253, 4357, 3086, -11195, 1341, 17477, -20388, -10489, -29424, 325, 1040, -12032, -12239, -13195, -15075, 7992, 1008, 19652, 3871, -3248, -13005, 1476, 3331, 20720, 15412, 17356, 7488, 8048, 1872, -2233, -3893, 1840, 17411, 7232, 18, 5072, -3593, -4019, 32716, 1235, 16, 28796, 25793, -12539, 21855, -14580, 21456, 17859, 5148, 1, 21504, 16711, 5444, 18688, -3892, 5207, 17661, 29749, -15089, 4161, 23580, 4, 16465, 14108, 29621, -2765, -11981, 17155, -31485, 783, 1908, -15120, -15076, -15921, 204, 29519, 29444, 13385, 1809, 4160, 799, -16380, 16780, 2032, 30020, 3101, 4115, 18371, 1795, 13067, 13520, 25616, 16396, 17468, 20993, 528, -16033, 15373, 22285, 18259, 16414, 15632, 16404, 20343, -13108, 48, 4097, -13204, -16332, 20660, -2767, 448, 1036, 4181, 12483, 4088, -9199, 8005, -2189, 21836, -31875, -8908, -12091, 497, 17620, -15613, 28, 85, 30003, -15345, -9161, 1109, 7219, -9780, 1121, 12545, 19, -12860, 13329, 3852, 29140, 20447, 16465, 23828, 24515, -5001, 17884, 16723, -10943, 7508, 32093, 19508, 17439, 13328, -9979, 3862, -16251, 21252, 483, 7244, 5136, 194, -13040, 24924, -14987, 9284, -15168, 501, -11211, 4660, 22276, -31676, 32708, -8948, 19583, -12459, -12841, -29695, -11148, -11946, 4047, -3801, -11471, 29525, -14991, 1987, 6161, 20224, 19724, 22367, 17155, 7951, 28695, 21827, 17468, -20207, 29644, -24320, 1092, 29513, 12288, 23603, 20561, 15361, -11824, 788, -12985, 4396, 271, 991, 17092, 1028, -15297, 12752, 18196, 1313, 17204, 4883, -21491, 13680, -15168, 4883, -32707, 69, 4044, -5100, 17729, -12281, -16128, -11248, 5940, 1041, 12544, 17396, 16703, 1101, -11197, 3383, 4864, 3123, 32207, 28867, 13361, 20945, 17473, -9145, -14113, 6096, 16860, 1025, -16323, 13581, 20755, 16449, -13201, 20945, 596, 18372, 22976, 16881, 20547, -4081, 18503, 21341, 816, 5327, 16764, -15884, 22021, -12032, -32196, -12280, -13251, -20412, -12816, 13908, -25347, -16045, 1, 192, 636, -15117, 21056, 24065, 23645, 821, 28735, -15087, -10409, -26556, 479, -16384, 4159, 3333, 15439, 1857, 77, 768, -3001, -8713, 3349, 16641, -16189, 20531, 16400, 30528, 4163, 28675, 16583, 129, 31965, 7235, 819, 14640, 3859, 17489, -6864, 28, 3381, 16453, 19717, 23, -11209, 1877, 896, -15280, 29013, 1793, 4551, 4381, 16397, 5361, -28925, 16465, -8940, 57, 29504, 4868, 1333, -9200, -15680, -15345, -16384, 23808, 707, -12211, 2327, 29744, 16447, -15036, 16407, 4369, 28700, 7180, 20224, 5621, -9101, -14588, 4112, -3769, -484, 29953, 5205, -15417, 30477, 471, 3376, 5616, 484, 20611, 4672, -16372, 28752, 3073, 15708, 28673, -15023, 76, 12560, -9139, -15148, 3081, 29711, 20703, 24432, 29145, 188, -13120, 12736, 17245, 16436, 30464, 5404, -4348, 17616, 5191, 17704, 116, -3071, 12295, 28916, 18436, 17267, 31756, -14059, 13056, 1024, -28291, 5324, 19715, 12404, -15499, 5489, 22588, 1075, -3044, -13312, -13116, 8005, 20820, -26560, 17983, 17757, -16316, 17904, 28757, -15297, 20685, 19520, 14591, 780, 13248, 20675, 21635, -16384, 13076, -12267, 24641, 4701, 2036, 20676, 30047, 13519, -15088, -4016, -31488, 29953, 16647, 32524, 4167, -27643, 21505, -12332, 3382, 116, 4501, -10427, 7633, 24517, -11320, 14289, 12289, -24720, 4869, 19533, -11968, 13085, 16653, 15377, 17408, 60, 29649, 3132, 4149, -9168, 16893, -3003, 32000, 30004, 5953, 17348, -6911, 1028, 15181, 323, 29761, 16388, 28979, 19459, 16641, -15336, 28982, -14322, -16303, 21440, 8, 375, 32759, 5940, -15616, 9156, 12403, -3252, 20726, 20227, 15617, 3395, 3927, 1396, 5888, 20679, 1043, -4095, -16188, 3956, 28675, 30195, 20232, 17153, 4165, 4168, 4433};
wght_reshp weights_l8 [1536] = {-3056, 16465, 24572, 18368, 4096, 8967, -10432, 4401, 7425, 21249, 17459, 29, -15536, 867, -12221, -2304, 3159, 1227, 257, -15165, 7748, 29404, 13391, 16643, 28672, 305, 22353, 13068, 3852, 21824, 12545, 17204, 13073, 12551, -8448, 13568, 16596, 24113, 23616, -10496, 24017, 451, 30145, 1087, 60, 6928, 8961, 13260, 16502, 13312, 4976, 4352, 30164, 17668, -10415, -1023, 16708, -10192, 320, -16140, 17156, 25857, 12349, 23305, -9197, 20657, 20481, 325, 3072, 3840, -16307, 18352, 28723, 4417, -9165, 19461, -11066, 23632, 17456, -16192, 2000, -16004, -16332, 16652, -11243, -11007, -13059, 6001, 15628, 13312, -12223, 4, -2832, 1219, -16121, -32305, 16181, 4096, -3052, 364, 13060, 16448, 3072, 1287, -16063, 4099, 8192, 256, -12016, 28767, -15101, 372, -4088, -14591, 28673, -15585, -1020, 23809, 269, 87, 496, -15153, -1597, -4047, -11980, 258, -3840, 4885, -12859, 7185, 12316, 7168, 12352, 0, 17, 76, 48, 3137, -12013, 15617, 6099, -13120, 1076, -976, 4435, 16589, 29696, 3344, 4596, -419, 1281, 3075, 496, 5124, 16400, 337, 4048, 4288, 12548, -13292, -14592, 7184, 16576, 15424, 192, -12029, 7172, -12284, 4444, -11256, 1, 3100, 30532, 16651, 17616, 14351, -9201, 3268, 16128, 784, 16449, 12289, 15565, 20736, 16147, 4404, 12485, -14991, 6928, -16336, 212, -12089, 16592, 16436, 7104, -12093, 13260, 9224, 4300, 16641, 20817, -14575, 16384, 22323, -3247, -12513, 61, 29440, 3280, 12, 7172, -15312, 113, 12480, 12352, -16303, 15604, 26100, 17665, 20423, -12096, 12544, 11532, 7360, 21565, 16603, 12740, 30466, 268, 21507, 19536, 16624, 355, 1095, 1101, 7424, -15344, 1, 16461, -708, 1043, -3011, -11184, 16324, 23, 4179, 13581, 8469, 124, 7232, 3, 19462, -3631, 460, 3, -12015, 376, 20931, 17475, 12624, -10957, -941, 24320, 18, 21251, -4013, -14347, 16668, 500, 205, -15567, 29500, 1074, 19457, 275, 19792, 24335, 4160, 22785, 11280, 17484, 20564, 17804, -15101, 1073, -16302, -16361, -15296, 12500, 18236, -16316, 3279, 15413, -12329, 28721, 4465, -15340, 29, 784, 5585, 5428, 17152, 14596, -15353, -3953, 19660, -14388, 1056, 737, -15488, -15357, 13580, 4081, 1029, 260, 16561, 13360, 7168, -3904, 7488, -12352, 1235, -15616, 20508, 1013, 12288, -8321, 17348, 12355, 141, -12012, -16144, 67, 19828, 30517, 15375, 4211, 4353, 2063, 16711, 1301, 17169, 1800, 28688, 268, 3345, 4915, -12284, 32195, 18720, 20509, 3143, -12288, 21328, 3072, -4093, -14379, -13116, 193, -16180, -16180, 3076, 16721, 7, 21823, 780, 17152, -25292, -11251, 20693, 16709, -4068, 28695, 31757, 99, -16259, 5397, -2176, 28752, 453, -12480, -11328, 112, 17420, 13072, 13057, -15311, 16128, -15052, -15056, 29764, 19479, 261, -15615, -16036, 21843, 28736, 5127, 4920, -1021, 1316, 3072, 1329, 1869, 8003, -8749, 225, 48, 17200, 15363, 3844, -3567, -16372, 32704, -15248, 18193, 15583, 3073, -16052, 7171, -10956, 16721, 11312, 4117, 3394, -3533, 16436, -16384, 14192, 12144, -13115, 1536, -12016, 21361, 5313, -16143, 4355, 79, -4012, 277, 11573, 12548, 28943, 12557, 15364, 20755, -15344, 12353, 22352, 4215, 464, 29020, 16388, 277, 3952, 14163, 5152, 1292, 4101, 5188, 28691, -15423, 20723, 3103, 80, 0, -11905, 5196, 4292, 29909, -32764, 1044, -15600, 13521, -16107, -12413, 32707, -15745, -14543, 1297, 17536, 19715, -16129, 7, 13516, 17232, 29500, 3073, 6080, 16625, 7248, 14288, 29447, 20784, 1084, 29696, 3264, 12564, 16721, 12817, 3841, 29708, 4627, -4093, -9216, -10252, 260, 3964, 4352, 5492, 23792, 16384, 972, -8948, 453, 9988, 0, -16384, -9213, 4147, -8717, 55, 1804, 23793, 4, 28756, 17876, 3265, 1493, 4895, -15916, -13281, 12368, -12244, 1328, 4161, 3868, 15696, 16128, 16579, 21824, 5260, 1073, -19428, 1, 884, 960, 64, -11835, 13448, 2112, -15360, 15360, 18625, 16577, 4353, 15728, 885, 1095, 23828, 192, 4099, -15348, 323, 17164, -32749, -9197, 22528, 13571, 5187, -32689, 2001, 3860, 452, 13527, -15084, -16356, 16881, 1601, -2093, 23665, 16156, 20493, -8764, 7367, 332, -31696, -8929, 4125, 1117, 12356, 4108, 13780, 816, 16592, 4289, 4468, 15568, 14285, -15539, 28, 21313, 5953, -16045, -16137, -11327, -12208, 21559, 29777, -16177, 32519, 20751, 20756, 773, 21312, 15815, 7232, 1344, 7234, 16593, 7239, -16381, 880, -4096, 17155, -3724, 5584, -4048, -15152, 12532, 223, 16133, 3264, 23756, 12, 13104, 3184, 832, 20752, 18245, 4052, 23676, 4353, 13315, 4304, 817, 7680, 28916, 4368, 260, -11837, 28997, -15311, 80, 17612, 8192, 67, 12336, -12196, 9484, 19532, 1808, -16305, 317, 771, 1009, 5149, 263, 1265, 308, 1028, 20737, 12561, 32093, -32684, -3779, -16384, 19524, 3072, 21953, 29971, 29904, -13227, -15101, 3084, 20932, 21596, 28695, 12752, 284, 1036, 29651, 16716, -12217, 500, 17, 12546, 12416, 204, 1025, 20796, 20240, -31680, 11709, 2044, 17619, 4110, 20947, -15088, 1292, 5, 29055, -12068, -16076, 772, 12371, 29973, 305, -13241, 4167, -3972, 32528, 17344, 4166, 13073, 7377, -4093, 7676, -12285, 3, 20465, 24400, -14592, 3328, -16169, 16497, -13298, 2033, 3920, 16, 12291, 4119, -12203, 3905, 12364, 13111, -16063, 49, 19456, 1905, -1020, -11491, 19904, 30576, 20672, -16077, 16413, 16835, -32308, 20501, 12415, 1804, 1292, 29953, 20736, 15408, 2048, 1072, -16320, -3065, 5123, 28675, 18803, -15612, 20493, 820, 16640, 1024, 3187, 851, -4003, 3076, 1868, 4419, -12204, 17457, 449, 17169, 5136, 7239, 12636, -13052, 4148, 3570, 828, 31999, 15425, 988, 13315, 17411, 20480, 15935, 16468, 16900, 16640, -15100, -15523, 1028, 449, 15552, 3956, 988, 791, 28993, 4369, 197, 22340, 1113, -11280, 15676, 16400, 16689, -768, 6080, 3088, 7200, 20480, -12093, 5123, 16349, 15452, 16412, 13069, -2060, 4, 257, 268, -16356, -15332, 21, -13040, -3117, -4993, -12273, 29004, 4096, -11501, -3646, 124, 2044, 7361, 192, -3855, 4100, 3120, 1520, 28916, -12016, 19584, 29696, -15343, 49, 16397, 1399, -14396, 29764, 12336, 12563, 4417, 12336, -15104, 17408, -19711, 268, -11760, 28720, 8273, 2335, 60, -16304, 499, -15932, 4156, 17716, 4999, 7437, 22301, 3076, 18741, 11316, 1, 19660, 1220, 3908, 192, 19693, 29516, 3905, 4301, 20272, 16576, 7441, 7249, -15248, 17219, 4288, 17245, 64, 10053, 17473, 87, -3068, 4164, 15565, 1024, 4144, 245, 29744, 16656, 16847, 20592, -11249, 16706, 16577, 18176, 275, 16469, 1045, 16, 17732, 9472, 19795, -8931, 16645, 13079, 268, 5184, -11489, 268, 7297, 449, 5137, -12276, 16669, -16355, 20752, -653, 14151, -9212, 14324, 16461, 15603, 17165, 16501, 13249, 20292, 29552, 16, 31939, 21780, -2812, -30863, 16404, -9167, -10699, 23607, 20737, 1295, -3060, 3328, 3404, 22385, 1821, 16401, 13136, 16217, 3441, 12547, 1216, 13249, 1073, 16384, 17165, -948, 11324, 4288, 975, 704, 223, 16612, 12356, -16300, 5588, 1, 0, 5232, 28675, 16593, 17412, 19541, 31744, -1021, -15932, -16012, 17153, 13177, -12528, -4079, 1219, 256, 7173, 16656, 5121, 12305, -3996, 19649, -15607, 13248, -8443, 20421, 821, 28723, 15, 351, 16476, 25557, -1679, 7187, 1361, 15, 4144, 23553, 16385, 23607, 5597, 848, 17424, 28944, -10419, 4556, 13380, 1344, -3113, -13312, 29020, 0, 21313, 28947, 21571, 2, -8960, -9060, 1239, 1105, 12293, -15567, -13033, 19207, 16496, 5132, 3572, -4089, 12510, 4352, 783, 1332, 119, 16704, 2560, 29815, -3900, 11613, -13310, -3823, 29724, 20543, 517, 16387, 8973, 13360, 48, 7953, 16690, 1916, -15488, -15424, 15412, 12481, 351, -13105, 5137, 16404, 1152, 780, -3819, -13187, -16356, 16448, -10996, 19697, 205, 3220, 4976, -11504, -9188, 13264, -3747, 17476, 16396, 21967, 17418, 7936, 12308, 448, -16191, 11268, -12963, -16315, 13375, 13312, 1219, 24565, -15549, 368, -15280, 1475, -14992, 17887, 13151, 12357, 960, 4300, 12317, 3164, 885, 882, 991, 20758, -15360, 7, 16644, 17667, -930, 29708, -16192, 4211, 12343, -3788, 17228, 268, 16384, 13085, -16384, -16316, 6084, -14592, -27600, 204, 16, 28979, 1140, 111, 20, 13424, 3140, 4404, 12528, 13068, 31997, 12304, -15035, -16068, -12095, -9149, 18241, 213, 80, 339, 1059, -12068, 4148, 16448, 15372, -10444, 20957, 32000, -12528, 29888, -12095, 240, -10996, 3580, -8435, -15348, 12368, 116, -15501, 32065, -13308, 16465, 784, 80, 15425, 3271, -16315, -16057, 1223, 771, -16127, 1841, 5317, 816, -3116, 12598, 16883, 23808, 3904, -16316, -3837, 16531, 12816, -3283, -2825, 7984, -10480, 12304, 13088, 16452, 192, -2864, 372, 12400, -9168, 32527, 1356, 18196, 8019, 32001, 371, 28676, 28673, -31549, 5331, 16433, -3328, 3347, 7428, -15396, 20740, 13616, -11327, 5888, 4115, 192, 508, 3141, 337, 383, 208, 17456, -12020, 4315, 1344, 1339, 12401, -11004, 17172, 28943, 385, 20548, 3073, 16847, 3889, 17207, 5952, -15296, -15552, 773, 17601, 28956, 18007, -15299, -16384, -2832, 15377, 12624, 12299, 4109, 13057, 17669, 17284, 276, 3405, -9963, 16413, 16404, -12108, -11328, 13105, 5905, 17156, 15168, -15083, 12304, 7, 5916, 4353, 3089, 5139, 3185, 768, 28672, 4881, 4129, 17157, 15376, 1223, 20480, 3075, 4172, 3075, 19200, 48, 0, 13319, 13324, 13072, 1234, 276, 30480, 21297, -16128, -654, 48, 21952, 20480, 2560, 16444, -9148, -16367, 7216, 16496, 28752, 29040, 12365, 15628, -28544, 28673, 71, -15600, 5968, 29568, 28931, -14797, 2096, 4864, 12296, 16448, 204, -16368, -12284, -15884, 256, -15376, 17804, -13305, 967, 19649, -14540, -16335, -575, 373, 16, -4092, 4893, 20684, 15668, 30071, 979, 4113, 1040, 19724, 68, 4208, -685, 20684, -12257, -16253, 12367, 9415, -11980, 19504, -9020, 17220, -13876, 29766, 19213, 1281, 4352, -16335, -4067, 17360, 3264, 1024, -13120, 7955, -15357, 32116, 13616, 844, 3091, 16408, 1328, 3121, 7188, 22279, 1856, -3600, -12176, 1101, 28493, -3904, 16384, 1216, 19776, 4103, 3520, -15091, 4176, 15616, 5069, 1, -4027, 16412, 13776, -12010, 5076, 851, 16128, 17165, 17, 9423, 16244, 195, 4956, 789, 20484, -12481, 452, 16415, 832, 1495, 1348, 22288, -16192, 3184, 19772, 7621, 272, -3072, 1284, 16400, 7936, 16653, -13263, 1025, 6151, -15340, 29444, 3399, 28096, -9121, 1296, 7169, -15164, 8517, 12304, 22557, -244, 1104, 3324, 13315, 1907, 4, 1860, 23, 31747, 25541, 1025, 484, 16608, 4549, 12367, 21955, 7217, 21460, 256, 21251, 52, 19505, 13580, -15359, -14580, 832, 23616, 3076, 5132, 192, 19537, 29009, 4160, -16367, 3149, -2256, 12480, -2701, -11008, 497, 4432, -9200, 13376, 1009, -15355, 28748, 17460, 17457, 5440, -15292, -13296, -15359, 19795, 337, 1792, -15550, 4148, 323};
wght_reshp weights_l9 [576] = {-16143, 244, 28689, 23552, -828, -4029, 4156, -15871, 13297, -1005, -4028, 319, 4033, 63, 5169, 53, 7219, 2048, -15552, 23954, 67, 5936, 14108, -3264, 17649, 8252, 3276, -13232, 15811, 3136, -13265, -13309, 16579, 2307, 16708, -16144, 1027, 4289, 5, 15676, -11473, 19964, 3396, 269, 1073, -13308, 12749, -32765, -15312, 30129, 8385, 64, -16384, 257, 32133, 7263, 816, 260, 4403, 29713, -15424, -3071, 3888, 12724, 1, 80, 4592, 28880, 272, 3088, 13106, 4097, 30583, 15365, -16143, 20485, -15072, 7244, 22480, 192, -16120, -719, 0, 16660, 0, 13084, 55, 24581, 16633, 3152, 16508, 4352, 4400, 1136, 20688, 14141, 3856, -3008, 17392, 1280, 83, 12736, -27389, 4112, 15361, -17139, -13519, 816, 4403, 20752, -15351, 9472, 28672, 195, -15929, 4112, 7489, 851, -11328, 272, -3760, 564, 13252, 3348, -13284, 3136, -573, -12544, 24368, 61, 192, 7184, 252, 13616, 3264, 23747, 17157, -9165, -11453, -16192, 16641, 8, 3533, 3264, 1008, -16256, 817, 12288, -32705, 5571, 28676, -16368, -8447, 3196, 496, -15540, 508, 21761, -14575, 17233, 67, 29452, 12556, 1153, 12291, 13363, -3853, 18396, 12483, 64, 3316, 20488, 12304, 13568, 784, 196, 16576, 819, 23552, -16308, 28784, -13108, 1011, 16432, 257, -16127, 13252, 17348, 115, 3532, 5905, -720, 16385, 960, 16848, -16380, 1, 8432, 16701, -16320, 3095, 29916, -3788, 4307, 3073, 12608, -13052, -13311, -16320, 1043, 261, 12304, -15936, -13305, 1073, 1301, 7159, 5203, 24768, -3324, 15553, 16437, -4045, 24322, 11325, -16097, -13037, 23747, -15531, 28720, 15680, -4031, 16499, 16384, 7223, 16701, -8176, 4047, 3148, -12240, -16369, -9216, -13, -15556, 15740, 7389, 5504, 28755, -948, -28356, 13060, 4096, -27645, 28929, 29919, 1027, 2308, 13504, -1007, 16223, 4931, -12096, 1311, -16312, 65, 12369, -15677, 508, -3635, -11261, -12963, 12343, 15364, 9264, 48, 29904, 965, 29443, -25552, -16016, 12628, -16384, 16692, 1024, 5196, -11489, 65, 16434, 20672, 3571, 4047, 3644, 23876, 15685, -14449, -11467, 1811, -3840, 4033, 7441, 819, 3840, 5181, -10436, 1136, -10493, 13772, 48, 13248, 12480, 1840, 12480, 3376, 327, 21516, 8192, 192, 15564, 7440, 3104, 16401, 192, 1280, 3313, 1036, -4672, -12276, 4099, 21852, -15580, 8671, 3443, -2304, -4019, 4913, 4127, 13505, 17180, 16385, 848, -10300, 5120, 13104, 260, 3148, 16323, -4019, 14327, 1075, 3396, 3184, 28928, -10989, 5315, 4352, 13327, 17363, -16335, -2685, 16384, 12544, 28723, 3143, 17232, 7364, 19548, 5057, 13315, 13056, 8784, 15616, 32753, 12608, -12079, 29011, -16320, 848, -12232, 5572, 4864, 19712, 12404, -32704, 221, -15396, 1292, 3535, 29441, -8758, 16432, 14085, 17411, 23808, -4001, -16320, 195, 16707, 20240, 12748, -15567, 1029, 3120, 5173, 4097, 4352, 0, -3327, 13313, 12545, 29635, 768, 4103, 21821, 7636, 252, 7183, 22528, -2960, -13228, 16704, -9216, 3379, -8956, 20544, 3312, 1804, -16320, 76, -4024, 19460, 3888, 4103, 17424, -16175, -12288, 962, 13, 8176, 16944, -3247, 28695, 28916, 784, 268, 813, 1345, -4017, 15381, 1804, 448, 3120, 32257, 5196, -10227, -3072, 3267, -16368, 31811, -15609, -28908, 3269, 15423, 14095, 24768, 3075, 16396, 21526, 13117, -15322, 3332, -9111, 4124, 3141, 15180, 17200, 3331, 1220, 12373, -13308, 16388, 29443, 69, 3888, 565, -15153, 768, -15395, 12563, 3536, 13372, -15600, 11329, 4884, -13309, 15361, 12292, 1344, 4304, -3313, 16447, 12545, -15596, 1076, 4289, 4172, 1036, 29956, 1055, 7168, 28672, 13296, 64, -11280, 3905, -16355, 17155, 4572, 32092, 29936, 21504, 9219, 13683, 1845, -13248, 1805, 1100, 18316, -13312, 12353, 976, 19516, -16140, -13311, 20499, 832, -31948, 32577, 1920, 31821, 321, 17363, 4356, 17420, -13284, -12528, 15389, 5937, 12528, 899, 241, 3276, 12403, 20224, 1152, 18383, 208, 112, -16143, 9247, 19461, 1, -11391, 29121, -16308, -16335, 16129, -4095, -3888, 1, 18448, 23613, 4643, -564, 28724, -740, -16128};
wght_reshp weights_l10 [2160] = {-16372, 23409, 1108, 1280, 29505, -14908, 18181, -12240, -13300, 16404, 13443, 1281, 16689, 28931, 3103, -12288, 5196, 17152, 4352, 119, -1577, 28723, 60, 4876, 21616, 5121, -828, 341, -15072, 1392, 16397, 5126, 12292, 14275, 5363, -16368, 50, 5572, 17420, -13052, 30519, -32559, 16753, 16721, 13060, -11452, 20959, 8007, 16448, -16253, 1885, 17868, 900, 20229, 339, 12340, 7261, -12035, -2767, 28677, 23553, 268, -1020, 1344, 327, 20297, 1343, 1100, 887, 16832, 1911, 17500, 1997, 5953, -7151, 204, 19779, 369, 29511, 16643, 3677, 7169, 3888, -697, 20572, 3076, 13788, 13776, 3137, 16753, 4958, 64, 27655, 3191, 1293, 20502, 7447, 12311, 16844, 13557, 8432, 21709, 4368, -9205, 17264, 17233, 16444, 19519, 4096, 5379, 5391, 1473, -1006, -11260, 17664, 4132, -12217, -8336, 275, -9984, -3819, 4433, 14704, -29631, 336, 17165, 15425, 16485, 12339, -11905, 3292, 1477, 18205, 52, 30464, 16452, 13111, 28956, -12275, 12736, 28756, 76, 6083, -15296, 12561, 3271, 21616, 28993, 21249, 19655, 48, 12336, 17473, 19927, -12969, 4100, 16705, 4112, 52, 6195, 6129, 17360, 1331, -4032, 17473, -8895, 5952, 67, 5570, 17411, 12373, -11508, -28660, 5445, 17132, 23553, -11252, 21837, -11791, 3152, 4177, 1149, 3524, 16444, 1043, 4162, -3643, 29916, 61, 8128, 19504, 466, -3328, 7233, 17717, 22285, -16365, 29045, 5587, 16720, 20563, -10355, 13516, 4244, 3948, -3324, -9216, 28976, -14857, 4172, 21251, 80, 15472, -12095, 3393, 28752, 4416, 29888, 4928, 5893, 260, 323, 1092, 4925, 5185, 18189, 3455, 15389, 31988, 513, 16391, 21527, 20684, 29756, 20529, 19661, 16400, 7380, 24013, -10812, 283, 3269, 19772, -8895, 3537, -15345, 380, 19713, 4117, -13311, -16460, 4096, 16433, 21532, -31663, -15616, 0, -8880, 1284, 19905, 20700, -2864, 1025, 16503, 19459, 4117, -10411, 12364, 1092, 4113, 14135, -14539, 1793, 1797, 17233, 1239, -19984, -15283, 1039, -15355, 72, -3007, -11212, -3019, 1031, 69, 22273, 32021, -10800, 1984, -2995, 19699, -17377, 7380, 3376, 20756, 16465, 3540, -16016, 16592, 368, 5436, 15, 12609, -9155, -7355, 13340, 16708, -8250, 5312, 7196, 13392, 5397, 23748, -947, 28957, 16640, -12083, -3085, 21552, 4165, 12551, 453, 22279, 17619, 4433, 29812, 17719, -9213, 12304, 4880, 29007, 13583, 21616, 20748, 13900, 13462, -16161, -4045, 21, 20676, -16125, 32048, 4545, 4467, 30016, -11967, -15086, 4420, 1024, 79, 4156, 19676, 20432, -14575, -10480, 28931, -13241, -15282, -15932, 20820, 1792, 20784, 15681, 7967, 15730, 16716, -10240, 28735, 18751, 4436, 17481, 7233, 273, 5236, 17427, -17316, 18381, 196, -14383, 5427, 15836, 30531, 21460, 3865, 21248, -31497, 8192, 256, -8973, 64, 16400, 5445, 1024, 4183, -4048, 17348, 3075, 17191, 260, 5168, 30160, 20880, 16640, 13264, 1027, 9216, 23893, 29004, -12224, 5205, -15348, 4097, 16976, 17220, 0, -12490, 1284, 5956, 4099, 6193, 1856, 16, 19540, 1084, 13616, 817, 13317, 17429, 3905, 48, 12400, 12625, -11244, 21507, 13568, 3888, 30656, 8029, 13220, 28981, 3393, 7616, 30623, 19953, 3148, 195, 20495, 1288, 1472, 7453, 21317, 20688, 20, -15156, 81, 17181, 1349, 17457, 16836, -3328, -15620, 17493, -11835, -11327, 15813, 18747, -10275, 23792, -16361, 3199, -24817, 768, 28749, -15087, 13521, 17204, 3345, 28688, 976, 1361, 16668, 308, 20743, 20769, 780, 16433, 13328, 3101, 15668, 4933, 32084, 31, -16187, 20547, 848, 16776, 1794, 3396, -14397, 14207, -12224, 1308, -16272, 12353, 16853, -12224, 1300, 4288, 52, 16692, -15103, -14075, -2619, -8256, 1241, 3084, 3189, 29983, -15284, 787, 16451, 4559, 1329, 7505, 29905, -12521, -16191, 16576, 1329, -15936, 20739, 31941, 7501, -14452, 4289, 23920, 19664, 7187, 3125, -12203, 17427, 533, -16059, 797, 17164, 17876, 21249, 4208, 5587, 13076, 4353, 5959, 12597, -15356, 15632, 3356, 16625, 4103, 19916, -15360, -15611, 24084, -16057, -3837, -2952, 28748, 17405, 1792, 1863, 5904, 961, 19933, -14379, 28749, 16709, 369, -4029, 1216, 64, 3406, 1845, -2729, 4168, -6976, 2822, -3812, 5956, -9024, 19476, 16396, 7372, 1047, 5168, 24529, 12561, 1053, -15039, -15119, 1028, 4356, 19716, -10432, 4112, 845, 16450, 20796, 4419, -11196, -2799, 336, 1047, 19712, 13351, 5145, 1041, 16437, 16401, 8961, -9851, -908, 5377, 1287, 464, 769, 20592, 4116, -15599, 16781, 18181, 17359, 1811, -16353, 12483, 23811, 48, 76, 1988, -3855, -10948, 5424, 1105, 8193, 1036, -11945, 888, 13516, 18180, 13489, 12559, 17217, 16412, -2768, 7156, 5187, 26480, 17473, -15540, 5121, 25137, 15869, 3, 15564, 28947, -2301, -16191, 19471, -16317, -16192, -11264, 20607, 1232, 275, 4353, 3857, 5, 21316, 256, 76, 12609, 1037, 17408, 23860, -13296, 1491, -3065, 4119, 3871, 20947, 4352, 2004, 9, -10493, -14540, 16752, -15407, 477, 6978, 29492, -12537, -11243, 32716, 17200, -13197, 13693, 19965, 18180, 17220, 1812, 343, 12481, 1, 20307, 29745, -10989, 5391, 19, 15479, 20748, -15084, 1359, 4289, -15556, 4417, 4160, 7171, 4117, 13317, 17168, 13587, 5940, 16499, 259, 21535, -15611, 4372, 1028, 23, 1028, 16656, 8012, 17408, 3140, -15152, -30444, 13342, -12348, 3152, 7232, 18172, 13312, 4100, 4864, 17536, 7437, -940, 12319, 15692, 13772, -4093, 1873, -15097, 5060, 17484, 14279, 1024, 20294, 28675, 31752, -14396, 8003, -32696, -28596, 20828, 13312, 64, 17654, 3196, 20853, 212, 20549, 17717, 1020, 13377, 324, 11535, 20721, 364, -16256, -141, -3277, 832, 5087, 17152, 28748, 20492, 1232, 16433, 12604, 3072, 30217, 1111, -16292, 9420, 21559, 17351, 20720, -19691, 199, -12284, -761, -4079, 6117, 4108, 19536, 1139, 12549, -15179, 16432, 28672, 1, 3381, 12657, -15281, 1349, 343, -15011, 16604, 7540, 31829, 9679, 13315, 4097, 32095, 337, -11407, -14467, -1785, 13618, 4417, 23601, 15360, 3072, 28929, -12531, 29008, 17165, -8432, 12236, -3235, 19783, -15503, 20247, -10457, 13168, 13572, -16188, 15, -8958, 16576, 49, 12356, 1137, 23628, 19927, 1331, 5439, 4104, 2032, 15381, 5187, 76, 279, 3636, 7637, -13056, 1860, 20548, 28928, 20548, -15033, -32444, 320, 2881, 20784, -2768, 381, 3341, 2881, -16189, 5445, 5376, -16304, -12527, 14228, 20508, 13397, 16901, 16388, 21829, 4303, -14384, 805, 52, 28692, -10481, -2703, 16444, 17667, 18224, 1264, 16469, 29956, -3248, 7236, -15084, 8195, 1024, 16836, 631, 28757, -9196, 1804, 12304, 1809, 449, 1359, -16272, 16845, 16451, 13568, 1025, 7424, 5, 332, -10924, -1012, 3137, -15357, -11971, -16269, 12353, 21703, 21328, -13056, 12288, 1360, 18397, 244, 4288, 6359, 16412, 3840, 21552, 12, -10496, 1072, -16317, 5391, 4160, 3904, -188, 29712, 7632, 14336, 23779, 3282, 31837, -16060, -15916, 5952, 12, 12352, -32448, 20275, 19783, 28672, 275, 7169, 1105, 20803, 16627, 3536, -27276, 12556, -15277, 8412, 5892, 5203, 87, 5123, 4416, 15809, -16063, 4300, 1036, 16452, 383, 13569, -8356, 17728, 28865, 29697, -9216, -2756, 12544, -14540, 16670, 21700, 20752, 269, 964, -3756, 13523, 16625, 17412, 4223, 17664, 4100, 29733, 28675, -14333, 12915, 18189, -16363, 22787, 348, 30480, 5068, -948, 28928, -11837, 6147, 4289, 21769, 4145, 13623, 13617, 13072, 4447, -3044, 13397, -15421, -18596, 1311, 4096, -10447, 17863, 16399, 4339, 12743, 29040, 15701, 1217, 16384, 453, 3136, 5425, 20497, 21555, 16388, 16129, 17421, 48, -5103, 17281, 4369, 3101, 18252, 16434, 4353, 28928, 1027, 308, 14199, 5124, 25731, 5236, 7952, 17424, 1299, -11307, 3165, -12221, 4221, -2593, -10876, 220, -16316, 29381, -16276, -32527, -15268, 5900, 15831, 450, -15888, 13393, -3004, 6513, 16653, 4212, 17520, 1040, -16381, 1807, 20743, 28672, 17484, 5109, 19760, 1792, 500, 3289, 3379, 13057, 29133, -956, 9472, 3155, -11823, 21, -11517, 4981, 4, 7489, -2227, 15616, 20547, 29504, 4172, -12212, 16453, 4176, -11072, 16764, 14416, 19764, -27596, 20819, -15347, 21045, 80, 7600, 4208, -14994, 17408, 5063, -12219, 16848, -28609, 20819, -12217, 12791, 3356, 3092, 796, 4035, -15088, 12492, -25585, 512, 29633, 20224, 16867, 67, 12288, 772, 13132, 20496, 12604, 1404, -12209, -16361, 12556, 12480, 3075, 17356, 17495, 784, -17329, -12287, 5891, -3099, 316, 16209, 269, -15247, 4205, -16335, 1021, 32592, 7455, -14912, 1280, 711, 19472, 192, 28929, 1283, -2291, -27645, 1143, 1911, 21808, 29504, 965, 13124, -11159, -3852, 5712, 16732, 20981, 19472, 17219, -13188, 7429, -8381, -784, 18240, 5888, 24565, 20480, 17600, 1052, -14388, 92, 29745, 17616, 4924, 16735, 12599, 17868, 8052, 20564, -16116, 12288, 32529, -16112, 7496, 28724, 3380, 16437, -816, -13235, 1303, 3077, 17756, 1488, 4175, 223, 20745, 4919, 216, 1616, 21251, 24003, -16127, 17613, 2817, 8129, 7424, 12487, 768, 28947, 4033, 976, 31924, 5888, -31924, 1168, -15820, -15088, 29634, 11293, 19460, 5203, -12080, -12321, 4304, -15596, -16115, 20503, -16336, -12432, -15524, 983, 13400, -64, 17181, 17152, 1295, 15556, 4400, 28689, -15119, 4904, 13112, 13633, -17148, 781, 5381, 17532, 20237, 4420, -16303, 832, -11968, 275, 5695, 6341, -15600, 4452, 1857, 16839, -16324, 560, 17409, 7247, 5379, 4, 844, -2747, 4147, 1347, 3161, 21616, 4083, -9151, 3843, 380, 1, -11404, 16654, 273, 28676, 325, -16051, 17741, 17, -3051, 3136, 71, 5428, 29939, 19572, 5140, 5188, 69, 23555, 17685, -15603, 19788, 19536, 5315, 20548, 5133, 5200, 964, 3347, 1348, 19504, 19472, 4337, -15548, 4336, 29488, 13779, 16388, 3956, 32195, -4096, 23637, -16379, -3899, 80, 15375, 20800, 19213, 3123, 2000, 7616, 28884, 87, -8780, 20483, 4157, 20236, 16720, -15907, -4048, 4303, 16344, 24384, 17421, 18204, 5981, 12289, 16592, 17520, 21825, 20497, -12467, 20483, -16384, 1404, 65, 15360, 7199, 13380, 12, 16396, 20549, -2752, -13311, 12307, 12560, -10951, -9780, -11177, 8133, 4167, -16365, 70, 5628, 4160, 17600, 21312, 3871, 1092, 204, 271, -13068, -12480, 0, 24837, 20480, 3332, 17532, -2785, -13103, 769, 1344, 253, -9151, 112, -12993, 7948, 12380, 31937, 10064, 3845, 16433, 1041, -14563, -2607, -975, 30097, 5136, 4367, 13072, -13307, 24016, 13389, 4867, 4345, 19551, 16833, -29613, -16128, 13572, 455, -11257, 3399, 20529, 17456, 19900, 1141, -3716, 1823, -11491, 22352, 195, -13248, 1879, 21973, -30771, -3024, -14262, 4108, 6640, 28685, -16304, 773, 7187, -16362, 16501, 15552, 19532, 19712, 3136, 15365, 3889, -12532, 16644, 19204, -15504, 5068, 5056, 17725, -3819, -8932, 20800, 17601, -10441, 3265, 29708, 21190, 21331, 15388, 32052, 13255, 30533, 321, 4288, -11520, -13245, 29007, 14788, 1233, 3312, 1345, -2036, 768, 21251, -15296, -16079, 4116, 4047, 20292, 19471, -13248, 1107, 18192, 21335, 1116, 310, 20, 12500, -32673, 3077, 13620, 12348, 112, 1236, 829, 20675, -12992, 19799, -4048, 321, 1265, 12291, 12293, -2557, 5168, -15597, 26481, 29013, 77, 0, -6788, 12544, 9549, -3124, 1299, -13244, 16324, -9145, 5628, 21573, 29767, 20481, 4948, 5327, 12480, 28751, 31, -12023, 17490, 5616, 12373, -3373, 304, 276, 17413, 17601, 448, 12599, 143, -19439, 3328, 28673, -15343, 17143, 16516, 28675, -15599, 4101, 1235, 4947, 7, 16701, 4932, 460, 4356, -16079, 4112, 28672, 30512, 29443, 791, 12795, -3839, 1821, -11236, -12525, -14521, 12288, 1484, 784, -16365, -11824, 17524, 5331, 4291, -12272, 20227, -12240, 12309, 13127, 2049, 1104, 21571, 17159, 4370, 20508, 20688, 3892, 4160, 20499, 13276, -16173, 1808, 85, 4181, 116, 12368, 21573, 17728, -3108, 3073, 1, 468, 5149, -15027, 64, 3972, 1984, 29760, 24513, 19837, -11152, -15244, -11135, -13228, 3293, 7376, 30020, 3317, -31972, 16605, 7245, 7408, -17347, 3092, 5136, 23, 3264, -2863, 20732, 1884, 28928, 28741, -15613, 5620, -12284, -15295, 12593, 5471, -26429, -12963, -4068, 20293, -11260, 64, 16156, 5975, 1, 12547, 7936, -15616, 17908, -32689, -2788, -524, 16725, 17909, 4295, 1116, -15949, 4364, 3088, 16389, 13504, 16700, -10760, 3151, 20480, -31983, -10923, 17600, -10778, 5455, 6269, 13061, 29445, 5312, 17460, 4304, 1092, -24716, 20736, 6420, 28988, 16, -11241, 17601, -9136, 17173, 13060, 5503, 4415, 21775, 14161, 28783, 0, 977, -9092, 17152, 12311, -771, -27888, 32589, 3349, 7235, 1173, 1823, 4, 963, 845, -4047, 32048, 7955, 576, -15103, 1264, 380, 12509, 4115, 16593, 16413, -16077, 28864, 28701, 196, 21456, 20764, -28617, 1405, 23, 3333, 20340, 20981, 0, 20296, 29776, 1052, 221, 22277, 5123, 1863, 11351, -16324, 5424, 1100, 3549, -16313, 21261, -15613, 880, 32540, -12268, -12452, 5120, 12624, -12044, 851, -11184, 15367, 124, 28672, -16112, 5116, 21260, -31695, 463, 18205, 972, 12353, 24003, 32608, 1815, 11281, -15164, 29148, 16735, -32320, -15549, -16015, 14131, -12096, 4180, -15355, -2959, 28935, 1292, 15985, -12816, 7216, 16652, 12355, 5367, 20944, 9236, 29713, 15362, 15825, -13116, 21839, 20738, 7463, -10286, 8127, -3004, 17406, -4921, -14516, 20751, 12482, 7219, 16592, 124, 17600, 4, 16, -15295, 9300, 1025, 3088, -16384, 7237, -15312, -15039, 12564, -12287, 12357, 24640, 5175, -2256, 20224, 5980, 1364, 19715, 3395, 16725, -9092, -32748, 16980, 13085, 1216, 2819, -15549, 16385, 15428, -11072, 17620, 21708, 17412, 4117, 21780, 816, 4149, -16191, 5456, -15099, -2243, -12095, -15565, 12289, 16460, 1808, 1868, 1472, 12381, 14326, 10300, 15681, 7171, 3523, 21584, 12561, 1011, 22080, 18496, 5452, 1, 7620, 28, 28880, 1228, 28, 1088, 28936, 4343, 3332, 28867, 4163, 12560, 1088, 17892, 15628, -3971, 4, 12957, 221, 17469, -3757, -11520, -16187, 24512, 22211, -11152, -13260, 2067, 15043, 20733, -12219, 4108, 13644, 16, 3381, 13663, 885, 12341, 13057, 17668, -3761, 4337, 16591, 8461, 4149, 1284, 30047, -16379, 337, 31809, -16323, 5641, 22595, 13333, 1072, -32708, 15360, 12540, -16116, 69, -12018, 24000, 3087, 19473, 5892, 24896, 12336, 24661, 16689, 28915, 16577, -15025, -3839, -3215, 30064, 14156, 3095, 12352, 12289, 5916, -2597, 16444, 32004, 15693, 17344, -4092, -12463, 5456, -2255, 3863, 19731, 29444, 1028, -16116, 32055, 32512, 4935, 19679, 16197, 13588, -16192, 19508, 12737, -13245, 29760, -10811, 19728, 12549, 496, 4144, 17692, 4867, 4599, 7293, -11136, 19485, -13039, -14879, 13812, 5388, 17152, 780, 1293, 26484, 29508, -11257, 6401, 3093, -12288, 16433, 7283, 16707, 19472, 12556, 3380, 1029, 1556, 28949, 836, 4352, 64, -16329, 1216, 16755, -12271, 29132, -16384, 21252, 13425, 29469, 4435, 1365, -15163, 1361, 4048, -32385, 4871, 20829, 13365, 4101, 369, 1043, 1072, -16127, 4963, 3916, -13181, 60, 260, -16303, 17728, 1285, -971, 13615, 16855, 17437, 28947, -4095, -16061, 17357, 12323, 471, 7381, 20940, 4593, 256, -8368, 1, 31940, -12816, 16391, -11819, 7168, 12737, 18740, 12444, -10992, 13315, 6001, 12599, 4144, 1292, 16704, 16624, 19776, 20753, 5125, 499, 76, 12355, -10925, -16369, 4096, 1025, -1579, -15356, 17408, 1488, 323, 3154, 23760, 21571, -805};
wght_reshp weights_l11 [1920] = {-9168, 4400, 4208, 4370, 17228, 965, -575, -16272, 16129, 7679, 4124, 20768, 12289, -13268, -575, 3092, 12405, 16482, 32208, 2609, 21, 21508, 13772, 28864, 14335, 28928, 20, 16579, 29900, 9024, 4359, 3268, -13312, 14402, 12558, 7987, 16241, 13440, -13052, 1072, 16723, 4144, 15376, 16453, 3328, 268, 3143, 460, 16388, 18483, 13317, 20481, 5332, 3281, 8208, 12561, 4304, 3392, 7501, 452, 5889, 1084, -11005, 4032, 4391, 80, 12288, 1100, 4, 31763, 51, -11177, -12853, 13075, 19648, 20751, -16188, 4099, 7421, 20500, -12048, -13247, 16595, 22497, 13596, -16365, -11264, 220, -11469, 1328, 79, 16397, 3265, 13383, -15289, 4352, 4167, 23616, 3520, 789, 4113, 3315, 1252, 5571, 4311, 9475, -15357, 4304, -13300, -12971, 28673, 4352, 16663, 29008, 3340, 3841, 1105, 1232, 18241, -14573, 29713, 20225, 208, -10927, 12356, -16299, 20800, 1, 49, 461, 18191, 3148, 3841, 16132, 29575, 851, 1024, -16320, 4405, -13108, 787, 8021, 19648, 16400, -4029, 21005, -16320, 17153, 18256, 1287, -15147, 1847, 5169, 4160, 193, 240, 5181, -14592, 3312, 21360, 17679, -11169, -27392, 3861, -3823, 13639, 1284, 259, 12352, -12977, 1036, 13312, 16384, 10508, 259, 4608, 3104, 16176, 12544, 7296, 21764, 14084, 261, 5136, -13308, 16461, 1028, 960, 1100, 259, 20480, -704, 3349, 771, 12343, 4308, 64, 4113, 16472, 2804, 5428, 13639, 20740, 20288, 3377, -16077, 16387, 787, -16321, 796, 1104, 16, -13312, 31041, 20560, -11908, 989, 15860, 1536, 21556, 15379, -16384, 23, 3184, -16381, 197, 13084, 4560, -16289, -16324, 12380, 2004, 28, 460, -13039, 13398, 22080, 20548, -16284, 1868, 28932, -12221, -13241, -13328, 21524, 3356, 0, 5409, -11949, -16320, 16453, -10940, 3085, 980, 16181, 19572, 19200, 261, 20480, 12324, -3843, 11460, 17437, -15164, 16144, 260, -8880, 5056, 460, 7188, -16173, 20576, 21300, -15329, 22289, 28924, -13028, 1027, 768, 868, 4144, 16385, -16372, 768, 13251, -13236, 3313, 21588, 2295, -15467, 1036, -13312, 15621, 20684, 0, 1244, 12, -30928, 3333, 3396, 2055, -11468, 468, 65, 31745, -3648, 12288, 20497, -12540, 5137, 315, 19460, 19984, 16436, -14797, -12848, -4036, 332, -13312, 19524, 5888, 12636, 17, -3243, 1072, 304, 19483, 12348, -15501, -16365, -16336, 16, 19472, 32012, 13584, 780, 5952, 23552, 5120, 13572, 7636, 16, 4112, 4, 2816, 3136, 1024, 1077, 20252, 17872, 17476, 16133, 1280, 976, 30272, -15875, 7380, 12559, 453, 261, -16127, -16377, 12, -16379, -14399, 3283, -15167, 29907, 24004, -15612, 17474, 7168, 1100, -16159, 1121, 32064, -11967, -16384, 20547, 16434, -10237, 5139, 16432, 4300, -2880, 240, 25980, 16397, 20480, 20739, 1811, 4881, -15521, 768, 4032, -15203, -16127, -10813, 772, 14093, 30464, 3137, -15087, 7491, -15553, 1047, 12548, 5132, 21260, 16588, 16460, -15419, 1524, 27709, 4368, 16704, 28864, 20484, 17664, -16336, 1860, 12497, 23601, 14080, 32206, -32687, 16720, 1042, 3219, -3616, 1868, -3820, 4288, 17413, 4288, 23, 31696, 16460, 3840, 12669, 241, 4868, 3893, 16839, 17712, -15252, -3325, 4, 4099, 3395, 19763, -12176, -8749, -12016, -15357, -15609, 19967, 3984, 3151, 3341, 7644, 21301, -3759, 14080, 29004, -3247, 1024, 1328, 17678, 19, 15411, -12027, -16124, -14524, -15052, 12304, 4128, 12339, 16388, -7952, 29684, -15291, 1, 5184, 14097, -12224, 83, 21827, 3121, 319, 17500, 16, 29711, -3981, 247, 6081, 460, 5904, 30573, 1096, 1344, 4367, 275, -15268, 31811, -3644, 3084, 1809, 1792, 12348, 16, 962, 13340, 0, 5324, 1052, -16064, -11404, 7957, 12480, -3915, 1265, 321, 72, 4176, 4215, -10484, 67, 349, 1984, 5953, 3, -15424, 17491, 13376, 22332, -14528, 4172, -667, 24579, -16381, 27457, -11519, 369, -8237, 12608, 1036, 128, -13281, 5184, -11456, 4096, 12732, -30908, -4025, 80, 11597, 21809, 16391, 1984, 9264, 19779, 7172, 13169, 21761, 4403, -12284, 15408, -2304, 65, 5439, 4479, 12288, 48, 4428, -16190, 19267, 23792, 12336, 1220, 4959, 116, 13567, 12290, 0, 3088, 16453, 253, 8252, 16593, 23056, 3089, 6544, 476, -9212, 31745, 1804, 17678, 1029, 12595, 17669, 20727, 21808, 273, -12785, -576, -3904, 15, 16580, 1045, 61, 15424, 2053, 32065, 7248, -5071, 1280, -31936, -1019, 13072, 29, 16735, 16455, 4063, 17777, 4176, 19463, 12599, -16036, 5, -14591, 13108, 29811, 5168, 12404, 4228, 1292, 979, -12266, 7296, 20467, -14396, -15408, 12737, 31828, 1151, -10031, 3121, 1333, 3148, 16624, -13120, 15613, 19824, 13363, 789, 13600, 21696, -11148, 16151, 5, -11256, 20425, 12736, -12032, -3070, 836, 781, 3324, 7252, 3136, 29712, 513, 16389, 28673, 15363, 12375, -3059, 20481, 19581, -3248, 20492, -15273, 4464, 32240, 309, 13633, 13260, -12224, -16369, 1076, 15364, 13056, 0, 3139, 4560, 5127, 12482, 28, 17156, 4932, -15360, 16644, 25367, 3149, 1873, 19612, 17200, 4144, -11244, 16640, 195, 15629, 16, 5623, 28789, -11519, 28687, 13427, 4604, 30549, -28593, -16335, 4, 12531, 5057, 819, 20420, 1556, 20756, -8420, 17360, 29744, 1988, 7388, -14003, 13316, 1108, 4096, 5888, 49, -11261, 12, 7204, 115, -2801, 31808, 1740, 21249, 961, 24388, 21524, 12656, -12285, 16413, 19735, 17221, 325, 16511, 18247, -13296, 1999, 4103, 20685, -13309, 193, 3140, 16448, 5891, 455, 1793, 4417, 12293, 4359, 4411, 28940, 18397, 26817, 12855, -11300, 15444, 17169, -3645, 17747, -11005, 4412, 17937, 13260, 821, 20481, 12, -14864, 4303, 19648, 28765, 1028, 6167, 21296, 20675, -16336, 5909, 17200, 12560, 16387, 16700, 4444, -192, -12803, 16640, 31953, 22336, 31811, 15428, 20765, -15552, 7180, 31792, -16368, -16269, -18688, 48, 16659, 18224, 16448, 12627, 1984, 16385, -29473, 256, -9024, 3171, 13379, -1855, 16881, -16143, -15289, 1024, 29765, -4047, -11997, 18699, 18435, 16403, 8275, -16304, 113, 16644, 1024, 16641, 15360, 1217, 449, 12309, 31424, 3076, 19637, 30513, 19485, -15421, -2932, 9665, 12, 259, 449, -8704, 4372, -7887, -11248, 1312, -12236, 17617, 18260, 1144, 4368, 20023, 12355, 5232, -12228, 3389, -11964, 12343, 1876, 12332, -3903, 4353, -15919, -10432, 5957, 0, 192, 16321, 3404, 30257, 5200, 3548, 4293, -16383, -15585, 5909, 20737, 559, -14320, 20234, -12204, 12620, -16124, 19460, -16212, 8020, 4273, 20483, 14132, 193, 117, -3785, 0, 23, 5324, 19856, -9204, 209, -9092, 448, -11520, 772, -11264, -7341, 13404, -14563, 4103, 19, -11987, 880, 12304, 208, 16400, 5580, 89, -12025, 28724, 16396, 817, -15524, 16391, 23757, 17268, -15417, 29249, -12992, -16112, 16437, -8441, 2060, 4605, 8543, 64, 12292, 95, 464, 20548, -16076, 3, -16356, 1025, 3137, 496, 12375, 1036, 467, 4932, 4156, 5, 196, 17604, 21569, 28735, 2039, 23616, -12513, 12292, 48, 1024, -8433, -7101, 5148, -12971, 15683, 13583, 4129, 13555, 2115, 16, 29520, 16451, 31792, 3840, 15556, 1008, 22720, 12293, 1040, 23552, 147, 12545, -16335, -2785, 12496, -12304, 31871, 2000, 92, 256, -15300, 1072, -976, 3265, -15613, 20532, 4371, 29811, -16174, -15296, -15360, 14340, 1284, -6052, 16641, 16144, 15557, 209, 287, -16080, 29761, 13329, -16324, 797, 21251, -3839, 20496, 1088, -2876, -3060, -2800, -9196, -11213, 20551, -16384, 775, 9492, 29493, 3157, 20236, 12316, -13005, 67, 20511, 18372, -27644, -15567, -11180, 5319, 977, 23603, -1019, 28725, -13100, 8259, 17348, 12319, 19459, 145, 1236, 13, 20688, 16476, 19468, 12560, 9216, -3131, 4876, 13300, 17860, 4161, -2036, -16109, 7472, 4355, 1863, 16396, 19573, -2880, 12485, 3890, 4301, -2864, 1024, -4012, 15692, 16467, 13057, -15244, -12288, 304, 28688, 92, 272, 23600, 84, 12369, -1756, 5196, 16496, 19700, 29763, -11968, 28, 836, -16176, 17219, -15293, 772, 16384, 12291, -14912, 4291, 20547, 4290, 7232, -10940, 5139, 16401, 4544, 19572, 12316, -2302, 3917, 5891, 32092, -14927, 23557, 16400, -13293, 19484, -14843, -16041, -12544, -12461, 13084, -9135, -11953, 17416, -3324, 4305, -4096, 16659, 80, 12291, 5148, 5, 64, 3076, 3141, -4095, 12308, 332, 1223, 5951, -13053, 13252, 31769, 28929, -12275, 14193, 12660, 3919, 18181, 15408, 4879, 6001, 24320, 16404, -10495, 476, 273, -12857, 16467, 4101, 260, 372, 3, 24596, 20800, 1356, 7296, 3120, 16479, -30640, 1088, -15162, 1844, 16397, 1044, 252, 28702, 29015, 16400, 20677, 4867, 21508, 28687, -16372, 5361, 16, 3152, 13621, -16381, 3932, 4111, 29759, 13393, 28672, 3092, -12852, 1221, -2764, 1853, 240, 14, 13056, 76, -14543, 816, -10938, -11993, 1280, -15280, 448, -14591, -4001, 3075, 5396, 4, 20928, 1053, 3328, 13248, 4288, 48, 3140, 1356, 17669, 4124, 273, 6084, -2813, 81, 28675, 532, -3853, 861, 16415, 16604, -13300, 4213, 5132, 19574, 15636, 768, -12273, 12340, 29761, 20708, 1855, 7297, -15552, 4879, 909, 21775, -12299, 5136, -15341, 4096, 1169, 15412, 5, 12305, 12547, 13069, 2048, 12365, 9, 340, 1797, 13521, 4292, 3077, 3891, 1140, 31756, -13289, 30001, 4035, -3904, 48, 837, -10495, -909, 7675, -3007, 1, 12535, -11325, 12545, 3312, 3404, 20306, 5169, 17456, 4309, 28688, 21259, 2052, 3, 448, 20544, 5120, 20737, 13580, 3335, 12736, 2001, 12492, 1108, 13061, 4221, 49, 29000, 4420, -3039, 1232, 29169, -8956, 30660, 311, -15596, 29120, -15616, 17920, 1283, 13516, 1344, -15331, 18628, -3248, 12356, 8460, 7493, 4, -16329, 21492, 4060, 1025, 4113, 16, 4, 23553, 12339, 4096, 499, 5333, 6156, -19444, 1027, 319, -4011, 17728, 4404, 12307, 16320, 1029, 13764, 5187, 13108, 12289, 833, 1500, 29460, 1024, 1472, 17200, 511, 12299, 3346, 988, 8260, 4608, 12556, 1345, 3888, 3319, 2036, 12736, 14172, 207, 12343, 16388, -2807, 7, 21266, 1795, -16320, 768, 451, 28787, 5377, -12096, -15531, 3184, -15613, -11984, 4364, -12281, 783, 28913, 4148, 7232, 1236, 12300, 1815, 449, 17665, 9584, 17859, 1103, 13380, 2, 1984, 800, 31872, 28723, -192, 309, 7233, -3264, 1108, 28720, 17421, 257, 105, 30070, 13105, -3328, 13060, 31575, -3969, 5892, 17472, 1280, 768, -12844, -2800, 1329, -945, 8052, 256, 272, 3453, 17680, 4291, 14608, 12288, 18229, 1231, 8524, 28720, 29748, 32197, 15617, 16391, 976, 1875, -12352, -15611, 15372, 13, 4869, 4124, -16260, 18188, 13060, 19, 12336, 1341, 54, -15356, -8733, -12784, 4112, 64, -16319, 1332, 20484, 1088, -32492, 833, -16127, 29952, -3044, 4380, 17221, 4656, 12500, 16452, 16577, 17475, 13648, 4115, -16121, 1393, 17676, 1792, 1792, -31419, -12223, 4220, 8656, -16257, 28672, 20292, 15363, 4096, 4101, -14319, 273, 7236, 21696, -9137, 880, 17408, 12336, 16387, 4431, 5188, 15580, 16404, 0, 12595, 1076, 5244, -16169, 7193, 1537, 17617, 28871, 20743, 3316, -15420, 13319, 5315, 23556, 5185, 69, 20484, -31995, 12305, 3280, 30195, 14192, -13104, -15081, 12304, 32069, 16400, 4355, 20740, 12609, 17620, 3123, 3923, 16496, 16385, 772, 29487, 5187, 16452, 3856, 4933, 16720, 1520, 12292, 28688, 29008, 31792, 13520, 3, 5891, 19827, -12493, 13633, 16640, 18256, 16721, 1053, -16356, 31, -2622, 17, -16121, 16460, 21456, 7676, 20244, -14912, -16173, -12236, 775, 3911, 31960, 4096, -12525, 124, -8189, -12880, 17472, -12176, 119, -16369, 4212, 208, 21520, -12220, 1043, 1092, -16336, -12015, 16128, 1028, 5132, 20608, 3840, 23623, -16180, 29699, 16392, -4084, -12046, -16324, 32263, 15552, 31, 18244, 17217, -16180, 980, -16313, 3281, 16131, 14167, 4864, 13392, 4172, 4307, 13376, 20231, 28764, 13313, 5447, 113, 17472, -11245, 3107, 451, -2690, -10433, 1217, 14287, 17155, 1091, 29749, -12972, 5377, -16320, -12284, 255, 16245, 3969, 305, 32067, 5059, -14544, 4932, 16640, -12523, 20273, 16181, 29170, 12545, 20492, 17, 1200, 1139, 5133, 5120, -3012, 20387, 5379, -12258, 14291, 19521, -15595, 16, -15551, 11540, 7233, -15359, 7425, 189, 20500, -15283, 4, 1, 196, 1285, 1, 17171, 5904, 16640, 5188, 5193, 29893, 1299, -13065, 48, 16455, 1301, 1104, 4291, 16581, 112, 13263, 23819, 7248, 12288, 16396, -16324, 14352, 19569, 12293, 0, -15245, 15565, 14, 29747, -14912, 7245, -16316, 988, 4864, -12479, -15279, -16176, 19468, 452, 16188, 797, 1088, -31691, -12273, 304, 22561, 3092, 16644, 4103, 16, 68, 17412, 18453, -14579, -12089, 16576, 20688, 17348, 19456, 2372, 15697, 32579, 28727, 3188, 7208, 1235, 4912, 16720, -15104, -16379, 333, 6004, 29459, 1997, 3123, -4036, 22468, 13628, -14592, -16305, 23580, -4081, 4931, 20480, 3136, 12572, -9215, 16625, -3264, 17461, 7216, 373, 7619, -15139, 12623, 23760, -16356, 1796, 28, 19713, -16271, 3268, 7804, -2813, 1793, 16655, 197, 50, 15924, 1277, 17422, -768, 23757, 12492, 17473, -1003, 4357, 1860, 1045, 12, 17859, -16179, 12483, 1229, 17456, -11049, 20228, 257, 9584, 68, 4144, 4096, 20740, 311, 16639, 29952, 15408, 8307, 4156, -10913, 12595, 16704, 48, -15884, -15104, 15413, -15500, 4883, 4052, 18733, -15568, -15676, 20, 20752, 1024, 5917, -560, 16627, 3328, 3524, -15280, 577, 4213, 19, -35, 1232, 5436, 515, 20535, 16583, -12285, 15827, -12032, -756, 965, -15040, 4096, 17728, 20481, 1027, 17667, -756, -15533, -10800, 20501, -8640, 12593, -9004, 12304, 257, 4144, 15361, 19732, 1473, -9392, 21619};
wght_reshp weights_l12 [2304] = {3276, -11441, -15596, 768, -4092, 13236, 3072, 4092, 1148, -11517, 16320, -16384, -16077, 127, -32320, 15424, 5364, 23565, -3840, 13324, 801, 28756, 5957, -483, 29648, 29488, -12542, 32564, 48, 12291, -2607, 21460, 4, -16363, 23888, 1, 268, 21517, 4112, 4037, 17660, 828, -9212, 15692, -13228, 3139, 17409, 8144, 1028, 1116, -29612, 4164, -2052, 1216, 3265, 7681, 1356, 20734, 15568, 16397, 19776, 15557, 17347, 16463, 8049, 511, -61, 16576, 9024, 4099, 1907, 16431, 3404, -19705, -13119, 16709, 23876, 332, -11471, -15360, 48, 12336, 21744, 1216, 48, 8124, 13616, 24387, 5136, -31693, 16256, 768, 16196, -16001, -12835, 32308, -15411, 13135, 240, 3408, -16336, 8655, -14000, -9021, 4572, -13225, -15375, -4923, 381, 4288, 12657, -16253, 32721, 12291, 20735, -12223, -15612, 1229, -15061, 20529, 6961, -13008, 12, 3075, 21456, -3631, 5, -206, -16323, 16432, 1, 13779, 9996, 13088, 799, -16032, 1220, 3580, 1825, -9204, -3325, 4372, 17152, -943, 13620, -10988, -18415, 15692, -16332, 29489, 19397, 4592, 497, 4865, 6144, 16732, -14143, 30469, 20785, -15568, -572, 30657, 4871, 19712, 1008, 880, -11819, 32311, -5108, 17603, 49, -5110, 768, 20673, -11576, -16365, 1308, 4105, -16127, -1012, 3077, 16501, -13311, 16449, -16328, -11263, 19457, -19977, 21251, -704, 64, 259, 13568, 16844, 30480, 17407, -15280, 3520, -14905, -15297, 21296, -28557, 1345, -15616, 4303, 4913, 16720, 32016, 28688, 194, 15396, 6435, 511, 976, 17612, 4436, 5889, -32720, -16179, 23555, 21515, 4096, 3924, 24388, -32675, 12799, 15376, 268, 3292, 5151, 3089, 12289, 5376, -12853, 192, 31760, 12740, 1365, 12563, 4572, -13284, 4225, 16773, 195, -15224, 67, 853, -8448, -2753, 12531, -13312, 3264, 15552, 17460, 12549, 12303, -15356, -12287, 3331, 4400, 3348, -4092, 12608, -960, 12491, 3841, 4208, -16048, -4092, 28685, 960, 1024, 1043, -11828, -3008, 16128, 852, -13295, -15545, 20531, 12337, 8196, -13076, -3764, -16189, 16128, 4876, 257, 3120, -4033, 775, -20435, -3843, 19723, -29625, 1, 8131, -16384, 31999, 816, 19996, 19459, -12277, 16332, 20543, 371, -16192, -14889, -14331, 3923, -12228, 834, 24528, 4299, 7169, -13120, -11908, 8496, 16465, 3072, 32512, 65, 17239, -2740, -13299, 964, 1345, 64, 1473, -15332, 20789, 3844, 29808, 1044, -11216, 28685, 20559, 892, 13376, 4296, 20535, -11261, 1265, 4545, 1044, 1040, 30707, 60, 12544, 17180, -11584, -16356, 14092, -15557, 838, 21504, 103, 17874, 19573, 3572, -15340, 451, -16272, 1235, -3865, 4016, 20225, -15616, 14092, -32767, 1876, 449, -14990, -524, -16175, 15669, 16835, 68, 1840, -19115, 20531, 32708, 3933, -20001, 23601, 3324, 12765, 371, -13241, 14156, 775, -15500, 27651, -16383, 193, 24385, 16432, 896, -8388, 15811, 17687, 19655, 19776, 1, 16448, 13, 18180, 13312, 16577, 17664, 23615, 29456, -15312, -14397, 1009, 16, 80, 12348, 16388, 16128, -15364, 12359, 773, -2285, -13309, -3071, 15440, 16135, 820, 17216, 4115, -12864, 16387, 12289, -3044, -12560, 3376, 13372, 588, -16336, 12367, -17408, 3843, 12372, 1025, 3267, -9197, 13183, 24524, -11472, 1216, -3133, 460, -16072, -19264, 12544, 15443, 12528, 4436, 835, 332, 3100, 17749, -12495, 7280, 1217, 243, -4091, 77, -640, -32717, -11003, 5056, 8240, -10988, 4595, -2700, 12307, 21776, 16447, 32008, -1016, 1328, 28672, 17231, 1008, -19236, 28932, 32668, 17168, 17456, 3329, 17203, 2064, -14964, 15408, 17163, 4209, -16224, -16048, 1139, 16444, -3297, -16191, 449, -3007, 30492, 20480, 5124, 1308, 32531, 30967, 11572, 284, 29443, 783, 13325, 1284, -31545, -2531, 3347, 4675, 5108, 16752, 15616, 12356, 15423, 2269, -15088, -12271, -11505, 1479, 4876, 1109, -8959, 18196, -959, 4111, 17159, 25792, 52, 3155, 15379, -976, 8000, -3312, 12643, 16881, 4096, 1, 1852, 24332, 112, 3840, 16661, 1024, -13236, 21520, 16452, 216, -12505, 31757, -10989, -16176, 5440, 7168, 20755, -8368, 3132, 4364, 23856, -2815, -15492, 3120, 19712, -15565, 17233, 13124, 17439, 832, 12723, 16497, 21260, 12300, 13324, -14509, 28977, -7156, -19200, 28869, -15284, 13568, 4595, 320, 192, 4893, 13173, 3491, 20679, 21564, 16583, 7216, 788, -15853, 304, 22275, -13219, 16627, 32704, 19520, -3617, 20924, 3840, -11519, 48, 0, 772, -17377, -3121, 28881, -15547, 24895, -3069, 20977, 3845, 19540, -12093, 16828, 4160, -2868, -15612, -12276, -1012, -16369, 12352, 1024, 12357, 1036, 9219, 12293, 12354, -19402, 5120, 19814, -32719, -15297, -28131, 8300, 13299, 4099, -10452, 13120, 29042, 1583, -12544, 5105, 15375, -13060, 2035, -16276, 3399, -8332, -15595, 16436, -8141, 12931, 1539, 5059, 24956, -3249, 4876, 240, 12288, 31760, -3344, 20224, 5956, -4036, 6012, 17168, 19471, 193, 16645, -7728, -11956, 49, 6004, -15347, 4336, 2, -16163, 12595, 7957, -31428, 21041, 3841, 195, 32052, 16304, 16655, 3916, -16384, 1283, 1905, 4415, 3072, 768, -11155, 780, 8436, 3840, 16387, -3648, -3837, 195, -16372, -3632, -11260, 13779, 3383, -16188, 21248, -3892, 60, -14395, 13759, 17485, 0, 3988, 1523, 1027, 7376, 85, 4476, 16389, 241, 1284, -16336, 7388, 21571, 3138, -3764, 1809, 6132, 3860, 2035, -12537, 14144, 17359, -8768, -14587, 260, 3, 5551, 4036, 828, 77, -15041, 3396, 1012, -16185, 1027, 20544, -15360, -16128, 784, 52, 13580, -11321, 4099, 3199, 49, -31796, 3283, 20243, 3120, 15360, -3133, 17232, -832, 17357, -1024, -10916, -16380, 3271, 3100, -16113, 19728, 4928, 18268, 23924, -15148, 7168, -13264, -14895, -16369, 64, 13552, -9152, 17408, 23600, -13105, 60, 13, 1231, 4544, 4879, -15596, 7376, 12784, 12548, 460, 20416, 17492, 17344, 4416, -15916, 20496, 1520, 12291, 12360, 52, 24581, 12293, 240, 481, 16640, 211, 15428, -12992, 14272, 3148, 16580, -8973, -13060, 1283, -15305, -896, 18195, -12096, 6467, -4660, 19472, 13524, 19697, 17175, 15568, 256, 19661, -16112, 7171, 16659, 1074, 3148, -15616, -3053, 12560, -24692, 4125, -4096, 1921, 1847, 4608, 513, 3269, 17456, 21452, 17152, -15373, -16436, 13068, -15613, 269, -12287, 12291, 20848, 20279, 12508, 15372, -13117, 12481, -13296, -15345, 1988, -3073, 240, -12240, 464, 1345, 12480, 1011, 20784, 269, 3265, 13373, 16387, 1100, 199, 23808, 21493, 1475, 19475, 16195, 20739, 22275, 832, -11307, 16480, -15056, 823, 15456, 7296, 14540, 13168, 4428, 20572, 7374, 7360, -2651, 20709, 4147, 263, 21520, 12300, 28724, 31, -11470, 192, -16140, 31809, 68, 15551, 31, 13703, 7743, 801, 13809, -14089, 20272, 304, -15103, -16121, 28957, 8252, 17484, 5121, 1348, -15540, -4048, 21552, -16576, 16131, -15440, 19456, 833, 20869, 339, 15732, 4173, 19456, 32007, 1340, 4883, 15871, 304, 12596, 17156, 1484, 1617, -2304, -16367, 13556, 25843, 449, 1296, 8207, 16384, 23804, -15913, -12017, 21955, -15885, -15595, -22516, 12413, -720, -13056, -1008, -12172, -15936, 29, 17415, 12916, 16403, 12, 1476, 1347, 1043, 28992, 5380, 3088, -2077, 15665, 32000, 1796, 268, -3888, 20672, 8018, -8996, -9104, 16834, 16448, 1353, 16432, 48, -16372, -32766, -16383, 80, 13060, 4302, -23531, 16176, -12528, 16719, 15360, 16385, -16065, -15118, 4997, 12604, 7204, -14565, 2001, 12317, -2189, 29952, 13364, 8257, 3908, -14480, 240, 4156, -11827, -19464, -15099, -3904, 5459, 824, 12368, 32515, 1535, 20989, -8956, -4087, -16009, 18439, -12508, 3269, 0, 3092, -12747, 4316, 13504, 6915, 3324, -2732, 12291, -14899, 12304, 1217, 29747, -11908, 71, -15348, 22357, 3859, 18640, 23360, 16531, -13261, 1024, -16269, -17404, 16647, -20461, 64, 15360, 1088, 4413, 21519, 3376, 3328, 16848, 768, 16640, 17407, 13, -16383, 1299, 19477, 16385, 451, -14317, 12736, -1024, 6920, -13308, -15220, -15305, -995, -14400, 32028, 7984, -15533, 30460, 215, 2068, 12288, 3072, 12356, -16384, 16384, 2008, 1804, -15284, 18197, 16, -3833, 0, 1344, -13040, 19760, 19472, 4383, 12352, -14540, 12615, -13295, 19456, 4208, -32500, -3004, 3092, -15136, 1040, 3148, 243, 19459, 273, 22492, -15416, 17419, 15635, 16460, 20239, -16060, -15108, 13308, -12288, 12572, -7347, -16124, 4159, 17152, 4099, 13340, 911, 1999, -15873, 1280, 4108, 838, 14743, 13252, -8141, 16188, 1856, -7744, 17, 1293, 23805, 13251, -8208, 13260, -12091, 14100, -2818, 16499, 819, 994, 15605, -3328, 321, 771, 7360, 7490, -4080, 15360, -3261, 5120, -3264, -13236, -3915, -3889, 12860, 3132, 4913, 15376, -16381, -3121, -17213, 961, 16175, 12288, -16189, 4099, 3863, 4607, 4289, 15631, 23556, 7216, 3855, -15568, 13071, 13104, -2576, 4116, -3024, 13505, 16502, 3136, 5200, 3331, -16172, 21973, 323, 3120, -12976, -13312, 23808, 8960, 20480, 19507, 240, 1219, 13264, 7668, 17264, -9011, 17459, -3277, -15616, 3073, -15604, 15507, 16416, -32548, 1039, 4893, -15100, 5319, 18252, -4045, -15005, 2060, 15564, 30671, 4034, 12364, -16317, 16831, 8196, -16191, -16368, -2283, -28621, -16188, -16068, 16191, 4609, 23920, -12093, 20485, -32758, -752, -12228, -16381, -79, 28749, 15360, 1872, 20675, 13104, 3952, -3039, 16967, -19661, -13296, 3911, 195, 12, 22028, -10303, 3952, 2051, 259, -4084, 820, 29953, 16947, 19456, 29491, 831, 19553, 24031, 4099, 9679, -12340, 13335, -15356, -16336, 17485, 3133, 2116, 15552, -12383, 12615, 5247, 3408, 4364, 15, 1088, 16499, 29491, -32560, 26129, -16368, 7939, 16464, 115, -1019, -14260, 13068, -4048, 28, -12500, 4040, 48, 13332, -4075, 270, 48, -12476, 3075, -12526, 18819, 23600, -227, -3889, 1912, 3340, 16140, -13172, -11508, -2768, 3857, 13284, -3837, 199, 908, 3596, -733, 3148, -29693, -829, 3151, 21812, 1091, 12356, 21027, 15376, -12288, 15411, 4871, -16257, -14285, 113, 1024, 3228, 16576, 15, -16333, 29701, 4144, -16368, -13311, 7367, 20224, 17411, 14336, 3136, 28736, 3347, 30163, 17404, 15616, 12593, 13324, -15284, 3072, 1985, -7309, -12332, 2100, -3072, 17423, 1476, 5335, -15357, 16176, 4144, 3093, 13692, -10763, 256, 4356, -12095, 3536, 12549, 796, 9091, 1792, 368, 1280, 1293, 29565, 1027, 441, -15236, 12545, 5200, 0, 21301, -11517, 1040, 3159, 28741, 3271, -17360, 12, 18368, -48, 20604, 8004, 3269, -16297, 1472, 21952, 200, 19584, 1280, 1024, 15683, 6531, 29699, 3872, -15807, -12285, -12076, -16383, 13588, -32516, 4100, 20416, 844, 835, -16228, -28607, -28408, 908, -28879, -24640, -15548, 13297, 15379, -12531, 911, 23823, 17157, -13325, 32012, 16177, 16604, 13365, -28621, 13284, -15215, 13360, -16336, 261, 513, 63, 30147, -32656, -9204, 467, -2061, -16080, 7996, 16691, 803, 12339, 4548, 3266, 4148, 3855, 12288, 20419, 3088, -16336, -10372, 15, -15156, 15812, 4867, -16303, -8241, 3072, -3266, -16333, -11508, 12528, 1331, 3668, 3084, -3124, -16308, 4181, -16125, -12032, 1375, 12480, 13628, 7196, 20544, -3024, 1984, -16336, -14848, 31808, 16387, -32528, 773, -3072, -12082, 575, -31665, 15603, -16144, 892, -11472, -9203, 16579, 67, 3328, 13200, 21251, 28691, -12019, 4864, 28804, 8064, 3264, -15376, 63, 1008, -32768, -32493, 16579, 242, -16125, 995, -15603, -24572, 3085, 80, 7633, 223, 16140, 8204, 32, 1012, 240, 208, -15357, 5580, -3899, 7952, -256, 4211, 16128, 29935, 768, 8275, 13552, -16107, 12375, -25341, 20175, 198, 13363, 3076, 7376, -7152, 15377, 17, 3856, -7340, 12545, -4030, 14462, 20464, 29493, 4288, -9204, 31812, 1232, 8136, -16224, 580, 23599, -3984, 13263, -14589, 12592, -12495, 4912, 4561, -6713, -12496, 305, 116, 11520, -192, 5952, 28724, 3088, 7392, -4032, -15229, 13299, -624, 3843, 5172, -12095, 4113, 816, -32307, 204, -8960, 817, 3076, 4109, 23631, 193, 7420, 5203, 816, 1280, 21501, 3075, 4172, -13291, -12288, 16177, 20991, 83, 17456, 15, 335, -2224, 12799, 1088, -11264, 17719, 17683, -16272, 21185, -3891, 1010, 49, -15357, 14172, 31988, -16192, -3056, -13264, -964, 12303, -4304, 7292, -12540, 304, -15616, -29688, 4163, 12423, 26368, 17216, 13280, 13076, 1984, 67, 3187, -11195, 28684, 4979, 12492, 4369, 3024, 5148, 3860, 768, -15151, 3077, 1268, 13505, 14168, 3340, 17617, -29641, -3873, -16320, -15405, 20684, -30928, -2239, -1012, 3080, 17217, 16455, -15120, -15156, 0, 66, 13364, 3404, 0, 2915, 243, 17473, 19724, -5120, -12401, 12300, 3395, 3888, -16315, 275, 3156, 5152, 16391, 9024, 12487, 31871, 7424, 12337, 3079, -12288, 16193, -15369, 271, -15248, 19461, 12494, 5392, 256, 28790, 881, 31760, 4416, 1217, -4335, 259, -16384, 13251, 8188, 19472, 18291, 788, -3856, -12816, 5572, 4869, 21648, 16595, 772, -12217, 1223, -4081, 15388, 1329, 19525, -12048, 4372, 16400, 23572, -29693, 80, -16064, -12801, 16192, 16157, -16180, 20755, -16372, 13389, 316, -3648, 5948, 7175, -3060, -31552, 3266, 12743, 4, 7184, -4860, -3069, 28932, -3885, -16381, 1019, 16384, 1028, -19648, 21770, 16509, 19487, -15604, 4299, 32514, 13329, -16064, -15305, -8721, -12284, -4036, 1111, -11214, -15221, -12077, 15603, 3855, -15348, 52, -9151, -15365, -9140, 785, 32540, 1989, -3214, 1860, -15163, 16388, 3088, 19248, 29440, 1220, 3331, 13120, 1292, 51, 3356, 963, 24052, 70, 719, -8251, -14587, 19516, -1008, 23, 12540, 3264, 7171, 5136, 28688, -11403, 17412, -13007, 15363, 18180, 4175, 6101, 4212, 17776, -12224, 4096, 17220, 3324, 3856, 4191, -16372, -3044, 252, 308, 29442, 0, -2619, 14080, 12367, 10252, 1028, 17776, 1228, 1812, -2111, 9285, -15376, -11470, 12291, 1093, 448, 17212, 1984, 64, 4209, 12336, 16177, -15360, 21696, 1779, 15415, 1216, -2885, 318, 1030, 1045, 4592, 21, 496, 31759, -31804, 2045, -28892, 16701, 7187, 1296, 4164, -196, 4988, 17152, -15421, 1028, 16384, 3396, 12291, 3123, -13072, 1277, -28672, 25395, 12355, 13519, 3259, 16392, -15348, 28720, -11325, 21252, 16188, 5120, 18032, 1277, -15404, 12292, 460, -12256, 5575, 8131, -12032, 14289, 29484, -16067, -3127, 13311, -11006, 24323, -9152, 1600, 62, 22384, 15480, 7476, 16129, 20103, 17, 31, -20431, 9032, 193, 28787, 17349, -255, -2880, 14131, 21185, 24844, 15631, 23311, 60, 769, 1020, 4644, -3072, 4165, -829, 21296, 22544, 4913, -15300, 17648, -31744, 5060, -13245, 848, 12572, 13761, 12307, -15012, -12989, 12304, 11520, 20748, 192, -8384, 1932, -15936, 12343, 3057, 28531, 208, 203, 16835, 3584, 12432, 12560, 14336, 12540, 3139, 3908, -2573, 8, 31988, 5123, 13648, 13340, 32032, -15612, 16387, 15377, 12740, 19, 28996, 3137, 8387, -10952, 16887, 345, 272, 16839, -3816, 211, 4412, 21556, 3121, 19479, 1279, 240, 28867, 12304, 304, 5327, -8428, 5197, 20424, 19479, 12292, 23564, -3325, 832, 3015, 16576, 29744, 3139, 76, 1084, 1031, 777, 4161, 1024, 13568, 19460, 21248, -9968, -448, 12751, 4176, 3075, 3888, 768, -15921, 1039, 16384, 12315, 15424, 5364, -16188, -16332, 3848, -16336, 771, 195, 780, -13263, -15556, 768, -2818, 16903, -2832, 4400, 204, 12288, -205, -15852, 31772, 17180, -4083, 5140, 15436, -12045, -5044, 848, 24624, 23671, 14275, 4320, -13297, 1085, 15552, 13120, -13068, 3139, 4403, 4152, 1537, -13263, 3100, -13308, -2096, 16837, -12533, 3264, 13072, 5133, -14896, -1012, 14087, 31792, 29, 1027, 69, 12352, 7260, 16668, 15553, 17228, 4080, 15679, 195, 15552, 1237, 12289, -3748, 16, 16563, -11236, 24397, -29691, 3088, -16100, 497, 16879, 22529, 560, -16324, 20492, 1085, 3287, -15231, 13315, 20483, 21776, -10304, 15424, 56, 21311, 28692, 13299, 1875, -15540, -12496, -13309, 3015, 12288, -31475, 452, 4328, 304, -15312, -10489, -934, 2000, 13360, -16191, 15632, 1075, 1825, -12276, -12880, 15935, -12976, 19456, 1985, -14529, -28651, 3136, -16064, 180, -10252, -16384, -16141, 20227, 13616, -7887, 19460, -3837, -15275, -15856, 4868, -3785, -8445, -6836, -13028, 28721, 31792, 3415, 13312, 16384, 1840, -14573, 17200, -7421, -10496, -16320, 12356, 3439, -12352, 13360, -12852, 16881, 14163, -11033, 8448, -13056, -4081, -252, 20547, -15404, 461, -11204, 12295, 20240, 5620, 771, 3449, -16077, 17164, 12561, 1799, 32000, 20860, 15601, 784, 64, -11216, 7996, -9021, 259};
