#include "simple_conv.h"

quant_resh weights_l1[384] = {-12817, 1347, 30241, -30293, -12817, 1347, 30241, -30293, -12817, 1347, 30241, -30293, 15582, 4180, -18590, -1894, 15582, 4180, -18590, -1894, 15582, 4180, -18590, -1894, 17357, 8453, -21642, -4215, 17357, 8453, -21642, -4215, 17357, 8453, -21642, -4215, 21564, 25104, -25929, -8456, 21564, 25104, -25929, -8456, 21564, 25104, -25929, -8456, 1347, 30241, -30293, -12817, 1347, 30241, -30293, -12817, 1347, 30241, -30293, -12817, 4180, -18590, -1894, 15582, 4180, -18590, -1894, 15582, 4180, -18590, -1894, 15582, 8453, -21642, -4215, 17357, 8453, -21642, -4215, 17357, 8453, -21642, -4215, 17357, 25104, -25929, -8456, 21564, 25104, -25929, -8456, 21564, 25104, -25929, -8456, 21564, 30241, -30293, -12817, 1347, 30241, -30293, -12817, 1347, 30241, -30293, -12817, 1347, -18590, -1894, 15582, 4180, -18590, -1894, 15582, 4180, -18590, -1894, 15582, 4180, -21642, -4215, 17357, 8453, -21642, -4215, 17357, 8453, -21642, -4215, 17357, 8453, -25929, -8456, 21564, 25104, -25929, -8456, 21564, 25104, -25929, -8456, 21564, 25104, -30293, -12817, 1347, 30241, -30293, -12817, 1347, 30241, -30293, -12817, 1347, 30241, -1894, 15582, 4180, -18590, -1894, 15582, 4180, -18590, -1894, 15582, 4180, -18590, -4215, 17357, 8453, -21642, -4215, 17357, 8453, -21642, -4215, 17357, 8453, -21642, -8456, 21564, 25104, -25929, -8456, 21564, 25104, -25929, -8456, 21564, 25104, -25929, -12817, 1347, 30241, -30293, -12817, 1347, 30241, -30293, -12817, 1347, 30241, -30293, 15582, 4180, -18590, -1894, 15582, 4180, -18590, -1894, 15582, 4180, -18590, -1894, 17357, 8453, -21642, -4215, 17357, 8453, -21642, -4215, 17357, 8453, -21642, -4215, 21564, 25104, -25929, -8456, 21564, 25104, -25929, -8456, 21564, 25104, -25929, -8456, 1347, 30241, -30293, -12817, 1347, 30241, -30293, -12817, 1347, 30241, -30293, -12817, 4180, -18590, -1894, 15582, 4180, -18590, -1894, 15582, 4180, -18590, -1894, 15582, 8453, -21642, -4215, 17357, 8453, -21642, -4215, 17357, 8453, -21642, -4215, 17357, 25104, -25929, -8456, 21564, 25104, -25929, -8456, 21564, 25104, -25929, -8456, 21564, 30241, -30293, -12817, 1347, 30241, -30293, -12817, 1347, 30241, -30293, -12817, 1347, -18590, -1894, 15582, 4180, -18590, -1894, 15582, 4180, -18590, -1894, 15582, 4180, -21642, -4215, 17357, 8453, -21642, -4215, 17357, 8453, -21642, -4215, 17357, 8453, -25929, -8456, 21564, 25104, -25929, -8456, 21564, 25104, -25929, -8456, 21564, 25104, -30293, -12817, 1347, 30241, -30293, -12817, 1347, 30241, -30293, -12817, 1347, 30241, -1894, 15582, 4180, -18590, -1894, 15582, 4180, -18590, -1894, 15582, 4180, -18590, -4215, 17357, 8453, -21642, -4215, 17357, 8453, -21642, -4215, 17357, 8453, -21642, -8456, 21564, 25104, -25929, -8456, 21564, 25104, -25929, -8456, 21564, 25104, -25929};
quant_resh weights_l2[2304] = {-23212, 4106, 12833, -30317, 30312, -4105, -12834, 19388, -23212, 4106, 12833, -30317, 30312, -4105, -12834, 19388, -23212, 4106, 12833, -30317, 30312, -4105, -12834, 19388, 2725, 8464, -27854, 26761, -2186, -8465, -17203, 21579, 2725, 8464, -27854, 26761, -2186, -8465, -17203, 21579, 2725, 8464, -27854, 26761, -2186, -8465, -17203, 21579, 2725, 8464, -27854, 26761, -2186, -8465, -17203, 21579, 2725, 8464, -27854, 26761, -2186, -8465, -17203, 21579, 2725, 8464, -27854, 26761, -2186, -8465, -17203, 21579, 4106, 12833, -30317, 30312, -4105, -12834, 19388, -23212, 4106, 12833, -30317, 30312, -4105, -12834, 19388, -23212, 4106, 12833, -30317, 30312, -4105, -12834, 19388, -23212, 4106, 12833, -30317, 30312, -4105, -12834, 19388, -23212, 4106, 12833, -30317, 30312, -4105, -12834, 19388, -23212, 4106, 12833, -30317, 30312, -4105, -12834, 19388, -23212, 8464, -27854, 26761, -2186, -8465, -17203, 21579, 2725, 8464, -27854, 26761, -2186, -8465, -17203, 21579, 2725, 8464, -27854, 26761, -2186, -8465, -17203, 21579, 2725, 8464, -27854, 26761, -2186, -8465, -17203, 21579, 2725, 8464, -27854, 26761, -2186, -8465, -17203, 21579, 2725, 8464, -27854, 26761, -2186, -8465, -17203, 21579, 2725, 12833, -30317, 30312, -4105, -12834, 19388, -23212, 4106, 12833, -30317, 30312, -4105, -12834, 19388, -23212, 4106, 12833, -30317, 30312, -4105, -12834, 19388, -23212, 4106, 12833, -30317, 30312, -4105, -12834, 19388, -23212, 4106, 12833, -30317, 30312, -4105, -12834, 19388, -23212, 4106, 12833, -30317, 30312, -4105, -12834, 19388, -23212, 4106, -27854, 26761, -2186, -8465, -17203, 21579, 2725, 8464, -27854, 26761, -2186, -8465, -17203, 21579, 2725, 8464, -27854, 26761, -2186, -8465, -17203, 21579, 2725, 8464, -27854, 26761, -2186, -8465, -17203, 21579, 2725, 8464, -27854, 26761, -2186, -8465, -17203, 21579, 2725, 8464, -27854, 26761, -2186, -8465, -17203, 21579, 2725, 8464, -30317, 30312, -4105, -12834, 19388, -23212, 4106, 12833, -30317, 30312, -4105, -12834, 19388, -23212, 4106, 12833, -30317, 30312, -4105, -12834, 19388, -23212, 4106, 12833, -30317, 30312, -4105, -12834, 19388, -23212, 4106, 12833, -30317, 30312, -4105, -12834, 19388, -23212, 4106, 12833, -30317, 30312, -4105, -12834, 19388, -23212, 4106, 12833, 26761, -2186, -8465, -17203, 21579, 2725, 8464, -27854, 26761, -2186, -8465, -17203, 21579, 2725, 8464, -27854, 26761, -2186, -8465, -17203, 21579, 2725, 8464, -27854, 26761, -2186, -8465, -17203, 21579, 2725, 8464, -27854, 26761, -2186, -8465, -17203, 21579, 2725, 8464, -27854, 26761, -2186, -8465, -17203, 21579, 2725, 8464, -27854, 30312, -4105, -12834, 19388, -23212, 4106, 12833, -30317, 30312, -4105, -12834, 19388, -23212, 4106, 12833, -30317, 30312, -4105, -12834, 19388, -23212, 4106, 12833, -30317, 30312, -4105, -12834, 19388, -23212, 4106, 12833, -30317, 30312, -4105, -12834, 19388, -23212, 4106, 12833, -30317, 30312, -4105, -12834, 19388, -23212, 4106, 12833, -30317, -2186, -8465, -17203, 21579, 2725, 8464, -27854, 26761, -2186, -8465, -17203, 21579, 2725, 8464, -27854, 26761, -2186, -8465, -17203, 21579, 2725, 8464, -27854, 26761, -2186, -8465, -17203, 21579, 2725, 8464, -27854, 26761, -2186, -8465, -17203, 21579, 2725, 8464, -27854, 26761, -2186, -8465, -17203, 21579, 2725, 8464, -27854, 26761, -4105, -12834, 19388, -23212, 4106, 12833, -30317, 30312, -4105, -12834, 19388, -23212, 4106, 12833, -30317, 30312, -4105, -12834, 19388, -23212, 4106, 12833, -30317, 30312, -4105, -12834, 19388, -23212, 4106, 12833, -30317, 30312, -4105, -12834, 19388, -23212, 4106, 12833, -30317, 30312, -4105, -12834, 19388, -23212, 4106, 12833, -30317, 30312, -8465, -17203, 21579, 2725, 8464, -27854, 26761, -2186, -8465, -17203, 21579, 2725, 8464, -27854, 26761, -2186, -8465, -17203, 21579, 2725, 8464, -27854, 26761, -2186, -8465, -17203, 21579, 2725, 8464, -27854, 26761, -2186, -8465, -17203, 21579, 2725, 8464, -27854, 26761, -2186, -8465, -17203, 21579, 2725, 8464, -27854, 26761, -2186, -12834, 19388, -23212, 4106, 12833, -30317, 30312, -4105, -12834, 19388, -23212, 4106, 12833, -30317, 30312, -4105, -12834, 19388, -23212, 4106, 12833, -30317, 30312, -4105, -12834, 19388, -23212, 4106, 12833, -30317, 30312, -4105, -12834, 19388, -23212, 4106, 12833, -30317, 30312, -4105, -12834, 19388, -23212, 4106, 12833, -30317, 30312, -4105, -17203, 21579, 2725, 8464, -27854, 26761, -2186, -8465, -17203, 21579, 2725, 8464, -27854, 26761, -2186, -8465, -17203, 21579, 2725, 8464, -27854, 26761, -2186, -8465, -17203, 21579, 2725, 8464, -27854, 26761, -2186, -8465, -17203, 21579, 2725, 8464, -27854, 26761, -2186, -8465, -17203, 21579, 2725, 8464, -27854, 26761, -2186, -8465, 19388, -23212, 4106, 12833, -30317, 30312, -4105, -12834, 19388, -23212, 4106, 12833, -30317, 30312, -4105, -12834, 19388, -23212, 4106, 12833, -30317, 30312, -4105, -12834, 19388, -23212, 4106, 12833, -30317, 30312, -4105, -12834, 19388, -23212, 4106, 12833, -30317, 30312, -4105, -12834, 19388, -23212, 4106, 12833, -30317, 30312, -4105, -12834, 21579, 2725, 8464, -27854, 26761, -2186, -8465, -17203, 21579, 2725, 8464, -27854, 26761, -2186, -8465, -17203, 21579, 2725, 8464, -27854, 26761, -2186, -8465, -17203, 21579, 2725, 8464, -27854, 26761, -2186, -8465, -17203, 21579, 2725, 8464, -27854, 26761, -2186, -8465, -17203, 21579, 2725, 8464, -27854, 26761, -2186, -8465, -17203, -23212, 4106, 12833, -30317, 30312, -4105, -12834, 19388, -23212, 4106, 12833, -30317, 30312, -4105, -12834, 19388, -23212, 4106, 12833, -30317, 30312, -4105, -12834, 19388, -23212, 4106, 12833, -30317, 30312, -4105, -12834, 19388, -23212, 4106, 12833, -30317, 30312, -4105, -12834, 19388, -23212, 4106, 12833, -30317, 30312, -4105, -12834, 19388, 2725, 8464, -27854, 26761, -2186, -8465, -17203, 21579, 2725, 8464, -27854, 26761, -2186, -8465, -17203, 21579, 2725, 8464, -27854, 26761, -2186, -8465, -17203, 21579, 2725, 8464, -27854, 26761, -2186, -8465, -17203, 21579, 2725, 8464, -27854, 26761, -2186, -8465, -17203, 21579, 2725, 8464, -27854, 26761, -2186, -8465, -17203, 21579, 4106, 12833, -30317, 30312, -4105, -12834, 19388, -23212, 4106, 12833, -30317, 30312, -4105, -12834, 19388, -23212, 4106, 12833, -30317, 30312, -4105, -12834, 19388, -23212, 4106, 12833, -30317, 30312, -4105, -12834, 19388, -23212, 4106, 12833, -30317, 30312, -4105, -12834, 19388, -23212, 4106, 12833, -30317, 30312, -4105, -12834, 19388, -23212, 8464, -27854, 26761, -2186, -8465, -17203, 21579, 2725, 8464, -27854, 26761, -2186, -8465, -17203, 21579, 2725, 8464, -27854, 26761, -2186, -8465, -17203, 21579, 2725, 8464, -27854, 26761, -2186, -8465, -17203, 21579, 2725, 8464, -27854, 26761, -2186, -8465, -17203, 21579, 2725, 8464, -27854, 26761, -2186, -8465, -17203, 21579, 2725, 12833, -30317, 30312, -4105, -12834, 19388, -23212, 4106, 12833, -30317, 30312, -4105, -12834, 19388, -23212, 4106, 12833, -30317, 30312, -4105, -12834, 19388, -23212, 4106, 12833, -30317, 30312, -4105, -12834, 19388, -23212, 4106, 12833, -30317, 30312, -4105, -12834, 19388, -23212, 4106, 12833, -30317, 30312, -4105, -12834, 19388, -23212, 4106, -27854, 26761, -2186, -8465, -17203, 21579, 2725, 8464, -27854, 26761, -2186, -8465, -17203, 21579, 2725, 8464, -27854, 26761, -2186, -8465, -17203, 21579, 2725, 8464, -27854, 26761, -2186, -8465, -17203, 21579, 2725, 8464, -27854, 26761, -2186, -8465, -17203, 21579, 2725, 8464, -27854, 26761, -2186, -8465, -17203, 21579, 2725, 8464, -30317, 30312, -4105, -12834, 19388, -23212, 4106, 12833, -30317, 30312, -4105, -12834, 19388, -23212, 4106, 12833, -30317, 30312, -4105, -12834, 19388, -23212, 4106, 12833, -30317, 30312, -4105, -12834, 19388, -23212, 4106, 12833, -30317, 30312, -4105, -12834, 19388, -23212, 4106, 12833, -30317, 30312, -4105, -12834, 19388, -23212, 4106, 12833, 26761, -2186, -8465, -17203, 21579, 2725, 8464, -27854, 26761, -2186, -8465, -17203, 21579, 2725, 8464, -27854, 26761, -2186, -8465, -17203, 21579, 2725, 8464, -27854, 26761, -2186, -8465, -17203, 21579, 2725, 8464, -27854, 26761, -2186, -8465, -17203, 21579, 2725, 8464, -27854, 26761, -2186, -8465, -17203, 21579, 2725, 8464, -27854, 30312, -4105, -12834, 19388, -23212, 4106, 12833, -30317, 30312, -4105, -12834, 19388, -23212, 4106, 12833, -30317, 30312, -4105, -12834, 19388, -23212, 4106, 12833, -30317, 30312, -4105, -12834, 19388, -23212, 4106, 12833, -30317, 30312, -4105, -12834, 19388, -23212, 4106, 12833, -30317, 30312, -4105, -12834, 19388, -23212, 4106, 12833, -30317, -2186, -8465, -17203, 21579, 2725, 8464, -27854, 26761, -2186, -8465, -17203, 21579, 2725, 8464, -27854, 26761, -2186, -8465, -17203, 21579, 2725, 8464, -27854, 26761, -2186, -8465, -17203, 21579, 2725, 8464, -27854, 26761, -2186, -8465, -17203, 21579, 2725, 8464, -27854, 26761, -2186, -8465, -17203, 21579, 2725, 8464, -27854, 26761, -4105, -12834, 19388, -23212, 4106, 12833, -30317, 30312, -4105, -12834, 19388, -23212, 4106, 12833, -30317, 30312, -4105, -12834, 19388, -23212, 4106, 12833, -30317, 30312, -4105, -12834, 19388, -23212, 4106, 12833, -30317, 30312, -4105, -12834, 19388, -23212, 4106, 12833, -30317, 30312, -4105, -12834, 19388, -23212, 4106, 12833, -30317, 30312, -8465, -17203, 21579, 2725, 8464, -27854, 26761, -2186, -8465, -17203, 21579, 2725, 8464, -27854, 26761, -2186, -8465, -17203, 21579, 2725, 8464, -27854, 26761, -2186, -8465, -17203, 21579, 2725, 8464, -27854, 26761, -2186, -8465, -17203, 21579, 2725, 8464, -27854, 26761, -2186, -8465, -17203, 21579, 2725, 8464, -27854, 26761, -2186, -12834, 19388, -23212, 4106, 12833, -30317, 30312, -4105, -12834, 19388, -23212, 4106, 12833, -30317, 30312, -4105, -12834, 19388, -23212, 4106, 12833, -30317, 30312, -4105, -12834, 19388, -23212, 4106, 12833, -30317, 30312, -4105, -12834, 19388, -23212, 4106, 12833, -30317, 30312, -4105, -12834, 19388, -23212, 4106, 12833, -30317, 30312, -4105, -17203, 21579, 2725, 8464, -27854, 26761, -2186, -8465, -17203, 21579, 2725, 8464, -27854, 26761, -2186, -8465, -17203, 21579, 2725, 8464, -27854, 26761, -2186, -8465, -17203, 21579, 2725, 8464, -27854, 26761, -2186, -8465, -17203, 21579, 2725, 8464, -27854, 26761, -2186, -8465, -17203, 21579, 2725, 8464, -27854, 26761, -2186, -8465, 19388, -23212, 4106, 12833, -30317, 30312, -4105, -12834, 19388, -23212, 4106, 12833, -30317, 30312, -4105, -12834, 19388, -23212, 4106, 12833, -30317, 30312, -4105, -12834, 19388, -23212, 4106, 12833, -30317, 30312, -4105, -12834, 19388, -23212, 4106, 12833, -30317, 30312, -4105, -12834, 19388, -23212, 4106, 12833, -30317, 30312, -4105, -12834, 21579, 2725, 8464, -27854, 26761, -2186, -8465, -17203, 21579, 2725, 8464, -27854, 26761, -2186, -8465, -17203, 21579, 2725, 8464, -27854, 26761, -2186, -8465, -17203, 21579, 2725, 8464, -27854, 26761, -2186, -8465, -17203, 21579, 2725, 8464, -27854, 26761, -2186, -8465, -17203, 21579, 2725, 8464, -27854, 26761, -2186, -8465, -17203, -23212, 4106, 12833, -30317, 30312, -4105, -12834, 19388, -23212, 4106, 12833, -30317, 30312, -4105, -12834, 19388, -23212, 4106, 12833, -30317, 30312, -4105, -12834, 19388, -23212, 4106, 12833, -30317, 30312, -4105, -12834, 19388, -23212, 4106, 12833, -30317, 30312, -4105, -12834, 19388, -23212, 4106, 12833, -30317, 30312, -4105, -12834, 19388, 2725, 8464, -27854, 26761, -2186, -8465, -17203, 21579, 2725, 8464, -27854, 26761, -2186, -8465, -17203, 21579, 2725, 8464, -27854, 26761, -2186, -8465, -17203, 21579, 2725, 8464, -27854, 26761, -2186, -8465, -17203, 21579, 2725, 8464, -27854, 26761, -2186, -8465, -17203, 21579, 2725, 8464, -27854, 26761, -2186, -8465, -17203, 21579, 4106, 12833, -30317, 30312, -4105, -12834, 19388, -23212, 4106, 12833, -30317, 30312, -4105, -12834, 19388, -23212, 4106, 12833, -30317, 30312, -4105, -12834, 19388, -23212, 4106, 12833, -30317, 30312, -4105, -12834, 19388, -23212, 4106, 12833, -30317, 30312, -4105, -12834, 19388, -23212, 4106, 12833, -30317, 30312, -4105, -12834, 19388, -23212, 8464, -27854, 26761, -2186, -8465, -17203, 21579, 2725, 8464, -27854, 26761, -2186, -8465, -17203, 21579, 2725, 8464, -27854, 26761, -2186, -8465, -17203, 21579, 2725, 8464, -27854, 26761, -2186, -8465, -17203, 21579, 2725, 8464, -27854, 26761, -2186, -8465, -17203, 21579, 2725, 8464, -27854, 26761, -2186, -8465, -17203, 21579, 2725, 12833, -30317, 30312, -4105, -12834, 19388, -23212, 4106, 12833, -30317, 30312, -4105, -12834, 19388, -23212, 4106, 12833, -30317, 30312, -4105, -12834, 19388, -23212, 4106, 12833, -30317, 30312, -4105, -12834, 19388, -23212, 4106, 12833, -30317, 30312, -4105, -12834, 19388, -23212, 4106, 12833, -30317, 30312, -4105, -12834, 19388, -23212, 4106, -27854, 26761, -2186, -8465, -17203, 21579, 2725, 8464, -27854, 26761, -2186, -8465, -17203, 21579, 2725, 8464, -27854, 26761, -2186, -8465, -17203, 21579, 2725, 8464, -27854, 26761, -2186, -8465, -17203, 21579, 2725, 8464, -27854, 26761, -2186, -8465, -17203, 21579, 2725, 8464, -27854, 26761, -2186, -8465, -17203, 21579, 2725, 8464, -30317, 30312, -4105, -12834, 19388, -23212, 4106, 12833, -30317, 30312, -4105, -12834, 19388, -23212, 4106, 12833, -30317, 30312, -4105, -12834, 19388, -23212, 4106, 12833, -30317, 30312, -4105, -12834, 19388, -23212, 4106, 12833, -30317, 30312, -4105, -12834, 19388, -23212, 4106, 12833, -30317, 30312, -4105, -12834, 19388, -23212, 4106, 12833, 26761, -2186, -8465, -17203, 21579, 2725, 8464, -27854, 26761, -2186, -8465, -17203, 21579, 2725, 8464, -27854, 26761, -2186, -8465, -17203, 21579, 2725, 8464, -27854, 26761, -2186, -8465, -17203, 21579, 2725, 8464, -27854, 26761, -2186, -8465, -17203, 21579, 2725, 8464, -27854, 26761, -2186, -8465, -17203, 21579, 2725, 8464, -27854, 30312, -4105, -12834, 19388, -23212, 4106, 12833, -30317, 30312, -4105, -12834, 19388, -23212, 4106, 12833, -30317, 30312, -4105, -12834, 19388, -23212, 4106, 12833, -30317, 30312, -4105, -12834, 19388, -23212, 4106, 12833, -30317, 30312, -4105, -12834, 19388, -23212, 4106, 12833, -30317, 30312, -4105, -12834, 19388, -23212, 4106, 12833, -30317, -2186, -8465, -17203, 21579, 2725, 8464, -27854, 26761, -2186, -8465, -17203, 21579, 2725, 8464, -27854, 26761, -2186, -8465, -17203, 21579, 2725, 8464, -27854, 26761, -2186, -8465, -17203, 21579, 2725, 8464, -27854, 26761, -2186, -8465, -17203, 21579, 2725, 8464, -27854, 26761, -2186, -8465, -17203, 21579, 2725, 8464, -27854, 26761, -4105, -12834, 19388, -23212, 4106, 12833, -30317, 30312, -4105, -12834, 19388, -23212, 4106, 12833, -30317, 30312, -4105, -12834, 19388, -23212, 4106, 12833, -30317, 30312, -4105, -12834, 19388, -23212, 4106, 12833, -30317, 30312, -4105, -12834, 19388, -23212, 4106, 12833, -30317, 30312, -4105, -12834, 19388, -23212, 4106, 12833, -30317, 30312, -8465, -17203, 21579, 2725, 8464, -27854, 26761, -2186, -8465, -17203, 21579, 2725, 8464, -27854, 26761, -2186, -8465, -17203, 21579, 2725, 8464, -27854, 26761, -2186, -8465, -17203, 21579, 2725, 8464, -27854, 26761, -2186, -8465, -17203, 21579, 2725, 8464, -27854, 26761, -2186, -8465, -17203, 21579, 2725, 8464, -27854, 26761, -2186, -12834, 19388, -23212, 4106, 12833, -30317, 30312, -4105, -12834, 19388, -23212, 4106, 12833, -30317, 30312, -4105, -12834, 19388, -23212, 4106, 12833, -30317, 30312, -4105, -12834, 19388, -23212, 4106, 12833, -30317, 30312, -4105, -12834, 19388, -23212, 4106, 12833, -30317, 30312, -4105, -12834, 19388, -23212, 4106, 12833, -30317, 30312, -4105, -17203, 21579, 2725, 8464, -27854, 26761, -2186, -8465, -17203, 21579, 2725, 8464, -27854, 26761, -2186, -8465, -17203, 21579, 2725, 8464, -27854, 26761, -2186, -8465, -17203, 21579, 2725, 8464, -27854, 26761, -2186, -8465, -17203, 21579, 2725, 8464, -27854, 26761, -2186, -8465, -17203, 21579, 2725, 8464, -27854, 26761, -2186, -8465, 19388, -23212, 4106, 12833, -30317, 30312, -4105, -12834, 19388, -23212, 4106, 12833, -30317, 30312, -4105, -12834, 19388, -23212, 4106, 12833, -30317, 30312, -4105, -12834, 19388, -23212, 4106, 12833, -30317, 30312, -4105, -12834, 19388, -23212, 4106, 12833, -30317, 30312, -4105, -12834, 19388, -23212, 4106, 12833, -30317, 30312, -4105, -12834, 21579, 2725, 8464, -27854, 26761, -2186, -8465, -17203, 21579, 2725, 8464, -27854, 26761, -2186, -8465, -17203, 21579, 2725, 8464, -27854, 26761, -2186, -8465, -17203, 21579, 2725, 8464, -27854, 26761, -2186, -8465, -17203, 21579, 2725, 8464, -27854, 26761, -2186, -8465, -17203, 21579, 2725, 8464, -27854, 26761, -2186, -8465, -17203, -23212, 4106, 12833, -30317, 30312, -4105, -12834, 19388, -23212, 4106, 12833, -30317, 30312, -4105, -12834, 19388, -23212, 4106, 12833, -30317, 30312, -4105, -12834, 19388};
quant_resh weights_l3[2064] = {30345, -10929, 2748, -7391, 30345, -10929, 2748, -7391, 30345, -10929, 2748, -7391, 30345, -10929, 2748, -7391, 30345, -10929, 2748, -7391, 30345, -10929, 2748, -7391, 30345, -10929, 2748, -7391, 30345, -10929, 2748, -7391, 30345, -10929, 2748, -7391, 30345, -10929, 2748, -7391, 30345, -10929, 2748, -2200, -12972, 4267, -25038, -2200, -12972, 4267, -25038, -2200, -12972, 4267, -25038, -2200, -12972, 4267, -25038, -2200, -12972, 4267, -25038, -2200, -12972, 4267, -25038, -2200, -12972, 4267, -25038, -2200, -12972, 4267, -25038, -2200, -12972, 4267, -25038, -2200, -12972, 4267, -25038, -2200, -12972, 4267, 20342, -17195, 8458, -30237, 20342, -17195, 8458, -30237, 20342, -17195, 8458, -30237, 20342, -17195, 8458, -30237, 20342, -17195, 8458, -30237, 20342, -17195, 8458, -30237, 20342, -17195, 8458, -30237, 20342, -17195, 8458, -30237, 20342, -17195, 8458, -30237, 20342, -17195, 8458, -30237, 20342, -17195, 8458, 21751, -21555, 12816, 26782, 21751, -21555, 12816, 26782, 21751, -21555, 12816, 26782, 21751, -21555, 12816, 26782, 21751, -21555, 12816, 26782, 21751, -21555, 12816, 26782, 21751, -21555, 12816, 26782, 21751, -21555, 12816, 26782, 21751, -21555, 12816, 26782, 21751, -21555, 12816, 26782, 21751, -21555, 12816, -10929, 2748, -7391, 30345, -10929, 2748, -7391, 30345, -10929, 2748, -7391, 30345, -10929, 2748, -7391, 30345, -10929, 2748, -7391, 30345, -10929, 2748, -7391, 30345, -10929, 2748, -7391, 30345, -10929, 2748, -7391, 30345, -10929, 2748, -7391, 30345, -10929, 2748, -7391, 30345, -10929, 2748, -7391, -12972, 4267, -25038, -2200, -12972, 4267, -25038, -2200, -12972, 4267, -25038, -2200, -12972, 4267, -25038, -2200, -12972, 4267, -25038, -2200, -12972, 4267, -25038, -2200, -12972, 4267, -25038, -2200, -12972, 4267, -25038, -2200, -12972, 4267, -25038, -2200, -12972, 4267, -25038, -2200, -12972, 4267, -25038, -17195, 8458, -30237, 20342, -17195, 8458, -30237, 20342, -17195, 8458, -30237, 20342, -17195, 8458, -30237, 20342, -17195, 8458, -30237, 20342, -17195, 8458, -30237, 20342, -17195, 8458, -30237, 20342, -17195, 8458, -30237, 20342, -17195, 8458, -30237, 20342, -17195, 8458, -30237, 20342, -17195, 8458, -30237, -21555, 12816, 26782, 21751, -21555, 12816, 26782, 21751, -21555, 12816, 26782, 21751, -21555, 12816, 26782, 21751, -21555, 12816, 26782, 21751, -21555, 12816, 26782, 21751, -21555, 12816, 26782, 21751, -21555, 12816, 26782, 21751, -21555, 12816, 26782, 21751, -21555, 12816, 26782, 21751, -21555, 12816, 26782, 2748, -7391, 30345, -10929, 2748, -7391, 30345, -10929, 2748, -7391, 30345, -10929, 2748, -7391, 30345, -10929, 2748, -7391, 30345, -10929, 2748, -7391, 30345, -10929, 2748, -7391, 30345, -10929, 2748, -7391, 30345, -10929, 2748, -7391, 30345, -10929, 2748, -7391, 30345, -10929, 2748, -7391, 30345, 4267, -25038, -2200, -12972, 4267, -25038, -2200, -12972, 4267, -25038, -2200, -12972, 4267, -25038, -2200, -12972, 4267, -25038, -2200, -12972, 4267, -25038, -2200, -12972, 4267, -25038, -2200, -12972, 4267, -25038, -2200, -12972, 4267, -25038, -2200, -12972, 4267, -25038, -2200, -12972, 4267, -25038, -2200, 8458, -30237, 20342, -17195, 8458, -30237, 20342, -17195, 8458, -30237, 20342, -17195, 8458, -30237, 20342, -17195, 8458, -30237, 20342, -17195, 8458, -30237, 20342, -17195, 8458, -30237, 20342, -17195, 8458, -30237, 20342, -17195, 8458, -30237, 20342, -17195, 8458, -30237, 20342, -17195, 8458, -30237, 20342, 12816, 26782, 21751, -21555, 12816, 26782, 21751, -21555, 12816, 26782, 21751, -21555, 12816, 26782, 21751, -21555, 12816, 26782, 21751, -21555, 12816, 26782, 21751, -21555, 12816, 26782, 21751, -21555, 12816, 26782, 21751, -21555, 12816, 26782, 21751, -21555, 12816, 26782, 21751, -21555, 12816, 26782, 21751, -7391, 30345, -10929, 2748, -7391, 30345, -10929, 2748, -7391, 30345, -10929, 2748, -7391, 30345, -10929, 2748, -7391, 30345, -10929, 2748, -7391, 30345, -10929, 2748, -7391, 30345, -10929, 2748, -7391, 30345, -10929, 2748, -7391, 30345, -10929, 2748, -7391, 30345, -10929, 2748, -7391, 30345, -10929, -25038, -2200, -12972, 4267, -25038, -2200, -12972, 4267, -25038, -2200, -12972, 4267, -25038, -2200, -12972, 4267, -25038, -2200, -12972, 4267, -25038, -2200, -12972, 4267, -25038, -2200, -12972, 4267, -25038, -2200, -12972, 4267, -25038, -2200, -12972, 4267, -25038, -2200, -12972, 4267, -25038, -2200, -12972, -30237, 20342, -17195, 8458, -30237, 20342, -17195, 8458, -30237, 20342, -17195, 8458, -30237, 20342, -17195, 8458, -30237, 20342, -17195, 8458, -30237, 20342, -17195, 8458, -30237, 20342, -17195, 8458, -30237, 20342, -17195, 8458, -30237, 20342, -17195, 8458, -30237, 20342, -17195, 8458, -30237, 20342, -17195, 26782, 21751, -21555, 12816, 26782, 21751, -21555, 12816, 26782, 21751, -21555, 12816, 26782, 21751, -21555, 12816, 26782, 21751, -21555, 12816, 26782, 21751, -21555, 12816, 26782, 21751, -21555, 12816, 26782, 21751, -21555, 12816, 26782, 21751, -21555, 12816, 26782, 21751, -21555, 12816, 26782, 21751, -21555, 30345, -10929, 2748, -7391, 30345, -10929, 2748, -7391, 30345, -10929, 2748, -7391, 30345, -10929, 2748, -7391, 30345, -10929, 2748, -7391, 30345, -10929, 2748, -7391, 30345, -10929, 2748, -7391, 30345, -10929, 2748, -7391, 30345, -10929, 2748, -7391, 30345, -10929, 2748, -7391, 30345, -10929, 2748, -2200, -12972, 4267, -25038, -2200, -12972, 4267, -25038, -2200, -12972, 4267, -25038, -2200, -12972, 4267, -25038, -2200, -12972, 4267, -25038, -2200, -12972, 4267, -25038, -2200, -12972, 4267, -25038, -2200, -12972, 4267, -25038, -2200, -12972, 4267, -25038, -2200, -12972, 4267, -25038, -2200, -12972, 4267, 20342, -17195, 8458, -30237, 20342, -17195, 8458, -30237, 20342, -17195, 8458, -30237, 20342, -17195, 8458, -30237, 20342, -17195, 8458, -30237, 20342, -17195, 8458, -30237, 20342, -17195, 8458, -30237, 20342, -17195, 8458, -30237, 20342, -17195, 8458, -30237, 20342, -17195, 8458, -30237, 20342, -17195, 8458, 21751, -21555, 12816, 26782, 21751, -21555, 12816, 26782, 21751, -21555, 12816, 26782, 21751, -21555, 12816, 26782, 21751, -21555, 12816, 26782, 21751, -21555, 12816, 26782, 21751, -21555, 12816, 26782, 21751, -21555, 12816, 26782, 21751, -21555, 12816, 26782, 21751, -21555, 12816, 26782, 21751, -21555, 12816, -10929, 2748, -7391, 30345, -10929, 2748, -7391, 30345, -10929, 2748, -7391, 30345, -10929, 2748, -7391, 30345, -10929, 2748, -7391, 30345, -10929, 2748, -7391, 30345, -10929, 2748, -7391, 30345, -10929, 2748, -7391, 30345, -10929, 2748, -7391, 30345, -10929, 2748, -7391, 30345, -10929, 2748, -7391, -12972, 4267, -25038, -2200, -12972, 4267, -25038, -2200, -12972, 4267, -25038, -2200, -12972, 4267, -25038, -2200, -12972, 4267, -25038, -2200, -12972, 4267, -25038, -2200, -12972, 4267, -25038, -2200, -12972, 4267, -25038, -2200, -12972, 4267, -25038, -2200, -12972, 4267, -25038, -2200, -12972, 4267, -25038, -17195, 8458, -30237, 20342, -17195, 8458, -30237, 20342, -17195, 8458, -30237, 20342, -17195, 8458, -30237, 20342, -17195, 8458, -30237, 20342, -17195, 8458, -30237, 20342, -17195, 8458, -30237, 20342, -17195, 8458, -30237, 20342, -17195, 8458, -30237, 20342, -17195, 8458, -30237, 20342, -17195, 8458, -30237, -21555, 12816, 26782, 21751, -21555, 12816, 26782, 21751, -21555, 12816, 26782, 21751, -21555, 12816, 26782, 21751, -21555, 12816, 26782, 21751, -21555, 12816, 26782, 21751, -21555, 12816, 26782, 21751, -21555, 12816, 26782, 21751, -21555, 12816, 26782, 21751, -21555, 12816, 26782, 21751, -21555, 12816, 26782, 2748, -7391, 30345, -10929, 2748, -7391, 30345, -10929, 2748, -7391, 30345, -10929, 2748, -7391, 30345, -10929, 2748, -7391, 30345, -10929, 2748, -7391, 30345, -10929, 2748, -7391, 30345, -10929, 2748, -7391, 30345, -10929, 2748, -7391, 30345, -10929, 2748, -7391, 30345, -10929, 2748, -7391, 30345, 4267, -25038, -2200, -12972, 4267, -25038, -2200, -12972, 4267, -25038, -2200, -12972, 4267, -25038, -2200, -12972, 4267, -25038, -2200, -12972, 4267, -25038, -2200, -12972, 4267, -25038, -2200, -12972, 4267, -25038, -2200, -12972, 4267, -25038, -2200, -12972, 4267, -25038, -2200, -12972, 4267, -25038, -2200, 8458, -30237, 20342, -17195, 8458, -30237, 20342, -17195, 8458, -30237, 20342, -17195, 8458, -30237, 20342, -17195, 8458, -30237, 20342, -17195, 8458, -30237, 20342, -17195, 8458, -30237, 20342, -17195, 8458, -30237, 20342, -17195, 8458, -30237, 20342, -17195, 8458, -30237, 20342, -17195, 8458, -30237, 20342, 12816, 26782, 21751, -21555, 12816, 26782, 21751, -21555, 12816, 26782, 21751, -21555, 12816, 26782, 21751, -21555, 12816, 26782, 21751, -21555, 12816, 26782, 21751, -21555, 12816, 26782, 21751, -21555, 12816, 26782, 21751, -21555, 12816, 26782, 21751, -21555, 12816, 26782, 21751, -21555, 12816, 26782, 21751, -7391, 30345, -10929, 2748, -7391, 30345, -10929, 2748, -7391, 30345, -10929, 2748, -7391, 30345, -10929, 2748, -7391, 30345, -10929, 2748, -7391, 30345, -10929, 2748, -7391, 30345, -10929, 2748, -7391, 30345, -10929, 2748, -7391, 30345, -10929, 2748, -7391, 30345, -10929, 2748, -7391, 30345, -10929, -25038, -2200, -12972, 4267, -25038, -2200, -12972, 4267, -25038, -2200, -12972, 4267, -25038, -2200, -12972, 4267, -25038, -2200, -12972, 4267, -25038, -2200, -12972, 4267, -25038, -2200, -12972, 4267, -25038, -2200, -12972, 4267, -25038, -2200, -12972, 4267, -25038, -2200, -12972, 4267, -25038, -2200, -12972, -30237, 20342, -17195, 8458, -30237, 20342, -17195, 8458, -30237, 20342, -17195, 8458, -30237, 20342, -17195, 8458, -30237, 20342, -17195, 8458, -30237, 20342, -17195, 8458, -30237, 20342, -17195, 8458, -30237, 20342, -17195, 8458, -30237, 20342, -17195, 8458, -30237, 20342, -17195, 8458, -30237, 20342, -17195, 26782, 21751, -21555, 12816, 26782, 21751, -21555, 12816, 26782, 21751, -21555, 12816, 26782, 21751, -21555, 12816, 26782, 21751, -21555, 12816, 26782, 21751, -21555, 12816, 26782, 21751, -21555, 12816, 26782, 21751, -21555, 12816, 26782, 21751, -21555, 12816, 26782, 21751, -21555, 12816, 26782, 21751, -21555, 30345, -10929, 2748, -7391, 30345, -10929, 2748, -7391, 30345, -10929, 2748, -7391, 30345, -10929, 2748, -7391, 30345, -10929, 2748, -7391, 30345, -10929, 2748, -7391, 30345, -10929, 2748, -7391, 30345, -10929, 2748, -7391, 30345, -10929, 2748, -7391, 30345, -10929, 2748, -7391, 30345, -10929, 2748, -2200, -12972, 4267, -25038, -2200, -12972, 4267, -25038, -2200, -12972, 4267, -25038, -2200, -12972, 4267, -25038, -2200, -12972, 4267, -25038, -2200, -12972, 4267, -25038, -2200, -12972, 4267, -25038, -2200, -12972, 4267, -25038, -2200, -12972, 4267, -25038, -2200, -12972, 4267, -25038, -2200, -12972, 4267, 20342, -17195, 8458, -30237, 20342, -17195, 8458, -30237, 20342, -17195, 8458, -30237, 20342, -17195, 8458, -30237, 20342, -17195, 8458, -30237, 20342, -17195, 8458, -30237, 20342, -17195, 8458, -30237, 20342, -17195, 8458, -30237, 20342, -17195, 8458, -30237, 20342, -17195, 8458, -30237, 20342, -17195, 8458, 21751, -21555, 12816, 26782, 21751, -21555, 12816, 26782, 21751, -21555, 12816, 26782, 21751, -21555, 12816, 26782, 21751, -21555, 12816, 26782, 21751, -21555, 12816, 26782, 21751, -21555, 12816, 26782, 21751, -21555, 12816, 26782, 21751, -21555, 12816, 26782, 21751, -21555, 12816, 26782, 21751, -21555, 12816, -10929, 2748, -7391, 30345, -10929, 2748, -7391, 30345, -10929, 2748, -7391, 30345, -10929, 2748, -7391, 30345, -10929, 2748, -7391, 30345, -10929, 2748, -7391, 30345, -10929, 2748, -7391, 30345, -10929, 2748, -7391, 30345, -10929, 2748, -7391, 30345, -10929, 2748, -7391, 30345, -10929, 2748, -7391, -12972, 4267, -25038, -2200, -12972, 4267, -25038, -2200, -12972, 4267, -25038, -2200, -12972, 4267, -25038, -2200, -12972, 4267, -25038, -2200, -12972, 4267, -25038, -2200, -12972, 4267, -25038, -2200, -12972, 4267, -25038, -2200, -12972, 4267, -25038, -2200, -12972, 4267, -25038, -2200, -12972, 4267, -25038, -17195, 8458, -30237, 20342, -17195, 8458, -30237, 20342, -17195, 8458, -30237, 20342, -17195, 8458, -30237, 20342, -17195, 8458, -30237, 20342, -17195, 8458, -30237, 20342, -17195, 8458, -30237, 20342, -17195, 8458, -30237, 20342, -17195, 8458, -30237, 20342, -17195, 8458, -30237, 20342, -17195, 8458, -30237, -21555, 12816, 26782, 21751, -21555, 12816, 26782, 21751, -21555, 12816, 26782, 21751, -21555, 12816, 26782, 21751, -21555, 12816, 26782, 21751, -21555, 12816, 26782, 21751, -21555, 12816, 26782, 21751, -21555, 12816, 26782, 21751, -21555, 12816, 26782, 21751, -21555, 12816, 26782, 21751, -21555, 12816, 26782, 2748, -7391, 30345, -10929, 2748, -7391, 30345, -10929, 2748, -7391, 30345, -10929, 2748, -7391, 30345, -10929, 2748, -7391, 30345, -10929, 2748, -7391, 30345, -10929, 2748, -7391, 30345, -10929, 2748, -7391, 30345, -10929, 2748, -7391, 30345, -10929, 2748, -7391, 30345, -10929, 2748, -7391, 30345, 4267, -25038, -2200, -12972, 4267, -25038, -2200, -12972, 4267, -25038, -2200, -12972, 4267, -25038, -2200, -12972, 4267, -25038, -2200, -12972, 4267, -25038, -2200, -12972, 4267, -25038, -2200, -12972, 4267, -25038, -2200, -12972, 4267, -25038, -2200, -12972, 4267, -25038, -2200, -12972, 4267, -25038, -2200, 8458, -30237, 20342, -17195, 8458, -30237, 20342, -17195, 8458, -30237, 20342, -17195, 8458, -30237, 20342, -17195, 8458, -30237, 20342, -17195, 8458, -30237, 20342, -17195, 8458, -30237, 20342, -17195, 8458, -30237, 20342, -17195, 8458, -30237, 20342, -17195, 8458, -30237, 20342, -17195, 8458, -30237, 20342, 12816, 26782, 21751, -21555, 12816, 26782, 21751, -21555, 12816, 26782, 21751, -21555, 12816, 26782, 21751, -21555, 12816, 26782, 21751, -21555, 12816, 26782, 21751, -21555, 12816, 26782, 21751, -21555, 12816, 26782, 21751, -21555, 12816, 26782, 21751, -21555, 12816, 26782, 21751, -21555, 12816, 26782, 21751, -7391, 30345, -10929, 2748, -7391, 30345, -10929, 2748, -7391, 30345, -10929, 2748, -7391, 30345, -10929, 2748, -7391, 30345, -10929, 2748, -7391, 30345, -10929, 2748, -7391, 30345, -10929, 2748, -7391, 30345, -10929, 2748, -7391, 30345, -10929, 2748, -7391, 30345, -10929, 2748, -7391, 30345, -10929, -25038, -2200, -12972, 4267, -25038, -2200, -12972, 4267, -25038, -2200, -12972, 4267, -25038, -2200, -12972, 4267, -25038, -2200, -12972, 4267, -25038, -2200, -12972, 4267, -25038, -2200, -12972, 4267, -25038, -2200, -12972, 4267, -25038, -2200, -12972, 4267, -25038, -2200, -12972, 4267, -25038, -2200, -12972, -30237, 20342, -17195, 8458, -30237, 20342, -17195, 8458, -30237, 20342, -17195, 8458, -30237, 20342, -17195, 8458, -30237, 20342, -17195, 8458, -30237, 20342, -17195, 8458, -30237, 20342, -17195, 8458, -30237, 20342, -17195, 8458, -30237, 20342, -17195, 8458, -30237, 20342, -17195, 8458, -30237, 20342, -17195, 26782, 21751, -21555, 12816, 26782, 21751, -21555, 12816, 26782, 21751, -21555, 12816, 26782, 21751, -21555, 12816, 26782, 21751, -21555, 12816, 26782, 21751, -21555, 12816, 26782, 21751, -21555, 12816, 26782, 21751, -21555, 12816, 26782, 21751, -21555, 12816, 26782, 21751, -21555, 12816, 26782, 21751, -21555};
