#include "simple_conv.h"

wght_reshp weights_l1[192] = {-6242, -24967, 31207, -6242, 31207, -6242, -24967, 31207, -24967, 31207, -6242, -24967, -6242, -24967, 31207, -6242, 31207, -6242, -24967, 31207, -24967, 31207, -6242, -24967, -6242, -24967, 31207, -6242, 31207, -6242, -24967, 31207, -24967, 31207, -6242, -24967, -6242, -24967, 31207, -6242, 31207, -6242, -24967, 31207, -24967, 31207, -6242, -24967, -6242, -24967, 31207, -6242, 31207, -6242, -24967, 31207, -24967, 31207, -6242, -24967, -6242, -24967, 31207, -6242, 31207, -6242, -24967, 31207, -24967, 31207, -6242, -24967, -6242, -24967, 31207, -6242, 31207, -6242, -24967, 31207, -24967, 31207, -6242, -24967, -6242, -24967, 31207, -6242, 31207, -6242, -24967, 31207, -24967, 31207, -6242, -24967, -6242, -24967, 31207, -6242, 31207, -6242, -24967, 31207, -24967, 31207, -6242, -24967, -6242, -24967, 31207, -6242, 31207, -6242, -24967, 31207, -24967, 31207, -6242, -24967, -6242, -24967, 31207, -6242, 31207, -6242, -24967, 31207, -24967, 31207, -6242, -24967, -6242, -24967, 31207, -6242, 31207, -6242, -24967, 31207, -24967, 31207, -6242, -24967, -6242, -24967, 31207, -6242, 31207, -6242, -24967, 31207, -24967, 31207, -6242, -24967, -6242, -24967, 31207, -6242, 31207, -6242, -24967, 31207, -24967, 31207, -6242, -24967, -6242, -24967, 31207, -6242, 31207, -6242, -24967, 31207, -24967, 31207, -6242, -24967, -6242, -24967, 31207, -6242, 31207, -6242, -24967, 31207, -24967, 31207, -6242, -24967};
wght_reshp weights_l2[1536] = {-10563, -17045, 27606, -10563, -17045, 27606, -10563, -17045, 27606, -10563, -17045, 27606, -17045, 27606, -10563, -17045, 27606, -10563, -17045, 27606, -10563, -17045, 27606, -10563, -17045, 27606, -10563, -17045, 27606, -10563, -17045, 27606, -10563, -17045, 27606, -10563, 27606, -10563, -17045, 27606, -10563, -17045, 27606, -10563, -17045, 27606, -10563, -17045, 27606, -10563, -17045, 27606, -10563, -17045, 27606, -10563, -17045, 27606, -10563, -17045, -10563, -17045, 27606, -10563, -17045, 27606, -10563, -17045, 27606, -10563, -17045, 27606, -10563, -17045, 27606, -10563, -17045, 27606, -10563, -17045, 27606, -10563, -17045, 27606, -17045, 27606, -10563, -17045, 27606, -10563, -17045, 27606, -10563, -17045, 27606, -10563, -17045, 27606, -10563, -17045, 27606, -10563, -17045, 27606, -10563, -17045, 27606, -10563, 27606, -10563, -17045, 27606, -10563, -17045, 27606, -10563, -17045, 27606, -10563, -17045, 27606, -10563, -17045, 27606, -10563, -17045, 27606, -10563, -17045, 27606, -10563, -17045, -10563, -17045, 27606, -10563, -17045, 27606, -10563, -17045, 27606, -10563, -17045, 27606, -10563, -17045, 27606, -10563, -17045, 27606, -10563, -17045, 27606, -10563, -17045, 27606, -17045, 27606, -10563, -17045, 27606, -10563, -17045, 27606, -10563, -17045, 27606, -10563, -17045, 27606, -10563, -17045, 27606, -10563, -17045, 27606, -10563, -17045, 27606, -10563, 27606, -10563, -17045, 27606, -10563, -17045, 27606, -10563, -17045, 27606, -10563, -17045, 27606, -10563, -17045, 27606, -10563, -17045, 27606, -10563, -17045, 27606, -10563, -17045, -10563, -17045, 27606, -10563, -17045, 27606, -10563, -17045, 27606, -10563, -17045, 27606, -10563, -17045, 27606, -10563, -17045, 27606, -10563, -17045, 27606, -10563, -17045, 27606, -17045, 27606, -10563, -17045, 27606, -10563, -17045, 27606, -10563, -17045, 27606, -10563, -17045, 27606, -10563, -17045, 27606, -10563, -17045, 27606, -10563, -17045, 27606, -10563, 27606, -10563, -17045, 27606, -10563, -17045, 27606, -10563, -17045, 27606, -10563, -17045, 27606, -10563, -17045, 27606, -10563, -17045, 27606, -10563, -17045, 27606, -10563, -17045, -10563, -17045, 27606, -10563, -17045, 27606, -10563, -17045, 27606, -10563, -17045, 27606, -10563, -17045, 27606, -10563, -17045, 27606, -10563, -17045, 27606, -10563, -17045, 27606, -17045, 27606, -10563, -17045, 27606, -10563, -17045, 27606, -10563, -17045, 27606, -10563, -17045, 27606, -10563, -17045, 27606, -10563, -17045, 27606, -10563, -17045, 27606, -10563, 27606, -10563, -17045, 27606, -10563, -17045, 27606, -10563, -17045, 27606, -10563, -17045, 27606, -10563, -17045, 27606, -10563, -17045, 27606, -10563, -17045, 27606, -10563, -17045, -10563, -17045, 27606, -10563, -17045, 27606, -10563, -17045, 27606, -10563, -17045, 27606, -10563, -17045, 27606, -10563, -17045, 27606, -10563, -17045, 27606, -10563, -17045, 27606, -17045, 27606, -10563, -17045, 27606, -10563, -17045, 27606, -10563, -17045, 27606, -10563, -17045, 27606, -10563, -17045, 27606, -10563, -17045, 27606, -10563, -17045, 27606, -10563, 27606, -10563, -17045, 27606, -10563, -17045, 27606, -10563, -17045, 27606, -10563, -17045, 27606, -10563, -17045, 27606, -10563, -17045, 27606, -10563, -17045, 27606, -10563, -17045, -10563, -17045, 27606, -10563, -17045, 27606, -10563, -17045, 27606, -10563, -17045, 27606, -10563, -17045, 27606, -10563, -17045, 27606, -10563, -17045, 27606, -10563, -17045, 27606, -17045, 27606, -10563, -17045, 27606, -10563, -17045, 27606, -10563, -17045, 27606, -10563, -17045, 27606, -10563, -17045, 27606, -10563, -17045, 27606, -10563, -17045, 27606, -10563, 27606, -10563, -17045, 27606, -10563, -17045, 27606, -10563, -17045, 27606, -10563, -17045, 27606, -10563, -17045, 27606, -10563, -17045, 27606, -10563, -17045, 27606, -10563, -17045, -10563, -17045, 27606, -10563, -17045, 27606, -10563, -17045, 27606, -10563, -17045, 27606, -10563, -17045, 27606, -10563, -17045, 27606, -10563, -17045, 27606, -10563, -17045, 27606, -17045, 27606, -10563, -17045, 27606, -10563, -17045, 27606, -10563, -17045, 27606, -10563, -17045, 27606, -10563, -17045, 27606, -10563, -17045, 27606, -10563, -17045, 27606, -10563, 27606, -10563, -17045, 27606, -10563, -17045, 27606, -10563, -17045, 27606, -10563, -17045, 27606, -10563, -17045, 27606, -10563, -17045, 27606, -10563, -17045, 27606, -10563, -17045, -10563, -17045, 27606, -10563, -17045, 27606, -10563, -17045, 27606, -10563, -17045, 27606, -10563, -17045, 27606, -10563, -17045, 27606, -10563, -17045, 27606, -10563, -17045, 27606, -17045, 27606, -10563, -17045, 27606, -10563, -17045, 27606, -10563, -17045, 27606, -10563, -17045, 27606, -10563, -17045, 27606, -10563, -17045, 27606, -10563, -17045, 27606, -10563, 27606, -10563, -17045, 27606, -10563, -17045, 27606, -10563, -17045, 27606, -10563, -17045, 27606, -10563, -17045, 27606, -10563, -17045, 27606, -10563, -17045, 27606, -10563, -17045, -10563, -17045, 27606, -10563, -17045, 27606, -10563, -17045, 27606, -10563, -17045, 27606, -10563, -17045, 27606, -10563, -17045, 27606, -10563, -17045, 27606, -10563, -17045, 27606, -17045, 27606, -10563, -17045, 27606, -10563, -17045, 27606, -10563, -17045, 27606, -10563, -17045, 27606, -10563, -17045, 27606, -10563, -17045, 27606, -10563, -17045, 27606, -10563, 27606, -10563, -17045, 27606, -10563, -17045, 27606, -10563, -17045, 27606, -10563, -17045, 27606, -10563, -17045, 27606, -10563, -17045, 27606, -10563, -17045, 27606, -10563, -17045, -10563, -17045, 27606, -10563, -17045, 27606, -10563, -17045, 27606, -10563, -17045, 27606, -10563, -17045, 27606, -10563, -17045, 27606, -10563, -17045, 27606, -10563, -17045, 27606, -17045, 27606, -10563, -17045, 27606, -10563, -17045, 27606, -10563, -17045, 27606, -10563, -17045, 27606, -10563, -17045, 27606, -10563, -17045, 27606, -10563, -17045, 27606, -10563, 27606, -10563, -17045, 27606, -10563, -17045, 27606, -10563, -17045, 27606, -10563, -17045, 27606, -10563, -17045, 27606, -10563, -17045, 27606, -10563, -17045, 27606, -10563, -17045, -10563, -17045, 27606, -10563, -17045, 27606, -10563, -17045, 27606, -10563, -17045, 27606, -10563, -17045, 27606, -10563, -17045, 27606, -10563, -17045, 27606, -10563, -17045, 27606, -17045, 27606, -10563, -17045, 27606, -10563, -17045, 27606, -10563, -17045, 27606, -10563, -17045, 27606, -10563, -17045, 27606, -10563, -17045, 27606, -10563, -17045, 27606, -10563, 27606, -10563, -17045, 27606, -10563, -17045, 27606, -10563, -17045, 27606, -10563, -17045, 27606, -10563, -17045, 27606, -10563, -17045, 27606, -10563, -17045, 27606, -10563, -17045, -10563, -17045, 27606, -10563, -17045, 27606, -10563, -17045, 27606, -10563, -17045, 27606, -10563, -17045, 27606, -10563, -17045, 27606, -10563, -17045, 27606, -10563, -17045, 27606, -17045, 27606, -10563, -17045, 27606, -10563, -17045, 27606, -10563, -17045, 27606, -10563, -17045, 27606, -10563, -17045, 27606, -10563, -17045, 27606, -10563, -17045, 27606, -10563, 27606, -10563, -17045, 27606, -10563, -17045, 27606, -10563, -17045, 27606, -10563, -17045, 27606, -10563, -17045, 27606, -10563, -17045, 27606, -10563, -17045, 27606, -10563, -17045, -10563, -17045, 27606, -10563, -17045, 27606, -10563, -17045, 27606, -10563, -17045, 27606, -10563, -17045, 27606, -10563, -17045, 27606, -10563, -17045, 27606, -10563, -17045, 27606, -17045, 27606, -10563, -17045, 27606, -10563, -17045, 27606, -10563, -17045, 27606, -10563, -17045, 27606, -10563, -17045, 27606, -10563, -17045, 27606, -10563, -17045, 27606, -10563, 27606, -10563, -17045, 27606, -10563, -17045, 27606, -10563, -17045, 27606, -10563, -17045, 27606, -10563, -17045, 27606, -10563, -17045, 27606, -10563, -17045, 27606, -10563, -17045, -10563, -17045, 27606, -10563, -17045, 27606, -10563, -17045, 27606, -10563, -17045, 27606, -10563, -17045, 27606, -10563, -17045, 27606, -10563, -17045, 27606, -10563, -17045, 27606, -17045, 27606, -10563, -17045, 27606, -10563, -17045, 27606, -10563, -17045, 27606, -10563, -17045, 27606, -10563, -17045, 27606, -10563, -17045, 27606, -10563, -17045, 27606, -10563, 27606, -10563, -17045, 27606, -10563, -17045, 27606, -10563, -17045, 27606, -10563, -17045, 27606, -10563, -17045, 27606, -10563, -17045, 27606, -10563, -17045, 27606, -10563, -17045, -10563, -17045, 27606, -10563, -17045, 27606, -10563, -17045, 27606, -10563, -17045, 27606, -10563, -17045, 27606, -10563, -17045, 27606, -10563, -17045, 27606, -10563, -17045, 27606, -17045, 27606, -10563, -17045, 27606, -10563, -17045, 27606, -10563, -17045, 27606, -10563, -17045, 27606, -10563, -17045, 27606, -10563, -17045, 27606, -10563, -17045, 27606, -10563, 27606, -10563, -17045, 27606, -10563, -17045, 27606, -10563, -17045, 27606, -10563, -17045, 27606, -10563, -17045, 27606, -10563, -17045, 27606, -10563, -17045, 27606, -10563, -17045, -10563, -17045, 27606, -10563, -17045, 27606, -10563, -17045, 27606, -10563, -17045, 27606, -10563, -17045, 27606, -10563, -17045, 27606, -10563, -17045, 27606, -10563, -17045, 27606, -17045, 27606, -10563, -17045, 27606, -10563, -17045, 27606, -10563, -17045, 27606, -10563, -17045, 27606, -10563, -17045, 27606, -10563, -17045, 27606, -10563, -17045, 27606, -10563, 27606, -10563, -17045, 27606, -10563, -17045, 27606, -10563, -17045, 27606, -10563, -17045, 27606, -10563, -17045, 27606, -10563, -17045, 27606, -10563, -17045, 27606, -10563, -17045, -10563, -17045, 27606, -10563, -17045, 27606, -10563, -17045, 27606, -10563, -17045, 27606, -10563, -17045, 27606, -10563, -17045, 27606, -10563, -17045, 27606, -10563, -17045, 27606, -17045, 27606, -10563, -17045, 27606, -10563, -17045, 27606, -10563, -17045, 27606, -10563, -17045, 27606, -10563, -17045, 27606, -10563, -17045, 27606, -10563, -17045, 27606, -10563, 27606, -10563, -17045, 27606, -10563, -17045, 27606, -10563, -17045, 27606, -10563, -17045, 27606, -10563, -17045, 27606, -10563, -17045, 27606, -10563, -17045, 27606, -10563, -17045, -10563, -17045, 27606, -10563, -17045, 27606, -10563, -17045, 27606, -10563, -17045, 27606, -10563, -17045, 27606, -10563, -17045, 27606, -10563, -17045, 27606, -10563, -17045, 27606, -17045, 27606, -10563, -17045, 27606, -10563, -17045, 27606, -10563, -17045, 27606, -10563, -17045, 27606, -10563, -17045, 27606, -10563, -17045, 27606, -10563, -17045, 27606, -10563, 27606, -10563, -17045, 27606, -10563, -17045, 27606, -10563, -17045, 27606, -10563, -17045, 27606, -10563, -17045, 27606, -10563, -17045, 27606, -10563, -17045, 27606, -10563, -17045, -10563, -17045, 27606, -10563, -17045, 27606, -10563, -17045, 27606, -10563, -17045, 27606, -10563, -17045, 27606, -10563, -17045, 27606, -10563, -17045, 27606, -10563, -17045, 27606, -17045, 27606, -10563, -17045, 27606, -10563, -17045, 27606, -10563, -17045, 27606, -10563, -17045, 27606, -10563, -17045, 27606, -10563, -17045, 27606, -10563, -17045, 27606, -10563, 27606, -10563, -17045, 27606, -10563, -17045, 27606, -10563, -17045, 27606, -10563, -17045, 27606, -10563, -17045, 27606, -10563, -17045, 27606, -10563, -17045, 27606, -10563, -17045, -10563, -17045, 27606, -10563, -17045, 27606, -10563, -17045, 27606, -10563, -17045, 27606, -10563, -17045, 27606, -10563, -17045, 27606, -10563, -17045, 27606, -10563, -17045, 27606, -17045, 27606, -10563, -17045, 27606, -10563, -17045, 27606, -10563, -17045, 27606, -10563, -17045, 27606, -10563, -17045, 27606, -10563, -17045, 27606, -10563, -17045, 27606, -10563, 27606, -10563, -17045, 27606, -10563, -17045, 27606, -10563, -17045, 27606, -10563, -17045, 27606, -10563, -17045, 27606, -10563, -17045, 27606, -10563, -17045, 27606, -10563, -17045, -10563, -17045, 27606, -10563, -17045, 27606, -10563, -17045, 27606, -10563, -17045, 27606, -10563, -17045, 27606, -10563, -17045, 27606, -10563, -17045, 27606, -10563, -17045, 27606, -17045, 27606, -10563, -17045, 27606, -10563, -17045, 27606, -10563, -17045, 27606, -10563};
wght_reshp weights_l3[1344] = {31207, -6242, -24967, 31207, -6242, -24967, 31207, -6242, -24967, 31207, -6242, -24967, 31207, -6242, -24967, 31207, -6242, -24967, 31207, -6242, -24967, 31207, -6242, -24967, 31207, -6242, -24967, 31207, -6242, -24967, 31207, -6242, -24967, 31207, -6242, -24967, 31207, -6242, -24967, 31207, -6242, -24967, 31207, -6242, -24967, 31207, -6242, -24967, 31207, -6242, -24967, 31207, -6242, -24967, 31207, -6242, -24967, 31207, -6242, -24967, 31207, -6242, -24967, 31207, -6242, -24967, 31207, -6242, -24967, 31207, -6242, -24967, 31207, -6242, -24967, 31207, -6242, -24967, 31207, -6242, -24967, 31207, -6242, -24967, 31207, -6242, -24967, 31207, -6242, -24967, 31207, -6242, -24967, 31207, -6242, -24967, 31207, -6242, -24967, 31207, -6242, -24967, 31207, -6242, -24967, 31207, -6242, -24967, 31207, -6242, -24967, 31207, -6242, -24967, 31207, -6242, -24967, 31207, -6242, -24967, 31207, -6242, -24967, 31207, -6242, -24967, 31207, -6242, -24967, 31207, -6242, -24967, 31207, -6242, -24967, 31207, -6242, -24967, 31207, -6242, -24967, 31207, -6242, -24967, 31207, -6242, -24967, 31207, -6242, -24967, 31207, -6242, -24967, 31207, -6242, -24967, 31207, -6242, -24967, 31207, -6242, -24967, 31207, -6242, -24967, 31207, -6242, -24967, 31207, -6242, -24967, 31207, -6242, -24967, 31207, -6242, -24967, 31207, -6242, -24967, 31207, -6242, -24967, 31207, -6242, -24967, 31207, -6242, -24967, 31207, -6242, -24967, 31207, -6242, -24967, 31207, -6242, -24967, 31207, -6242, -24967, 31207, -6242, -24967, 31207, -6242, -24967, 31207, -6242, -24967, 31207, -6242, -24967, 31207, -6242, -24967, 31207, -6242, -24967, 31207, -6242, -24967, 31207, -6242, -24967, 31207, -6242, -24967, 31207, -6242, -24967, 31207, -6242, -24967, 31207, -6242, -24967, 31207, -6242, -24967, 31207, -6242, -24967, 31207, -6242, -24967, 31207, -6242, -24967, 31207, -6242, -24967, 31207, -6242, -24967, 31207, -6242, -24967, 31207, -6242, -24967, 31207, -6242, -24967, 31207, -6242, -24967, 31207, -6242, -24967, 31207, -6242, -24967, 31207, -6242, -24967, 31207, -6242, -24967, 31207, -6242, -24967, 31207, -6242, -24967, 31207, -6242, -24967, 31207, -6242, -24967, 31207, -6242, -24967, 31207, -6242, -24967, 31207, -6242, -24967, 31207, -6242, -24967, 31207, -6242, -24967, 31207, -6242, -24967, 31207, -6242, -24967, 31207, -6242, -24967, 31207, -6242, -24967, 31207, -6242, -24967, 31207, -6242, -24967, 31207, -6242, -24967, 31207, -6242, -24967, 31207, -6242, -24967, 31207, -6242, -24967, 31207, -6242, -24967, 31207, -6242, -24967, 31207, -6242, -24967, 31207, -6242, -24967, 31207, -6242, -24967, 31207, -6242, -24967, 31207, -6242, -24967, 31207, -6242, -24967, 31207, -6242, -24967, 31207, -6242, -24967, 31207, -6242, -24967, 31207, -6242, -24967, 31207, -6242, -24967, 31207, -6242, -24967, 31207, -6242, -24967, 31207, -6242, -24967, 31207, -6242, -24967, 31207, -6242, -24967, 31207, -6242, -24967, 31207, -6242, -24967, 31207, -6242, -24967, 31207, -6242, -24967, 31207, -6242, -24967, 31207, -6242, -24967, 31207, -6242, -24967, 31207, -6242, -24967, 31207, -6242, -24967, 31207, -6242, -24967, 31207, -6242, -24967, 31207, -6242, -24967, 31207, -6242, -24967, 31207, -6242, -24967, 31207, -6242, -24967, 31207, -6242, -24967, 31207, -6242, -24967, 31207, -6242, -24967, 31207, -6242, -24967, 31207, -6242, -24967, 31207, -6242, -24967, 31207, -6242, -24967, 31207, -6242, -24967, 31207, -6242, -24967, 31207, -6242, -24967, 31207, -6242, -24967, 31207, -6242, -24967, 31207, -6242, -24967, 31207, -6242, -24967, 31207, -6242, -24967, 31207, -6242, -24967, 31207, -6242, -24967, 31207, -6242, -24967, 31207, -6242, -24967, 31207, -6242, -24967, 31207, -6242, -24967, 31207, -6242, -24967, 31207, -6242, -24967, 31207, -6242, -24967, 31207, -6242, -24967, 31207, -6242, -24967, 31207, -6242, -24967, 31207, -6242, -24967, 31207, -6242, -24967, 31207, -6242, -24967, 31207, -6242, -24967, 31207, -6242, -24967, 31207, -6242, -24967, 31207, -6242, -24967, 31207, -6242, -24967, 31207, -6242, -24967, 31207, -6242, -24967, 31207, -6242, -24967, 31207, -6242, -24967, 31207, -6242, -24967, 31207, -6242, -24967, 31207, -6242, -24967, 31207, -6242, -24967, 31207, -6242, -24967, 31207, -6242, -24967, 31207, -6242, -24967, 31207, -6242, -24967, 31207, -6242, -24967, 31207, -6242, -24967, 31207, -6242, -24967, 31207, -6242, -24967, 31207, -6242, -24967, 31207, -6242, -24967, 31207, -6242, -24967, 31207, -6242, -24967, 31207, -6242, -24967, 31207, -6242, -24967, 31207, -6242, -24967, 31207, -6242, -24967, 31207, -6242, -24967, 31207, -6242, -24967, 31207, -6242, -24967, 31207, -6242, -24967, 31207, -6242, -24967, 31207, -6242, -24967, 31207, -6242, -24967, 31207, -6242, -24967, 31207, -6242, -24967, 31207, -6242, -24967, 31207, -6242, -24967, 31207, -6242, -24967, 31207, -6242, -24967, 31207, -6242, -24967, 31207, -6242, -24967, 31207, -6242, -24967, 31207, -6242, -24967, 31207, -6242, -24967, 31207, -6242, -24967, 31207, -6242, -24967, 31207, -6242, -24967, 31207, -6242, -24967, 31207, -6242, -24967, 31207, -6242, -24967, 31207, -6242, -24967, 31207, -6242, -24967, 31207, -6242, -24967, 31207, -6242, -24967, 31207, -6242, -24967, 31207, -6242, -24967, 31207, -6242, -24967, 31207, -6242, -24967, 31207, -6242, -24967, 31207, -6242, -24967, 31207, -6242, -24967, 31207, -6242, -24967, 31207, -6242, -24967, 31207, -6242, -24967, 31207, -6242, -24967, 31207, -6242, -24967, 31207, -6242, -24967, 31207, -6242, -24967, 31207, -6242, -24967, 31207, -6242, -24967, 31207, -6242, -24967, 31207, -6242, -24967, 31207, -6242, -24967, 31207, -6242, -24967, 31207, -6242, -24967, 31207, -6242, -24967, 31207, -6242, -24967, 31207, -6242, -24967, 31207, -6242, -24967, 31207, -6242, -24967, 31207, -6242, -24967, 31207, -6242, -24967, 31207, -6242, -24967, 31207, -6242, -24967, 31207, -6242, -24967, 31207, -6242, -24967, 31207, -6242, -24967, 31207, -6242, -24967, 31207, -6242, -24967, 31207, -6242, -24967, 31207, -6242, -24967, 31207, -6242, -24967, 31207, -6242, -24967, 31207, -6242, -24967, 31207, -6242, -24967, 31207, -6242, -24967, 31207, -6242, -24967, 31207, -6242, -24967, 31207, -6242, -24967, 31207, -6242, -24967, 31207, -6242, -24967, 31207, -6242, -24967, 31207, -6242, -24967, 31207, -6242, -24967, 31207, -6242, -24967, 31207, -6242, -24967, 31207, -6242, -24967, 31207, -6242, -24967, 31207, -6242, -24967, 31207, -6242, -24967, 31207, -6242, -24967, 31207, -6242, -24967, 31207, -6242, -24967, 31207, -6242, -24967, 31207, -6242, -24967, 31207, -6242, -24967, 31207, -6242, -24967, 31207, -6242, -24967, 31207, -6242, -24967, 31207, -6242, -24967, 31207, -6242, -24967, 31207, -6242, -24967, 31207, -6242, -24967, 31207, -6242, -24967, 31207, -6242, -24967, 31207, -6242, -24967, 31207, -6242, -24967, 31207, -6242, -24967, 31207, -6242, -24967, 31207, -6242, -24967, 31207, -6242, -24967, 31207, -6242, -24967, 31207, -6242, -24967, 31207, -6242, -24967, 31207, -6242, -24967, 31207, -6242, -24967, 31207, -6242, -24967, 31207, -6242, -24967, 31207, -6242, -24967, 31207, -6242, -24967, 31207, -6242, -24967, 31207, -6242, -24967, 31207, -6242, -24967, 31207, -6242, -24967, 31207, -6242, -24967, 31207, -6242, -24967, 31207, -6242, -24967, 31207, -6242, -24967, 31207, -6242, -24967, 31207, -6242, -24967, 31207, -6242, -24967, 31207, -6242, -24967, 31207, -6242, -24967, 31207, -6242, -24967, 31207, -6242, -24967, 31207, -6242, -24967, 31207, -6242, -24967, 31207, -6242, -24967, 31207, -6242, -24967, 31207, -6242, -24967, 31207, -6242, -24967, 31207, -6242, -24967, 31207, -6242, -24967, 31207, -6242, -24967, 31207, -6242, -24967, 31207, -6242, -24967, 31207, -6242, -24967, 31207, -6242, -24967, 31207, -6242, -24967, 31207, -6242, -24967, 31207, -6242, -24967, 31207, -6242, -24967, 31207, -6242, -24967, 31207, -6242, -24967, 31207, -6242, -24967, 31207, -6242, -24967, 31207, -6242, -24967, 31207, -6242, -24967, 31207, -6242, -24967, 31207, -6242, -24967, 31207, -6242, -24967, 31207, -6242, -24967, 31207, -6242, -24967, 31207, -6242, -24967, 31207, -6242, -24967, 31207, -6242, -24967, 31207, -6242, -24967, 31207, -6242, -24967, 31207, -6242, -24967, 31207, -6242, -24967, 31207, -6242, -24967, 31207, -6242, -24967, 31207, -6242, -24967, 31207, -6242, -24967, 31207, -6242, -24967, 31207, -6242, -24967, 31207, -6242, -24967, 31207, -6242, -24967, 31207, -6242, -24967, 31207, -6242, -24967, 31207, -6242, -24967, 31207, -6242, -24967, 31207, -6242, -24967, 31207, -6242, -24967, 31207, -6242, -24967, 31207, -6242, -24967, 31207, -6242, -24967, 31207, -6242, -24967, 31207, -6242, -24967, 31207, -6242, -24967, 31207, -6242, -24967, 31207, -6242, -24967, 31207, -6242, -24967, 31207, -6242, -24967, 31207, -6242, -24967, 31207, -6242, -24967, 31207, -6242, -24967, 31207, -6242, -24967, 31207, -6242, -24967, 31207, -6242, -24967, 31207, -6242, -24967, 31207, -6242, -24967, 31207, -6242, -24967, 31207, -6242, -24967, 31207, -6242, -24967, 31207, -6242, -24967, 31207, -6242, -24967, 31207, -6242, -24967, 31207, -6242, -24967, 31207, -6242, -24967, 31207, -6242, -24967, 31207, -6242, -24967, 31207, -6242, -24967, 31207, -6242, -24967, 31207, -6242, -24967, 31207, -6242, -24967, 31207, -6242, -24967, 31207, -6242, -24967, 31207, -6242, -24967, 31207, -6242, -24967, 31207, -6242, -24967, 31207, -6242, -24967, 31207, -6242, -24967, 31207, -6242, -24967, 31207, -6242, -24967, 31207, -6242, -24967, 31207, -6242, -24967, 31207, -6242, -24967, 31207, -6242, -24967, 31207, -6242, -24967, 31207, -6242, -24967, 31207, -6242, -24967, 31207, -6242, -24967, 31207, -6242, -24967, 31207, -6242, -24967, 31207, -6242, -24967, 31207, -6242, -24967, 31207, -6242, -24967, 31207, -6242, -24967, 31207, -6242, -24967, 31207, -6242, -24967, 31207, -6242, -24967, 31207, -6242, -24967, 31207, -6242, -24967, 31207, -6242, -24967, 31207, -6242, -24967, 31207, -6242, -24967, 31207, -6242, -24967, 31207, -6242, -24967, 31207, -6242, -24967};
wght_reshp weights_fc[336] = {31207, -6242, -24967, 31207, -6242, -24967, 31207, -6242, -24967, 31207, -6242, -24967, 31207, -6242, -24967, 31207, -6242, -24967, 31207, -6242, -24967, -24967, 31207, -6242, -24967, 31207, -6242, -24967, 31207, -6242, -24967, 31207, -6242, -24967, 31207, -6242, -24967, 31207, -6242, -24967, 31207, -6242, -6242, -24967, 31207, -6242, -24967, 31207, -6242, -24967, 31207, -6242, -24967, 31207, -6242, -24967, 31207, -6242, -24967, 31207, -6242, -24967, 31207, 31207, -6242, -24967, 31207, -6242, -24967, 31207, -6242, -24967, 31207, -6242, -24967, 31207, -6242, -24967, 31207, -6242, -24967, 31207, -6242, -24967, -24967, 31207, -6242, -24967, 31207, -6242, -24967, 31207, -6242, -24967, 31207, -6242, -24967, 31207, -6242, -24967, 31207, -6242, -24967, 31207, -6242, -6242, -24967, 31207, -6242, -24967, 31207, -6242, -24967, 31207, -6242, -24967, 31207, -6242, -24967, 31207, -6242, -24967, 31207, -6242, -24967, 31207, 31207, -6242, -24967, 31207, -6242, -24967, 31207, -6242, -24967, 31207, -6242, -24967, 31207, -6242, -24967, 31207, -6242, -24967, 31207, -6242, -24967, -24967, 31207, -6242, -24967, 31207, -6242, -24967, 31207, -6242, -24967, 31207, -6242, -24967, 31207, -6242, -24967, 31207, -6242, -24967, 31207, -6242, -6242, -24967, 31207, -6242, -24967, 31207, -6242, -24967, 31207, -6242, -24967, 31207, -6242, -24967, 31207, -6242, -24967, 31207, -6242, -24967, 31207, 31207, -6242, -24967, 31207, -6242, -24967, 31207, -6242, -24967, 31207, -6242, -24967, 31207, -6242, -24967, 31207, -6242, -24967, 31207, -6242, -24967, -24967, 31207, -6242, -24967, 31207, -6242, -24967, 31207, -6242, -24967, 31207, -6242, -24967, 31207, -6242, -24967, 31207, -6242, -24967, 31207, -6242, -6242, -24967, 31207, -6242, -24967, 31207, -6242, -24967, 31207, -6242, -24967, 31207, -6242, -24967, 31207, -6242, -24967, 31207, -6242, -24967, 31207, 31207, -6242, -24967, 31207, -6242, -24967, 31207, -6242, -24967, 31207, -6242, -24967, 31207, -6242, -24967, 31207, -6242, -24967, 31207, -6242, -24967, -24967, 31207, -6242, -24967, 31207, -6242, -24967, 31207, -6242, -24967, 31207, -6242, -24967, 31207, -6242, -24967, 31207, -6242, -24967, 31207, -6242, -6242, -24967, 31207, -6242, -24967, 31207, -6242, -24967, 31207, -6242, -24967, 31207, -6242, -24967, 31207, -6242, -24967, 31207, -6242, -24967, 31207, 31207, -6242, -24967, 31207, -6242, -24967, 31207, -6242, -24967, 31207, -6242, -24967, 31207, -6242, -24967, 31207, -6242, -24967, 31207, -6242, -24967};
quant_bias bias_fc[NCLASSES] = {-8,-7,-6,-5,-4,-3,-2,-1,0,1,2,3,4,5,6,7};
