#include "simple_conv.h"

quant_resh weights_l1[384] = {-12817, 15582, 17357, 21564, 1347, 4180, 8453, 25104, -12817, 15582, 17357, 21564, 1347, 4180, 8453, 25104, 15582, 17357, 21564, 1347, 4180, 8453, 25104, 30241, 17357, 21564, 1347, 4180, 8453, 25104, 30241, -18590, 17357, 21564, 1347, 4180, 8453, 25104, 30241, -18590, 21564, 1347, 4180, 8453, 25104, 30241, -18590, -21642, 1347, 4180, 8453, 25104, 30241, -18590, -21642, -25929, 1347, 4180, 8453, 25104, 30241, -18590, -21642, -25929, 4180, 8453, 25104, 30241, -18590, -21642, -25929, -30293, 8453, 25104, 30241, -18590, -21642, -25929, -30293, -1894, 8453, 25104, 30241, -18590, -21642, -25929, -30293, -1894, 25104, 30241, -18590, -21642, -25929, -30293, -1894, -4215, 30241, -18590, -21642, -25929, -30293, -1894, -4215, -8456, 30241, -18590, -21642, -25929, -30293, -1894, -4215, -8456, -18590, -21642, -25929, -30293, -1894, -4215, -8456, -12817, -21642, -25929, -30293, -1894, -4215, -8456, -12817, 15582, -21642, -25929, -30293, -1894, -4215, -8456, -12817, 15582, -25929, -30293, -1894, -4215, -8456, -12817, 15582, 17357, -30293, -1894, -4215, -8456, -12817, 15582, 17357, 21564, -30293, -1894, -4215, -8456, -12817, 15582, 17357, 21564, -1894, -4215, -8456, -12817, 15582, 17357, 21564, 1347, -4215, -8456, -12817, 15582, 17357, 21564, 1347, 4180, -4215, -8456, -12817, 15582, 17357, 21564, 1347, 4180, -8456, -12817, 15582, 17357, 21564, 1347, 4180, 8453, -12817, 15582, 17357, 21564, 1347, 4180, 8453, 25104, -12817, 15582, 17357, 21564, 1347, 4180, 8453, 25104, 15582, 17357, 21564, 1347, 4180, 8453, 25104, 30241, 17357, 21564, 1347, 4180, 8453, 25104, 30241, -18590, 17357, 21564, 1347, 4180, 8453, 25104, 30241, -18590, 21564, 1347, 4180, 8453, 25104, 30241, -18590, -21642, 1347, 4180, 8453, 25104, 30241, -18590, -21642, -25929, 1347, 4180, 8453, 25104, 30241, -18590, -21642, -25929, 4180, 8453, 25104, 30241, -18590, -21642, -25929, -30293, 8453, 25104, 30241, -18590, -21642, -25929, -30293, -1894, 8453, 25104, 30241, -18590, -21642, -25929, -30293, -1894, 25104, 30241, -18590, -21642, -25929, -30293, -1894, -4215, 30241, -18590, -21642, -25929, -30293, -1894, -4215, -8456, 30241, -18590, -21642, -25929, -30293, -1894, -4215, -8456, -18590, -21642, -25929, -30293, -1894, -4215, -8456, -12817, -21642, -25929, -30293, -1894, -4215, -8456, -12817, 15582, -21642, -25929, -30293, -1894, -4215, -8456, -12817, 15582, -25929, -30293, -1894, -4215, -8456, -12817, 15582, 17357, -30293, -1894, -4215, -8456, -12817, 15582, 17357, 21564, -30293, -1894, -4215, -8456, -12817, 15582, 17357, 21564, -1894, -4215, -8456, -12817, 15582, 17357, 21564, 1347, -4215, -8456, -12817, 15582, 17357, 21564, 1347, 4180, -4215, -8456, -12817, 15582, 17357, 21564, 1347, 4180, -8456, -12817, 15582, 17357, 21564, 1347, 4180, 8453};
quant_resh weights_l2[2304] = {2644, 4261, 4261, 8458, 8458, 12816, 12816, -27871, -27871, -30414, -30414, 26771, 26771, 30345, 30345, -2200, -2200, -4234, -4234, -8457, -8457, -12817, -12817, -17186, 4261, 8458, 8458, 12816, 12816, -27871, -27871, -30414, -30414, 26771, 26771, 30345, 30345, -2200, -2200, -4234, -4234, -8457, -8457, -12817, -12817, -17186, -17186, 19405, 4261, 8458, 8458, 12816, 12816, -27871, -27871, -30414, -30414, 26771, 26771, 30345, 30345, -2200, -2200, -4234, -4234, -8457, -8457, -12817, -12817, -17186, -17186, 19405, 8458, 12816, 12816, -27871, -27871, -30414, -30414, 26771, 26771, 30345, 30345, -2200, -2200, -4234, -4234, -8457, -8457, -12817, -12817, -17186, -17186, 19405, 19405, 21692, 8458, 12816, 12816, -27871, -27871, -30414, -30414, 26771, 26771, 30345, 30345, -2200, -2200, -4234, -4234, -8457, -8457, -12817, -12817, -17186, -17186, 19405, 19405, 21692, 12816, -27871, -27871, -30414, -30414, 26771, 26771, 30345, 30345, -2200, -2200, -4234, -4234, -8457, -8457, -12817, -12817, -17186, -17186, 19405, 19405, 21692, 21692, -23221, 12816, -27871, -27871, -30414, -30414, 26771, 26771, 30345, 30345, -2200, -2200, -4234, -4234, -8457, -8457, -12817, -12817, -17186, -17186, 19405, 19405, 21692, 21692, -23221, -27871, -30414, -30414, 26771, 26771, 30345, 30345, -2200, -2200, -4234, -4234, -8457, -8457, -12817, -12817, -17186, -17186, 19405, 19405, 21692, 21692, -23221, -23221, 2644, -27871, -30414, -30414, 26771, 26771, 30345, 30345, -2200, -2200, -4234, -4234, -8457, -8457, -12817, -12817, -17186, -17186, 19405, 19405, 21692, 21692, -23221, -23221, 2644, -30414, 26771, 26771, 30345, 30345, -2200, -2200, -4234, -4234, -8457, -8457, -12817, -12817, -17186, -17186, 19405, 19405, 21692, 21692, -23221, -23221, 2644, 2644, 4261, -30414, 26771, 26771, 30345, 30345, -2200, -2200, -4234, -4234, -8457, -8457, -12817, -12817, -17186, -17186, 19405, 19405, 21692, 21692, -23221, -23221, 2644, 2644, 4261, 26771, 30345, 30345, -2200, -2200, -4234, -4234, -8457, -8457, -12817, -12817, -17186, -17186, 19405, 19405, 21692, 21692, -23221, -23221, 2644, 2644, 4261, 4261, 8458, 26771, 30345, 30345, -2200, -2200, -4234, -4234, -8457, -8457, -12817, -12817, -17186, -17186, 19405, 19405, 21692, 21692, -23221, -23221, 2644, 2644, 4261, 4261, 8458, 30345, -2200, -2200, -4234, -4234, -8457, -8457, -12817, -12817, -17186, -17186, 19405, 19405, 21692, 21692, -23221, -23221, 2644, 2644, 4261, 4261, 8458, 8458, 12816, 30345, -2200, -2200, -4234, -4234, -8457, -8457, -12817, -12817, -17186, -17186, 19405, 19405, 21692, 21692, -23221, -23221, 2644, 2644, 4261, 4261, 8458, 8458, 12816, -2200, -4234, -4234, -8457, -8457, -12817, -12817, -17186, -17186, 19405, 19405, 21692, 21692, -23221, -23221, 2644, 2644, 4261, 4261, 8458, 8458, 12816, 12816, -27871, -2200, -4234, -4234, -8457, -8457, -12817, -12817, -17186, -17186, 19405, 19405, 21692, 21692, -23221, -23221, 2644, 2644, 4261, 4261, 8458, 8458, 12816, 12816, -27871, -4234, -8457, -8457, -12817, -12817, -17186, -17186, 19405, 19405, 21692, 21692, -23221, -23221, 2644, 2644, 4261, 4261, 8458, 8458, 12816, 12816, -27871, -27871, -30414, -4234, -8457, -8457, -12817, -12817, -17186, -17186, 19405, 19405, 21692, 21692, -23221, -23221, 2644, 2644, 4261, 4261, 8458, 8458, 12816, 12816, -27871, -27871, -30414, -8457, -12817, -12817, -17186, -17186, 19405, 19405, 21692, 21692, -23221, -23221, 2644, 2644, 4261, 4261, 8458, 8458, 12816, 12816, -27871, -27871, -30414, -30414, 26771, -8457, -12817, -12817, -17186, -17186, 19405, 19405, 21692, 21692, -23221, -23221, 2644, 2644, 4261, 4261, 8458, 8458, 12816, 12816, -27871, -27871, -30414, -30414, 26771, -12817, -17186, -17186, 19405, 19405, 21692, 21692, -23221, -23221, 2644, 2644, 4261, 4261, 8458, 8458, 12816, 12816, -27871, -27871, -30414, -30414, 26771, 26771, 30345, -12817, -17186, -17186, 19405, 19405, 21692, 21692, -23221, -23221, 2644, 2644, 4261, 4261, 8458, 8458, 12816, 12816, -27871, -27871, -30414, -30414, 26771, 26771, 30345, -17186, 19405, 19405, 21692, 21692, -23221, -23221, 2644, 2644, 4261, 4261, 8458, 8458, 12816, 12816, -27871, -27871, -30414, -30414, 26771, 26771, 30345, 30345, -2200, -17186, 19405, 19405, 21692, 21692, -23221, -23221, 2644, 2644, 4261, 4261, 8458, 8458, 12816, 12816, -27871, -27871, -30414, -30414, 26771, 26771, 30345, 30345, -2200, 19405, 21692, 21692, -23221, -23221, 2644, 2644, 4261, 4261, 8458, 8458, 12816, 12816, -27871, -27871, -30414, -30414, 26771, 26771, 30345, 30345, -2200, -2200, -4234, 19405, 21692, 21692, -23221, -23221, 2644, 2644, 4261, 4261, 8458, 8458, 12816, 12816, -27871, -27871, -30414, -30414, 26771, 26771, 30345, 30345, -2200, -2200, -4234, 21692, -23221, -23221, 2644, 2644, 4261, 4261, 8458, 8458, 12816, 12816, -27871, -27871, -30414, -30414, 26771, 26771, 30345, 30345, -2200, -2200, -4234, -4234, -8457, 21692, -23221, -23221, 2644, 2644, 4261, 4261, 8458, 8458, 12816, 12816, -27871, -27871, -30414, -30414, 26771, 26771, 30345, 30345, -2200, -2200, -4234, -4234, -8457, -23221, 2644, 2644, 4261, 4261, 8458, 8458, 12816, 12816, -27871, -27871, -30414, -30414, 26771, 26771, 30345, 30345, -2200, -2200, -4234, -4234, -8457, -8457, -12817, -23221, 2644, 2644, 4261, 4261, 8458, 8458, 12816, 12816, -27871, -27871, -30414, -30414, 26771, 26771, 30345, 30345, -2200, -2200, -4234, -4234, -8457, -8457, -12817, 2644, 4261, 4261, 8458, 8458, 12816, 12816, -27871, -27871, -30414, -30414, 26771, 26771, 30345, 30345, -2200, -2200, -4234, -4234, -8457, -8457, -12817, -12817, -17186, 2644, 4261, 4261, 8458, 8458, 12816, 12816, -27871, -27871, -30414, -30414, 26771, 26771, 30345, 30345, -2200, -2200, -4234, -4234, -8457, -8457, -12817, -12817, -17186, 4261, 8458, 8458, 12816, 12816, -27871, -27871, -30414, -30414, 26771, 26771, 30345, 30345, -2200, -2200, -4234, -4234, -8457, -8457, -12817, -12817, -17186, -17186, 19405, 4261, 8458, 8458, 12816, 12816, -27871, -27871, -30414, -30414, 26771, 26771, 30345, 30345, -2200, -2200, -4234, -4234, -8457, -8457, -12817, -12817, -17186, -17186, 19405, 8458, 12816, 12816, -27871, -27871, -30414, -30414, 26771, 26771, 30345, 30345, -2200, -2200, -4234, -4234, -8457, -8457, -12817, -12817, -17186, -17186, 19405, 19405, 21692, 8458, 12816, 12816, -27871, -27871, -30414, -30414, 26771, 26771, 30345, 30345, -2200, -2200, -4234, -4234, -8457, -8457, -12817, -12817, -17186, -17186, 19405, 19405, 21692, 12816, -27871, -27871, -30414, -30414, 26771, 26771, 30345, 30345, -2200, -2200, -4234, -4234, -8457, -8457, -12817, -12817, -17186, -17186, 19405, 19405, 21692, 21692, -23221, 12816, -27871, -27871, -30414, -30414, 26771, 26771, 30345, 30345, -2200, -2200, -4234, -4234, -8457, -8457, -12817, -12817, -17186, -17186, 19405, 19405, 21692, 21692, -23221, -27871, -30414, -30414, 26771, 26771, 30345, 30345, -2200, -2200, -4234, -4234, -8457, -8457, -12817, -12817, -17186, -17186, 19405, 19405, 21692, 21692, -23221, -23221, 2644, -27871, -30414, -30414, 26771, 26771, 30345, 30345, -2200, -2200, -4234, -4234, -8457, -8457, -12817, -12817, -17186, -17186, 19405, 19405, 21692, 21692, -23221, -23221, 2644, -30414, 26771, 26771, 30345, 30345, -2200, -2200, -4234, -4234, -8457, -8457, -12817, -12817, -17186, -17186, 19405, 19405, 21692, 21692, -23221, -23221, 2644, 2644, 4261, -30414, 26771, 26771, 30345, 30345, -2200, -2200, -4234, -4234, -8457, -8457, -12817, -12817, -17186, -17186, 19405, 19405, 21692, 21692, -23221, -23221, 2644, 2644, 4261, 26771, 30345, 30345, -2200, -2200, -4234, -4234, -8457, -8457, -12817, -12817, -17186, -17186, 19405, 19405, 21692, 21692, -23221, -23221, 2644, 2644, 4261, 4261, 8458, 26771, 30345, 30345, -2200, -2200, -4234, -4234, -8457, -8457, -12817, -12817, -17186, -17186, 19405, 19405, 21692, 21692, -23221, -23221, 2644, 2644, 4261, 4261, 8458, 30345, -2200, -2200, -4234, -4234, -8457, -8457, -12817, -12817, -17186, -17186, 19405, 19405, 21692, 21692, -23221, -23221, 2644, 2644, 4261, 4261, 8458, 8458, 12816, 30345, -2200, -2200, -4234, -4234, -8457, -8457, -12817, -12817, -17186, -17186, 19405, 19405, 21692, 21692, -23221, -23221, 2644, 2644, 4261, 4261, 8458, 8458, 12816, -2200, -4234, -4234, -8457, -8457, -12817, -12817, -17186, -17186, 19405, 19405, 21692, 21692, -23221, -23221, 2644, 2644, 4261, 4261, 8458, 8458, 12816, 12816, -27871, -2200, -4234, -4234, -8457, -8457, -12817, -12817, -17186, -17186, 19405, 19405, 21692, 21692, -23221, -23221, 2644, 2644, 4261, 4261, 8458, 8458, 12816, 12816, -27871, -4234, -8457, -8457, -12817, -12817, -17186, -17186, 19405, 19405, 21692, 21692, -23221, -23221, 2644, 2644, 4261, 4261, 8458, 8458, 12816, 12816, -27871, -27871, -30414, -4234, -8457, -8457, -12817, -12817, -17186, -17186, 19405, 19405, 21692, 21692, -23221, -23221, 2644, 2644, 4261, 4261, 8458, 8458, 12816, 12816, -27871, -27871, -30414, -8457, -12817, -12817, -17186, -17186, 19405, 19405, 21692, 21692, -23221, -23221, 2644, 2644, 4261, 4261, 8458, 8458, 12816, 12816, -27871, -27871, -30414, -30414, 26771, -8457, -12817, -12817, -17186, -17186, 19405, 19405, 21692, 21692, -23221, -23221, 2644, 2644, 4261, 4261, 8458, 8458, 12816, 12816, -27871, -27871, -30414, -30414, 26771, -12817, -17186, -17186, 19405, 19405, 21692, 21692, -23221, -23221, 2644, 2644, 4261, 4261, 8458, 8458, 12816, 12816, -27871, -27871, -30414, -30414, 26771, 26771, 30345, -12817, -17186, -17186, 19405, 19405, 21692, 21692, -23221, -23221, 2644, 2644, 4261, 4261, 8458, 8458, 12816, 12816, -27871, -27871, -30414, -30414, 26771, 26771, 30345, -17186, 19405, 19405, 21692, 21692, -23221, -23221, 2644, 2644, 4261, 4261, 8458, 8458, 12816, 12816, -27871, -27871, -30414, -30414, 26771, 26771, 30345, 30345, -2200, -17186, 19405, 19405, 21692, 21692, -23221, -23221, 2644, 2644, 4261, 4261, 8458, 8458, 12816, 12816, -27871, -27871, -30414, -30414, 26771, 26771, 30345, 30345, -2200, 19405, 21692, 21692, -23221, -23221, 2644, 2644, 4261, 4261, 8458, 8458, 12816, 12816, -27871, -27871, -30414, -30414, 26771, 26771, 30345, 30345, -2200, -2200, -4234, 19405, 21692, 21692, -23221, -23221, 2644, 2644, 4261, 4261, 8458, 8458, 12816, 12816, -27871, -27871, -30414, -30414, 26771, 26771, 30345, 30345, -2200, -2200, -4234, 21692, -23221, -23221, 2644, 2644, 4261, 4261, 8458, 8458, 12816, 12816, -27871, -27871, -30414, -30414, 26771, 26771, 30345, 30345, -2200, -2200, -4234, -4234, -8457, 21692, -23221, -23221, 2644, 2644, 4261, 4261, 8458, 8458, 12816, 12816, -27871, -27871, -30414, -30414, 26771, 26771, 30345, 30345, -2200, -2200, -4234, -4234, -8457, -23221, 2644, 2644, 4261, 4261, 8458, 8458, 12816, 12816, -27871, -27871, -30414, -30414, 26771, 26771, 30345, 30345, -2200, -2200, -4234, -4234, -8457, -8457, -12817, -23221, 2644, 2644, 4261, 4261, 8458, 8458, 12816, 12816, -27871, -27871, -30414, -30414, 26771, 26771, 30345, 30345, -2200, -2200, -4234, -4234, -8457, -8457, -12817, 2644, 4261, 4261, 8458, 8458, 12816, 12816, -27871, -27871, -30414, -30414, 26771, 26771, 30345, 30345, -2200, -2200, -4234, -4234, -8457, -8457, -12817, -12817, -17186, 2644, 4261, 4261, 8458, 8458, 12816, 12816, -27871, -27871, -30414, -30414, 26771, 26771, 30345, 30345, -2200, -2200, -4234, -4234, -8457, -8457, -12817, -12817, -17186, 4261, 8458, 8458, 12816, 12816, -27871, -27871, -30414, -30414, 26771, 26771, 30345, 30345, -2200, -2200, -4234, -4234, -8457, -8457, -12817, -12817, -17186, -17186, 19405, 4261, 8458, 8458, 12816, 12816, -27871, -27871, -30414, -30414, 26771, 26771, 30345, 30345, -2200, -2200, -4234, -4234, -8457, -8457, -12817, -12817, -17186, -17186, 19405, 8458, 12816, 12816, -27871, -27871, -30414, -30414, 26771, 26771, 30345, 30345, -2200, -2200, -4234, -4234, -8457, -8457, -12817, -12817, -17186, -17186, 19405, 19405, 21692, 8458, 12816, 12816, -27871, -27871, -30414, -30414, 26771, 26771, 30345, 30345, -2200, -2200, -4234, -4234, -8457, -8457, -12817, -12817, -17186, -17186, 19405, 19405, 21692, 12816, -27871, -27871, -30414, -30414, 26771, 26771, 30345, 30345, -2200, -2200, -4234, -4234, -8457, -8457, -12817, -12817, -17186, -17186, 19405, 19405, 21692, 21692, -23221, 12816, -27871, -27871, -30414, -30414, 26771, 26771, 30345, 30345, -2200, -2200, -4234, -4234, -8457, -8457, -12817, -12817, -17186, -17186, 19405, 19405, 21692, 21692, -23221, -27871, -30414, -30414, 26771, 26771, 30345, 30345, -2200, -2200, -4234, -4234, -8457, -8457, -12817, -12817, -17186, -17186, 19405, 19405, 21692, 21692, -23221, -23221, 2644, -27871, -30414, -30414, 26771, 26771, 30345, 30345, -2200, -2200, -4234, -4234, -8457, -8457, -12817, -12817, -17186, -17186, 19405, 19405, 21692, 21692, -23221, -23221, 2644, -30414, 26771, 26771, 30345, 30345, -2200, -2200, -4234, -4234, -8457, -8457, -12817, -12817, -17186, -17186, 19405, 19405, 21692, 21692, -23221, -23221, 2644, 2644, 4261, -30414, 26771, 26771, 30345, 30345, -2200, -2200, -4234, -4234, -8457, -8457, -12817, -12817, -17186, -17186, 19405, 19405, 21692, 21692, -23221, -23221, 2644, 2644, 4261, 26771, 30345, 30345, -2200, -2200, -4234, -4234, -8457, -8457, -12817, -12817, -17186, -17186, 19405, 19405, 21692, 21692, -23221, -23221, 2644, 2644, 4261, 4261, 8458, 26771, 30345, 30345, -2200, -2200, -4234, -4234, -8457, -8457, -12817, -12817, -17186, -17186, 19405, 19405, 21692, 21692, -23221, -23221, 2644, 2644, 4261, 4261, 8458, 30345, -2200, -2200, -4234, -4234, -8457, -8457, -12817, -12817, -17186, -17186, 19405, 19405, 21692, 21692, -23221, -23221, 2644, 2644, 4261, 4261, 8458, 8458, 12816, 30345, -2200, -2200, -4234, -4234, -8457, -8457, -12817, -12817, -17186, -17186, 19405, 19405, 21692, 21692, -23221, -23221, 2644, 2644, 4261, 4261, 8458, 8458, 12816, -2200, -4234, -4234, -8457, -8457, -12817, -12817, -17186, -17186, 19405, 19405, 21692, 21692, -23221, -23221, 2644, 2644, 4261, 4261, 8458, 8458, 12816, 12816, -27871, -2200, -4234, -4234, -8457, -8457, -12817, -12817, -17186, -17186, 19405, 19405, 21692, 21692, -23221, -23221, 2644, 2644, 4261, 4261, 8458, 8458, 12816, 12816, -27871, -4234, -8457, -8457, -12817, -12817, -17186, -17186, 19405, 19405, 21692, 21692, -23221, -23221, 2644, 2644, 4261, 4261, 8458, 8458, 12816, 12816, -27871, -27871, -30414, -4234, -8457, -8457, -12817, -12817, -17186, -17186, 19405, 19405, 21692, 21692, -23221, -23221, 2644, 2644, 4261, 4261, 8458, 8458, 12816, 12816, -27871, -27871, -30414, -8457, -12817, -12817, -17186, -17186, 19405, 19405, 21692, 21692, -23221, -23221, 2644, 2644, 4261, 4261, 8458, 8458, 12816, 12816, -27871, -27871, -30414, -30414, 26771, -8457, -12817, -12817, -17186, -17186, 19405, 19405, 21692, 21692, -23221, -23221, 2644, 2644, 4261, 4261, 8458, 8458, 12816, 12816, -27871, -27871, -30414, -30414, 26771, -12817, -17186, -17186, 19405, 19405, 21692, 21692, -23221, -23221, 2644, 2644, 4261, 4261, 8458, 8458, 12816, 12816, -27871, -27871, -30414, -30414, 26771, 26771, 30345, -12817, -17186, -17186, 19405, 19405, 21692, 21692, -23221, -23221, 2644, 2644, 4261, 4261, 8458, 8458, 12816, 12816, -27871, -27871, -30414, -30414, 26771, 26771, 30345, -17186, 19405, 19405, 21692, 21692, -23221, -23221, 2644, 2644, 4261, 4261, 8458, 8458, 12816, 12816, -27871, -27871, -30414, -30414, 26771, 26771, 30345, 30345, -2200, -17186, 19405, 19405, 21692, 21692, -23221, -23221, 2644, 2644, 4261, 4261, 8458, 8458, 12816, 12816, -27871, -27871, -30414, -30414, 26771, 26771, 30345, 30345, -2200, 19405, 21692, 21692, -23221, -23221, 2644, 2644, 4261, 4261, 8458, 8458, 12816, 12816, -27871, -27871, -30414, -30414, 26771, 26771, 30345, 30345, -2200, -2200, -4234, 19405, 21692, 21692, -23221, -23221, 2644, 2644, 4261, 4261, 8458, 8458, 12816, 12816, -27871, -27871, -30414, -30414, 26771, 26771, 30345, 30345, -2200, -2200, -4234, 21692, -23221, -23221, 2644, 2644, 4261, 4261, 8458, 8458, 12816, 12816, -27871, -27871, -30414, -30414, 26771, 26771, 30345, 30345, -2200, -2200, -4234, -4234, -8457, 21692, -23221, -23221, 2644, 2644, 4261, 4261, 8458, 8458, 12816, 12816, -27871, -27871, -30414, -30414, 26771, 26771, 30345, 30345, -2200, -2200, -4234, -4234, -8457, -23221, 2644, 2644, 4261, 4261, 8458, 8458, 12816, 12816, -27871, -27871, -30414, -30414, 26771, 26771, 30345, 30345, -2200, -2200, -4234, -4234, -8457, -8457, -12817, -23221, 2644, 2644, 4261, 4261, 8458, 8458, 12816, 12816, -27871, -27871, -30414, -30414, 26771, 26771, 30345, 30345, -2200, -2200, -4234, -4234, -8457, -8457, -12817, 2644, 4261, 4261, 8458, 8458, 12816, 12816, -27871, -27871, -30414, -30414, 26771, 26771, 30345, 30345, -2200, -2200, -4234, -4234, -8457, -8457, -12817, -12817, -17186};
quant_resh weights_l3[2064] = {30345, -2200, 20342, 21751, -10929, -12972, -17195, -21555, 2748, 4267, 8458, 12816, 30345, -2200, 20342, 21751, -10929, -12972, -17195, -21555, 2748, 4267, 8458, 12816, 30345, -2200, 20342, 21751, -10929, -12972, -17195, -21555, 2748, 4267, 8458, 12816, 30345, -2200, 20342, 21751, -10929, -12972, -17195, -21555, 2748, 4267, 8458, 12816, -12972, -17195, -21555, 2748, 4267, 8458, 12816, -7391, -25038, -30237, 26782, 30345, -12972, -17195, -21555, 2748, 4267, 8458, 12816, -7391, -25038, -30237, 26782, 30345, -12972, -17195, -21555, 2748, 4267, 8458, 12816, -7391, -25038, -30237, 26782, 30345, -12972, -17195, -21555, 2748, 4267, 24842, 30224, -2207, 20342, 21751, -10929, -12972, 8458, 12816, -7391, -25038, -30237, 26782, 30345, -2200, 20342, 21751, -10929, -12972, 8458, 12816, -7391, -25038, -30237, 26782, 30345, -2200, 20342, 21751, -10929, -12972, 8458, 12816, -7391, -25038, -30237, 26782, 30345, -2200, 20342, 21751, -10929, -12972, 26782, 30345, -2200, 20342, 21751, -10929, -12972, -17195, -21555, 2748, 4267, 8458, 26782, 30345, -2200, 20342, 21751, -10929, -12972, -17195, -21555, 2748, 4267, 8458, 26782, 30345, -2200, 20342, 21751, -10929, -12972, -17195, -21555, 2748, 4267, 8458, 26782, 30345, -2200, 20342, 21751, -10929, -12972, -17195, -21555, 2748, 4267, 8458, -10929, -12972, -17195, -21555, 2748, 4267, 8458, 12816, -7391, -25038, -30237, 26782, -10929, -12972, -17195, -21555, 2748, 4267, 8458, 12816, -7391, -25038, -30237, 26782, -10929, -12972, -17195, -21555, 2748, 4267, 8458, 12816, -7391, -25038, -30237, 26782, 4267, 8458, 12816, -7391, -25038, -30237, 26782, 30345, -2200, 20342, 21751, -10929, 4267, 8458, 12816, -7391, -25038, -30237, 26782, 30345, -2200, 20342, 21751, -10929, 4267, 8458, 12816, -7391, -25038, -30237, 26782, 30345, -2200, 20342, 21751, -10929, 4267, 8458, 12816, -7391, -25038, -30237, 26782, 30345, -2200, 20342, 21751, -10929, -30237, 26782, 30345, -2200, 20342, 21751, -10929, -12972, -17195, -21555, 2748, 4267, -30237, 26782, 30345, -2200, 20342, 21751, -10929, -12972, -17195, -21555, 2748, 4267, -30237, 26782, 30345, -2200, 20342, 21751, -10929, -12972, -17195, -21555, 2748, 4267, -30237, -10082, -12919, -17192, -21555, 2748, 4267, 8458, 12816, -7391, -25038, -30237, 21751, -10929, -12972, -17195, -21555, 2748, 4267, 8458, 12816, -7391, -25038, -30237, 21751, -10929, -12972, -17195, -21555, 2748, 4267, 8458, 12816, -7391, -25038, -30237, 21751, -10929, -12972, -17195, -21555, 2748, 4267, 8458, 12816, -7391, -25038, -30237, 2748, 4267, 8458, 12816, -7391, -25038, -30237, 26782, 30345, -2200, 20342, 21751, 2748, 4267, 8458, 12816, -7391, -25038, -30237, 26782, 30345, -2200, 20342, 21751, 2748, 4267, 8458, 12816, -7391, -25038, -30237, 26782, 30345, -2200, 20342, 21751, 2748, 4267, 8458, 12816, -7391, -25038, -30237, 26782, 30345, -18584, -21642, 2743, -25038, -30237, 26782, 30345, -2200, 20342, 21751, -10929, -12972, -17195, -21555, 2748, -25038, -30237, 26782, 30345, -2200, 20342, 21751, -10929, -12972, -17195, -21555, 2748, -25038, -30237, 26782, 30345, -2200, 20342, 21751, -10929, -12972, -17195, -21555, 2748, 20342, 21751, -10929, -12972, -17195, -21555, 2748, 4267, 8458, 12816, -7391, -25038, 20342, 21751, -10929, -12972, -17195, -21555, 2748, 4267, 8458, 12816, -7391, -25038, 20342, 21751, -10929, -12972, -17195, -21555, 2748, 4267, 8458, 12816, -7391, -25038, 20342, 21751, -10929, -12972, -17195, -21555, 2748, 4267, 8458, 12816, -7391, -25038, -21555, 2748, 4267, 8458, 12816, -7391, -25038, -30237, 26782, 30345, -2200, 20342, -21555, 2748, 4267, 8458, 12816, -7391, -25038, -30237, 26782, 30345, -2200, 20342, -21555, 2748, 4267, 8458, 12816, -7391, -25038, -30237, 26782, 30345, -2200, 20342, -7391, -25038, -30237, 26782, 30345, -2200, 20342, 21751, -10929, -12972, -17195, -21555, -7391, -25038, -30237, 26782, 30345, -2200, 20342, 21751, -10929, -12972, -17195, -21555, -7391, -25038, -30237, 26782, 30345, -2200, 20342, 21751, -10929, -12972, -17195, -21555, -7391, -25038, -30237, 26782, 30345, -2200, 20342, 21751, -10929, -12972, -17195, -21555, -2200, 20342, 21751, -10929, -12972, -17195, -21555, 2748, 4267, 8458, 12816, -7391, -2200, 20342, 21751, -10929, -12972, -17195, -21555, 2748, 4267, 8458, 12816, -7391, -2200, 20342, 21751, -10929, -12972, -17195, -21555, 2748, 4267, 8458, 12816, -7391, -2200, 20342, 21751, -10929, -12972, 15573, -7219, -25028, -30237, 26782, 30345, -2200, -17195, -21555, 2748, 4267, 8458, 12816, -7391, -25038, -30237, 26782, 30345, -2200, -17195, -21555, 2748, 4267, 8458, 12816, -7391, -25038, -30237, 26782, 30345, -2200, -17195, -21555, 2748, 4267, 8458, 12816, -7391, -25038, -30237, 26782, 30345, -2200, 12816, -7391, -25038, -30237, 26782, 30345, -2200, 20342, 21751, -10929, -12972, -17195, 12816, -7391, -25038, -30237, 26782, 30345, -2200, 20342, 21751, -10929, -12972, -17195, 12816, -7391, -25038, -30237, 26782, 30345, -2200, 20342, 21751, -10929, -12972, -17195, 12816, -7391, -25038, -30237, 26782, 30345, -2200, 20342, 21751, -10929, -12972, -17195, 30345, -2200, 20342, 21751, -10929, -12972, -17195, -21555, 2748, 4267, 8458, 12816, 30345, -2200, 20342, 21751, -10929, -12972, -17195, -21555, 2748, 4267, 8458, 12816, 30345, -2200, 20342, 21751, -10929, -12972, -17195, -21555, 2748, 4267, 8458, 12816, -12972, -17195, -21555, 2748, 4267, 8458, 12816, -7391, -25038, -30237, 26782, 30345, -12972, -17195, -21555, 2748, 4267, 8458, 12816, -7391, -25038, -30237, 26782, 30345, -12972, -17195, -21555, 2748, 4267, 8458, 12816, -7391, -25038, -30237, 26782, 30345, -12972, -17195, -21555, 2748, 4267, 8458, 12816, -7391, -25038, -30237, 26782, 30345, 8458, 12816, -7391, -25038, -30237, 26782, 30345, -2200, 20342, 21751, -10929, -12972, 8458, 12816, -7391, -25038, -30237, 26782, 30345, -2200, 20342, 21751, -10929, -12972, 8458, 12816, -7391, -25038, -30237, 26782, 30345, -2200, 20342, 21751, -10929, -12972, 8458, 29200, -2271, 20338, 21751, -10929, -12972, -17195, -21555, 2748, 4267, 8458, 26782, 30345, -2200, 20342, 21751, -10929, -12972, -17195, -21555, 2748, 4267, 8458, 26782, 30345, -2200, 20342, 21751, -10929, -12972, -17195, -21555, 2748, 4267, 8458, 26782, 30345, -2200, 20342, 21751, -10929, -12972, -17195, -21555, 2748, 4267, 8458, -10929, -12972, -17195, -21555, 2748, 4267, 8458, 12816, -7391, -25038, -30237, 26782, -10929, -12972, -17195, -21555, 2748, 4267, 8458, 12816, -7391, -25038, -30237, 26782, -10929, -12972, -17195, -21555, 2748, 4267, 8458, 12816, -7391, -25038, -30237, 26782, -10929, -12972, -17195, -21555, 2748, 4267, 8458, 12816, -7391, 20018, 21731, -10930, 4267, 8458, 12816, -7391, -25038, -30237, 26782, 30345, -2200, 20342, 21751, -10929, 4267, 8458, 12816, -7391, -25038, -30237, 26782, 30345, -2200, 20342, 21751, -10929, 4267, 8458, 12816, -7391, -25038, -30237, 26782, 30345, -2200, 20342, 21751, -10929, -30237, 26782, 30345, -2200, 20342, 21751, -10929, -12972, -17195, -21555, 2748, 4267, -30237, 26782, 30345, -2200, 20342, 21751, -10929, -12972, -17195, -21555, 2748, 4267, -30237, 26782, 30345, -2200, 20342, 21751, -10929, -12972, -17195, -21555, 2748, 4267, -30237, 26782, 30345, -2200, 20342, 21751, -10929, -12972, -17195, -21555, 2748, 4267, 21751, -10929, -12972, -17195, -21555, 2748, 4267, 8458, 12816, -7391, -25038, -30237, 21751, -10929, -12972, -17195, -21555, 2748, 4267, 8458, 12816, -7391, -25038, -30237, 21751, -10929, -12972, -17195, -21555, 2748, 4267, 8458, 12816, -7391, -25038, -30237, 2748, 4267, 8458, 12816, -7391, -25038, -30237, 26782, 30345, -2200, 20342, 21751, 2748, 4267, 8458, 12816, -7391, -25038, -30237, 26782, 30345, -2200, 20342, 21751, 2748, 4267, 8458, 12816, -7391, -25038, -30237, 26782, 30345, -2200, 20342, 21751, 2748, 4267, 8458, 12816, -7391, -25038, -30237, 26782, 30345, -2200, 20342, 21751, -25038, -30237, 26782, 30345, -2200, 20342, 21751, -10929, -12972, -17195, -21555, 2748, -25038, -30237, 26782, 30345, -2200, 20342, 21751, -10929, -12972, -17195, -21555, 2748, -25038, -30237, 26782, 30345, -2200, 20342, 21751, -10929, -12972, -17195, -21555, 2748, -25038, -30237, 26782, 30345, -2200, -20618, 2807, 4271, 8458, 12816, -7391, -25038, 20342, 21751, -10929, -12972, -17195, -21555, 2748, 4267, 8458, 12816, -7391, -25038, 20342, 21751, -10929, -12972, -17195, -21555, 2748, 4267, 8458, 12816, -7391, -25038, 20342, 21751, -10929, -12972, -17195, -21555, 2748, 4267, 8458, 12816, -7391, -25038, -21555, 2748, 4267, 8458, 12816, -7391, -25038, -30237, 26782, 30345, -2200, 20342, -21555, 2748, 4267, 8458, 12816, -7391, -25038, -30237, 26782, 30345, -2200, 20342, -21555, 2748, 4267, 8458, 12816, -7391, -25038, -30237, 26782, 30345, -2200, 20342, -21555, 2748, 4267, 8458, 12816, -7391, -25038, -30237, 26782, 30345, -2200, 20342, -7391, -25038, -30237, 26782, 30345, -2200, 20342, 21751, -10929, -12972, -17195, -21555, -7391, -25038, -30237, 26782, 30345, -2200, 20342, 21751, -10929, -12972, -17195, -21555, -7391, -25038, -30237, 26782, 30345, -2200, 20342, 21751, -10929, -12972, -17195, -21555, -2200, 20342, 21751, -10929, -12972, -17195, -21555, 2748, 4267, 8458, 12816, -7391, -2200, 20342, 21751, -10929, -12972, -17195, -21555, 2748, 4267, 8458, 12816, -7391, -2200, 20342, 21751, -10929, -12972, -17195, -21555, 2748, 4267, 8458, 12816, -7391, -2200, 20342, 21751, -10929, -12972, -17195, -21555, 2748, 4267, 8458, 12816, -7391, -17195, -21555, 2748, 4267, 8458, 12816, -7391, -25038, -30237, 26782, 30345, -2200, -17195, -21555, 2748, 4267, 8458, 12816, -7391, -25038, -30237, 26782, 30345, -2200, -17195, -21555, 2748, 4267, 8458, 12816, -7391, -25038, -30237, 26782, 30345, -2200, -17195, -5171, -24900, -30229, 26782, 30345, -2200, 20342, 21751, -10929, -12972, -17195, 12816, -7391, -25038, -30237, 26782, 30345, -2200, 20342, 21751, -10929, -12972, -17195, 12816, -7391, -25038, -30237, 26782, 30345, -2200, 20342, 21751, -10929, -12972, -17195, 12816, -7391, -25038, -30237, 26782, 30345, -2200, 20342, 21751, -10929, -12972, -17195, 30345, -2200, 20342, 21751, -10929, -12972, -17195, -21555, 2748, 4267, 8458, 12816, 30345, -2200, 20342, 21751, -10929, -12972, -17195, -21555, 2748, 4267, 8458, 12816, 30345, -2200, 20342, 21751, -10929, -12972, -17195, -21555, 2748, 4267, 8458, 12816, 30345, -2200, 20342, 21751, -10929, -12972, -17195, -21555, 2748, -32597, 26634, 30336, -12972, -17195, -21555, 2748, 4267, 8458, 12816, -7391, -25038, -30237, 26782, 30345, -12972, -17195, -21555, 2748, 4267, 8458, 12816, -7391, -25038, -30237, 26782, 30345, -12972, -17195, -21555, 2748, 4267, 8458, 12816, -7391, -25038, -30237, 26782, 30345, 8458, 12816, -7391, -25038, -30237, 26782, 30345, -2200, 20342, 21751, -10929, -12972, 8458, 12816, -7391, -25038, -30237, 26782, 30345, -2200, 20342, 21751, -10929, -12972, 8458, 12816, -7391, -25038, -30237, 26782, 30345, -2200, 20342, 21751, -10929, -12972, 8458, 12816, -7391, -25038, -30237, 26782, 30345, -2200, 20342, 21751, -10929, -12972, 26782, 30345, -2200, 20342, 21751, -10929, -12972, -17195, -21555, 2748, 4267, 8458, 26782, 30345, -2200, 20342, 21751, -10929, -12972, -17195, -21555, 2748, 4267, 8458, 26782, 30345, -2200, 20342, 21751, -10929, -12972, -17195, -21555, 2748, 4267, 8458, -10929, -12972, -17195, -21555, 2748, 4267, 8458, 12816, -7391, -25038, -30237, 26782, -10929, -12972, -17195, -21555, 2748, 4267, 8458, 12816, -7391, -25038, -30237, 26782, -10929, -12972, -17195, -21555, 2748, 4267, 8458, 12816, -7391, -25038, -30237, 26782, -10929, -12972, -17195, -21555, 2748, 4267, 8458, 12816, -7391, -25038, -30237, 26782, 4267, 8458, 12816, -7391, -25038, -30237, 26782, 30345, -2200, 20342, 21751, -10929, 4267, 8458, 12816, -7391, -25038, -30237, 26782, 30345, -2200, 20342, 21751, -10929, 4267, 8458, 12816, -7391, -25038, -30237, 26782, 30345, -2200, 20342, 21751, -10929, 4267, 8458, 12816, -7391, -25038, 23011, -10850, -12967, -17195, -21555, 2748, 4267, -30237, 26782, 30345, -2200, 20342, 21751, -10929, -12972, -17195, -21555, 2748, 4267, -30237, 26782, 30345, -2200, 20342, 21751, -10929, -12972, -17195, -21555, 2748, 4267, -30237, 26782, 30345, -2200, 20342, 21751, -10929, -12972, -17195, -21555, 2748, 4267, 21751, -10929, -12972, -17195, -21555, 2748, 4267, 8458, 12816, -7391, -25038, -30237, 21751, -10929, -12972, -17195, -21555, 2748, 4267, 8458, 12816, -7391, -25038, -30237, 21751, -10929, -12972, -17195, -21555, 2748, 4267, 8458, 12816, -7391, -25038, -30237, 21751, -10929, -12972, -17195, -21555, 2748, 4267, 8458, 12816, -7391, -25038, -30237, 2748, 4267, 8458, 12816, -7391, -25038, -30237, 26782, 30345, -2200, 20342, 21751, 2748, 4267, 8458, 12816, -7391, -25038, -30237, 26782, 30345, -2200, 20342, 21751, 2748, 4267, 8458, 12816, -7391, -25038, -30237, 26782, 30345, -2200, 20342, 21751, -25038, -30237, 26782, 30345, -2200, 20342, 21751, -10929, -12972, -17195, -21555, 2748, -25038, -30237, 26782, 30345, -2200, 20342, 21751, -10929, -12972, -17195, -21555, 2748, -25038, -30237, 26782, 30345, -2200, 20342, 21751, -10929, -12972, -17195, -21555, 2748, -25038, -30237, 26782, 30345, -2200, 20342, 21751, -10929, -12972, -17195, -21555, 2748, 20342, 21751, -10929, -12972, -17195, -21555, 2748, 4267, 8458, 12816, -7391, -25038, 20342, 21751, -10929, -12972, -17195, -21555, 2748, 4267, 8458, 12816, -7391, -25038, 20342, 21751, -10929, -12972, -17195, -21555, 2748, 4267, 8458, 12816, -7391, -25038, 20342, 1271, 4175, 8452, 12816, -7391, -25038, -30237, 26782, 30345, -2200, 20342, -21555, 2748, 4267, 8458, 12816, -7391, -25038, -30237, 26782, 30345, -2200, 20342, -21555, 2748, 4267, 8458, 12816, -7391, -25038, -30237, 26782, 30345, -2200, 20342, -21555, 2748, 4267, 8458, 12816, -7391, -25038, -30237, 26782, 30345, -2200, 20342, -7391, -25038, -30237, 26782, 30345, -2200, 20342, 21751, -10929, -12972, -17195, -21555, -7391, -25038, -30237, 26782, 30345, -2200, 20342, 21751, -10929, -12972, -17195, -21555, -7391, -25038, -30237, 26782, 30345, -2200, 20342, 21751, -10929, -12972, -17195, -21555, -7391, -25038, -30237, 26782, 30345, -2200, 20342, 21751, -10929, 11604, 13013, -7379, -2200, 20342, 21751, -10929, -12972, -17195, -21555, 2748, 4267, 8458, 12816, -7391, -2200, 20342, 21751, -10929, -12972, -17195, -21555, 2748, 4267, 8458, 12816, -7391, -2200, 20342, 21751, -10929, -12972, -17195, -21555, 2748, 4267, 8458, 12816, -7391, -17195, -21555, 2748, 4267, 8458, 12816, -7391, -25038, -30237, 26782, 30345, -2200, -17195, -21555, 2748, 4267, 8458, 12816, -7391, -25038, -30237, 26782, 30345, -2200, -17195, -21555, 2748, 4267, 8458, 12816, -7391, -25038, -30237, 26782, 30345, -2200, -17195, -21555, 2748, 4267, 8458, 12816, -7391, -25038, -30237, 26782, 30345, -2200, 12816, -7391, -25038, -30237, 26782, 30345, -2200, 20342, 21751, -10929, -12972, -17195, 12816, -7391, -25038, -30237, 26782, 30345, -2200, 20342, 21751, -10929, -12972, -17195, 12816, -7391, -25038, -30237, 26782, 30345, -2200, 20342, 21751, -10929, -12972, -17195};
